digraph Tree {
node [shape=box, fontname="helvetica"] ;
edge [fontname="helvetica"] ;
0 [label="X[1] <= 4154.0\ngini = 0.615\nsamples = 789\nvalue = [[326, 463, 0, 0, 0, 0, 0, 0, 0, 0, 0, 0, 0\n 0, 0, 0, 0, 0, 0, 0, 0, 0, 0, 0]\n[128, 122, 60, 120, 115, 64, 122, 58, 0, 0, 0\n 0, 0, 0, 0, 0, 0, 0, 0, 0, 0, 0, 0, 0]\n[413, 376, 0, 0, 0, 0, 0, 0, 0, 0, 0, 0, 0\n 0, 0, 0, 0, 0, 0, 0, 0, 0, 0, 0]\n[393, 396, 0, 0, 0, 0, 0, 0, 0, 0, 0, 0, 0\n 0, 0, 0, 0, 0, 0, 0, 0, 0, 0, 0]\n[380, 409, 0, 0, 0, 0, 0, 0, 0, 0, 0, 0, 0\n 0, 0, 0, 0, 0, 0, 0, 0, 0, 0, 0]\n[24, 27, 32, 34, 35, 35, 26, 37, 34, 23, 38, 39\n 36, 30, 35, 32, 37, 35, 26, 37, 33, 33, 39, 32]\n[401, 388, 0, 0, 0, 0, 0, 0, 0, 0, 0, 0, 0\n 0, 0, 0, 0, 0, 0, 0, 0, 0, 0, 0]]"] ;
1 [label="X[15] <= -2.825\ngini = 0.564\nsamples = 451\nvalue = [[30, 421, 0, 0, 0, 0, 0, 0, 0, 0, 0, 0, 0\n 0, 0, 0, 0, 0, 0, 0, 0, 0, 0, 0]\n[63, 60, 49, 70, 65, 36, 51, 57, 0, 0, 0, 0\n 0, 0, 0, 0, 0, 0, 0, 0, 0, 0, 0, 0]\n[249, 202, 0, 0, 0, 0, 0, 0, 0, 0, 0, 0, 0\n 0, 0, 0, 0, 0, 0, 0, 0, 0, 0, 0]\n[234, 217, 0, 0, 0, 0, 0, 0, 0, 0, 0, 0, 0\n 0, 0, 0, 0, 0, 0, 0, 0, 0, 0, 0]\n[222, 229, 0, 0, 0, 0, 0, 0, 0, 0, 0, 0, 0\n 0, 0, 0, 0, 0, 0, 0, 0, 0, 0, 0]\n[11, 13, 25, 18, 20, 22, 19, 16, 20, 18, 17, 28\n 20, 12, 17, 14, 17, 19, 21, 18, 18, 21, 24, 23]\n[232, 219, 0, 0, 0, 0, 0, 0, 0, 0, 0, 0, 0\n 0, 0, 0, 0, 0, 0, 0, 0, 0, 0, 0]]"] ;
0 -> 1 [labeldistance=2.5, labelangle=45, headlabel="True"] ;
2 [label="X[4] <= -29.274\ngini = 0.53\nsamples = 275\nvalue = [[16, 259, 0, 0, 0, 0, 0, 0, 0, 0, 0, 0, 0\n 0, 0, 0, 0, 0, 0, 0, 0, 0, 0, 0]\n[38, 33, 24, 41, 44, 19, 29, 47, 0, 0, 0, 0\n 0, 0, 0, 0, 0, 0, 0, 0, 0, 0, 0, 0]\n[135, 140, 0, 0, 0, 0, 0, 0, 0, 0, 0, 0, 0\n 0, 0, 0, 0, 0, 0, 0, 0, 0, 0, 0]\n[142, 133, 0, 0, 0, 0, 0, 0, 0, 0, 0, 0, 0\n 0, 0, 0, 0, 0, 0, 0, 0, 0, 0, 0]\n[135, 140, 0, 0, 0, 0, 0, 0, 0, 0, 0, 0, 0\n 0, 0, 0, 0, 0, 0, 0, 0, 0, 0, 0]\n[3, 13, 6, 18, 3, 22, 1, 15, 2, 17, 3, 28, 20\n 0, 13, 7, 17, 9, 21, 5, 17, 7, 24, 4]\n[225, 50, 0, 0, 0, 0, 0, 0, 0, 0, 0, 0, 0\n 0, 0, 0, 0, 0, 0, 0, 0, 0, 0, 0]]"] ;
1 -> 2 ;
3 [label="X[17] <= 14216.0\ngini = 0.487\nsamples = 163\nvalue = [[9, 154, 0, 0, 0, 0, 0, 0, 0, 0, 0, 0, 0, 0\n 0, 0, 0, 0, 0, 0, 0, 0, 0, 0]\n[14, 30, 19, 18, 23, 17, 23, 19, 0, 0, 0, 0\n 0, 0, 0, 0, 0, 0, 0, 0, 0, 0, 0, 0]\n[113, 50, 0, 0, 0, 0, 0, 0, 0, 0, 0, 0, 0\n 0, 0, 0, 0, 0, 0, 0, 0, 0, 0, 0]\n[87, 76, 0, 0, 0, 0, 0, 0, 0, 0, 0, 0, 0, 0\n 0, 0, 0, 0, 0, 0, 0, 0, 0, 0]\n[83, 80, 0, 0, 0, 0, 0, 0, 0, 0, 0, 0, 0, 0\n 0, 0, 0, 0, 0, 0, 0, 0, 0, 0]\n[0, 0, 1, 10, 0, 17, 0, 9, 0, 14, 0, 21, 20\n 0, 10, 2, 14, 2, 14, 1, 14, 1, 11, 2]\n[154, 9, 0, 0, 0, 0, 0, 0, 0, 0, 0, 0, 0, 0\n 0, 0, 0, 0, 0, 0, 0, 0, 0, 0]]"] ;
2 -> 3 ;
4 [label="X[5] <= 154.417\ngini = 0.474\nsamples = 117\nvalue = [[2, 115, 0, 0, 0, 0, 0, 0, 0, 0, 0, 0, 0, 0\n 0, 0, 0, 0, 0, 0, 0, 0, 0, 0]\n[5, 27, 13, 8, 13, 17, 20, 14, 0, 0, 0, 0, 0\n 0, 0, 0, 0, 0, 0, 0, 0, 0, 0, 0]\n[85, 32, 0, 0, 0, 0, 0, 0, 0, 0, 0, 0, 0, 0\n 0, 0, 0, 0, 0, 0, 0, 0, 0, 0]\n[50, 67, 0, 0, 0, 0, 0, 0, 0, 0, 0, 0, 0, 0\n 0, 0, 0, 0, 0, 0, 0, 0, 0, 0]\n[65, 52, 0, 0, 0, 0, 0, 0, 0, 0, 0, 0, 0, 0\n 0, 0, 0, 0, 0, 0, 0, 0, 0, 0]\n[0, 0, 1, 5, 0, 8, 0, 7, 0, 14, 0, 15, 17\n 0, 8, 2, 10, 2, 8, 1, 5, 1, 11, 2]\n[108, 9, 0, 0, 0, 0, 0, 0, 0, 0, 0, 0, 0, 0\n 0, 0, 0, 0, 0, 0, 0, 0, 0, 0]]"] ;
3 -> 4 ;
5 [label="X[5] <= 130.237\ngini = 0.473\nsamples = 51\nvalue = [[2, 49, 0, 0, 0, 0, 0, 0, 0, 0, 0, 0, 0, 0\n 0, 0, 0, 0, 0, 0, 0, 0, 0, 0]\n[4, 2, 8, 6, 11, 4, 7, 9, 0, 0, 0, 0, 0, 0\n 0, 0, 0, 0, 0, 0, 0, 0, 0, 0]\n[36, 15, 0, 0, 0, 0, 0, 0, 0, 0, 0, 0, 0, 0\n 0, 0, 0, 0, 0, 0, 0, 0, 0, 0]\n[15, 36, 0, 0, 0, 0, 0, 0, 0, 0, 0, 0, 0, 0\n 0, 0, 0, 0, 0, 0, 0, 0, 0, 0]\n[22, 29, 0, 0, 0, 0, 0, 0, 0, 0, 0, 0, 0, 0\n 0, 0, 0, 0, 0, 0, 0, 0, 0, 0]\n[0, 0, 1, 2, 0, 4, 0, 4, 0, 6, 0, 12, 4, 0\n 3, 0, 3, 2, 6, 1, 0, 1, 2, 0]\n[46, 5, 0, 0, 0, 0, 0, 0, 0, 0, 0, 0, 0, 0\n 0, 0, 0, 0, 0, 0, 0, 0, 0, 0]]"] ;
4 -> 5 ;
6 [label="X[14] <= 0.368\ngini = 0.35\nsamples = 7\nvalue = [[1, 6, 0, 0, 0, 0, 0, 0, 0, 0, 0, 0, 0, 0\n 0, 0, 0, 0, 0, 0, 0, 0, 0, 0]\n[1, 0, 1, 1, 0, 0, 4, 0, 0, 0, 0, 0, 0, 0\n 0, 0, 0, 0, 0, 0, 0, 0, 0, 0]\n[1, 6, 0, 0, 0, 0, 0, 0, 0, 0, 0, 0, 0, 0\n 0, 0, 0, 0, 0, 0, 0, 0, 0, 0]\n[0, 7, 0, 0, 0, 0, 0, 0, 0, 0, 0, 0, 0, 0\n 0, 0, 0, 0, 0, 0, 0, 0, 0, 0]\n[5, 2, 0, 0, 0, 0, 0, 0, 0, 0, 0, 0, 0, 0\n 0, 0, 0, 0, 0, 0, 0, 0, 0, 0]\n[0, 0, 0, 0, 0, 0, 0, 0, 0, 2, 0, 0, 0, 0\n 1, 0, 0, 1, 3, 0, 0, 0, 0, 0]\n[6, 1, 0, 0, 0, 0, 0, 0, 0, 0, 0, 0, 0, 0\n 0, 0, 0, 0, 0, 0, 0, 0, 0, 0]]"] ;
5 -> 6 ;
7 [label="gini = 0.0\nsamples = 1\nvalue = [[1, 0, 0, 0, 0, 0, 0, 0, 0, 0, 0, 0, 0, 0\n 0, 0, 0, 0, 0, 0, 0, 0, 0, 0]\n[1, 0, 0, 0, 0, 0, 0, 0, 0, 0, 0, 0, 0, 0\n 0, 0, 0, 0, 0, 0, 0, 0, 0, 0]\n[1, 0, 0, 0, 0, 0, 0, 0, 0, 0, 0, 0, 0, 0\n 0, 0, 0, 0, 0, 0, 0, 0, 0, 0]\n[0, 1, 0, 0, 0, 0, 0, 0, 0, 0, 0, 0, 0, 0\n 0, 0, 0, 0, 0, 0, 0, 0, 0, 0]\n[1, 0, 0, 0, 0, 0, 0, 0, 0, 0, 0, 0, 0, 0\n 0, 0, 0, 0, 0, 0, 0, 0, 0, 0]\n[0, 0, 0, 0, 0, 0, 0, 0, 0, 0, 0, 0, 0, 0\n 0, 0, 0, 0, 1, 0, 0, 0, 0, 0]\n[1, 0, 0, 0, 0, 0, 0, 0, 0, 0, 0, 0, 0, 0\n 0, 0, 0, 0, 0, 0, 0, 0, 0, 0]]"] ;
6 -> 7 ;
8 [label="X[4] <= -29.761\ngini = 0.278\nsamples = 6\nvalue = [[0, 6, 0, 0, 0, 0, 0, 0, 0, 0, 0, 0, 0, 0\n 0, 0, 0, 0, 0, 0, 0, 0, 0, 0]\n[0, 0, 1, 1, 0, 0, 4, 0, 0, 0, 0, 0, 0, 0\n 0, 0, 0, 0, 0, 0, 0, 0, 0, 0]\n[0, 6, 0, 0, 0, 0, 0, 0, 0, 0, 0, 0, 0, 0\n 0, 0, 0, 0, 0, 0, 0, 0, 0, 0]\n[0, 6, 0, 0, 0, 0, 0, 0, 0, 0, 0, 0, 0, 0\n 0, 0, 0, 0, 0, 0, 0, 0, 0, 0]\n[4, 2, 0, 0, 0, 0, 0, 0, 0, 0, 0, 0, 0, 0\n 0, 0, 0, 0, 0, 0, 0, 0, 0, 0]\n[0, 0, 0, 0, 0, 0, 0, 0, 0, 2, 0, 0, 0, 0\n 1, 0, 0, 1, 2, 0, 0, 0, 0, 0]\n[5, 1, 0, 0, 0, 0, 0, 0, 0, 0, 0, 0, 0, 0\n 0, 0, 0, 0, 0, 0, 0, 0, 0, 0]]"] ;
6 -> 8 ;
9 [label="X[5] <= 122.34\ngini = 0.214\nsamples = 4\nvalue = [[0, 4, 0, 0, 0, 0, 0, 0, 0, 0, 0, 0, 0, 0\n 0, 0, 0, 0, 0, 0, 0, 0, 0, 0]\n[0, 0, 0, 1, 0, 0, 3, 0, 0, 0, 0, 0, 0, 0\n 0, 0, 0, 0, 0, 0, 0, 0, 0, 0]\n[0, 4, 0, 0, 0, 0, 0, 0, 0, 0, 0, 0, 0, 0\n 0, 0, 0, 0, 0, 0, 0, 0, 0, 0]\n[0, 4, 0, 0, 0, 0, 0, 0, 0, 0, 0, 0, 0, 0\n 0, 0, 0, 0, 0, 0, 0, 0, 0, 0]\n[4, 0, 0, 0, 0, 0, 0, 0, 0, 0, 0, 0, 0, 0\n 0, 0, 0, 0, 0, 0, 0, 0, 0, 0]\n[0, 0, 0, 0, 0, 0, 0, 0, 0, 1, 0, 0, 0, 0\n 1, 0, 0, 1, 1, 0, 0, 0, 0, 0]\n[3, 1, 0, 0, 0, 0, 0, 0, 0, 0, 0, 0, 0, 0\n 0, 0, 0, 0, 0, 0, 0, 0, 0, 0]]"] ;
8 -> 9 ;
10 [label="gini = 0.0\nsamples = 1\nvalue = [[0, 1, 0, 0, 0, 0, 0, 0, 0, 0, 0, 0, 0, 0\n 0, 0, 0, 0, 0, 0, 0, 0, 0, 0]\n[0, 0, 0, 1, 0, 0, 0, 0, 0, 0, 0, 0, 0, 0\n 0, 0, 0, 0, 0, 0, 0, 0, 0, 0]\n[0, 1, 0, 0, 0, 0, 0, 0, 0, 0, 0, 0, 0, 0\n 0, 0, 0, 0, 0, 0, 0, 0, 0, 0]\n[0, 1, 0, 0, 0, 0, 0, 0, 0, 0, 0, 0, 0, 0\n 0, 0, 0, 0, 0, 0, 0, 0, 0, 0]\n[1, 0, 0, 0, 0, 0, 0, 0, 0, 0, 0, 0, 0, 0\n 0, 0, 0, 0, 0, 0, 0, 0, 0, 0]\n[0, 0, 0, 0, 0, 0, 0, 0, 0, 0, 0, 0, 0, 0\n 1, 0, 0, 0, 0, 0, 0, 0, 0, 0]\n[1, 0, 0, 0, 0, 0, 0, 0, 0, 0, 0, 0, 0, 0\n 0, 0, 0, 0, 0, 0, 0, 0, 0, 0]]"] ;
9 -> 10 ;
11 [label="X[7] <= 0.391\ngini = 0.159\nsamples = 3\nvalue = [[0, 3, 0, 0, 0, 0, 0, 0, 0, 0, 0, 0, 0, 0\n 0, 0, 0, 0, 0, 0, 0, 0, 0, 0]\n[0, 0, 0, 0, 0, 0, 3, 0, 0, 0, 0, 0, 0, 0\n 0, 0, 0, 0, 0, 0, 0, 0, 0, 0]\n[0, 3, 0, 0, 0, 0, 0, 0, 0, 0, 0, 0, 0, 0\n 0, 0, 0, 0, 0, 0, 0, 0, 0, 0]\n[0, 3, 0, 0, 0, 0, 0, 0, 0, 0, 0, 0, 0, 0\n 0, 0, 0, 0, 0, 0, 0, 0, 0, 0]\n[3, 0, 0, 0, 0, 0, 0, 0, 0, 0, 0, 0, 0, 0\n 0, 0, 0, 0, 0, 0, 0, 0, 0, 0]\n[0, 0, 0, 0, 0, 0, 0, 0, 0, 1, 0, 0, 0, 0\n 0, 0, 0, 1, 1, 0, 0, 0, 0, 0]\n[2, 1, 0, 0, 0, 0, 0, 0, 0, 0, 0, 0, 0, 0\n 0, 0, 0, 0, 0, 0, 0, 0, 0, 0]]"] ;
9 -> 11 ;
12 [label="gini = 0.0\nsamples = 1\nvalue = [[0, 1, 0, 0, 0, 0, 0, 0, 0, 0, 0, 0, 0, 0\n 0, 0, 0, 0, 0, 0, 0, 0, 0, 0]\n[0, 0, 0, 0, 0, 0, 1, 0, 0, 0, 0, 0, 0, 0\n 0, 0, 0, 0, 0, 0, 0, 0, 0, 0]\n[0, 1, 0, 0, 0, 0, 0, 0, 0, 0, 0, 0, 0, 0\n 0, 0, 0, 0, 0, 0, 0, 0, 0, 0]\n[0, 1, 0, 0, 0, 0, 0, 0, 0, 0, 0, 0, 0, 0\n 0, 0, 0, 0, 0, 0, 0, 0, 0, 0]\n[1, 0, 0, 0, 0, 0, 0, 0, 0, 0, 0, 0, 0, 0\n 0, 0, 0, 0, 0, 0, 0, 0, 0, 0]\n[0, 0, 0, 0, 0, 0, 0, 0, 0, 0, 0, 0, 0, 0\n 0, 0, 0, 1, 0, 0, 0, 0, 0, 0]\n[0, 1, 0, 0, 0, 0, 0, 0, 0, 0, 0, 0, 0, 0\n 0, 0, 0, 0, 0, 0, 0, 0, 0, 0]]"] ;
11 -> 12 ;
13 [label="X[17] <= 13464.0\ngini = 0.071\nsamples = 2\nvalue = [[0, 2, 0, 0, 0, 0, 0, 0, 0, 0, 0, 0, 0, 0\n 0, 0, 0, 0, 0, 0, 0, 0, 0, 0]\n[0, 0, 0, 0, 0, 0, 2, 0, 0, 0, 0, 0, 0, 0\n 0, 0, 0, 0, 0, 0, 0, 0, 0, 0]\n[0, 2, 0, 0, 0, 0, 0, 0, 0, 0, 0, 0, 0, 0\n 0, 0, 0, 0, 0, 0, 0, 0, 0, 0]\n[0, 2, 0, 0, 0, 0, 0, 0, 0, 0, 0, 0, 0, 0\n 0, 0, 0, 0, 0, 0, 0, 0, 0, 0]\n[2, 0, 0, 0, 0, 0, 0, 0, 0, 0, 0, 0, 0, 0\n 0, 0, 0, 0, 0, 0, 0, 0, 0, 0]\n[0, 0, 0, 0, 0, 0, 0, 0, 0, 1, 0, 0, 0, 0\n 0, 0, 0, 0, 1, 0, 0, 0, 0, 0]\n[2, 0, 0, 0, 0, 0, 0, 0, 0, 0, 0, 0, 0, 0\n 0, 0, 0, 0, 0, 0, 0, 0, 0, 0]]"] ;
11 -> 13 ;
14 [label="gini = 0.0\nsamples = 1\nvalue = [[0, 1, 0, 0, 0, 0, 0, 0, 0, 0, 0, 0, 0, 0\n 0, 0, 0, 0, 0, 0, 0, 0, 0, 0]\n[0, 0, 0, 0, 0, 0, 1, 0, 0, 0, 0, 0, 0, 0\n 0, 0, 0, 0, 0, 0, 0, 0, 0, 0]\n[0, 1, 0, 0, 0, 0, 0, 0, 0, 0, 0, 0, 0, 0\n 0, 0, 0, 0, 0, 0, 0, 0, 0, 0]\n[0, 1, 0, 0, 0, 0, 0, 0, 0, 0, 0, 0, 0, 0\n 0, 0, 0, 0, 0, 0, 0, 0, 0, 0]\n[1, 0, 0, 0, 0, 0, 0, 0, 0, 0, 0, 0, 0, 0\n 0, 0, 0, 0, 0, 0, 0, 0, 0, 0]\n[0, 0, 0, 0, 0, 0, 0, 0, 0, 1, 0, 0, 0, 0\n 0, 0, 0, 0, 0, 0, 0, 0, 0, 0]\n[1, 0, 0, 0, 0, 0, 0, 0, 0, 0, 0, 0, 0, 0\n 0, 0, 0, 0, 0, 0, 0, 0, 0, 0]]"] ;
13 -> 14 ;
15 [label="gini = 0.0\nsamples = 1\nvalue = [[0, 1, 0, 0, 0, 0, 0, 0, 0, 0, 0, 0, 0, 0\n 0, 0, 0, 0, 0, 0, 0, 0, 0, 0]\n[0, 0, 0, 0, 0, 0, 1, 0, 0, 0, 0, 0, 0, 0\n 0, 0, 0, 0, 0, 0, 0, 0, 0, 0]\n[0, 1, 0, 0, 0, 0, 0, 0, 0, 0, 0, 0, 0, 0\n 0, 0, 0, 0, 0, 0, 0, 0, 0, 0]\n[0, 1, 0, 0, 0, 0, 0, 0, 0, 0, 0, 0, 0, 0\n 0, 0, 0, 0, 0, 0, 0, 0, 0, 0]\n[1, 0, 0, 0, 0, 0, 0, 0, 0, 0, 0, 0, 0, 0\n 0, 0, 0, 0, 0, 0, 0, 0, 0, 0]\n[0, 0, 0, 0, 0, 0, 0, 0, 0, 0, 0, 0, 0, 0\n 0, 0, 0, 0, 1, 0, 0, 0, 0, 0]\n[1, 0, 0, 0, 0, 0, 0, 0, 0, 0, 0, 0, 0, 0\n 0, 0, 0, 0, 0, 0, 0, 0, 0, 0]]"] ;
13 -> 15 ;
16 [label="X[13] <= -1.4\ngini = 0.143\nsamples = 2\nvalue = [[0, 2, 0, 0, 0, 0, 0, 0, 0, 0, 0, 0, 0, 0\n 0, 0, 0, 0, 0, 0, 0, 0, 0, 0]\n[0, 0, 1, 0, 0, 0, 1, 0, 0, 0, 0, 0, 0, 0\n 0, 0, 0, 0, 0, 0, 0, 0, 0, 0]\n[0, 2, 0, 0, 0, 0, 0, 0, 0, 0, 0, 0, 0, 0\n 0, 0, 0, 0, 0, 0, 0, 0, 0, 0]\n[0, 2, 0, 0, 0, 0, 0, 0, 0, 0, 0, 0, 0, 0\n 0, 0, 0, 0, 0, 0, 0, 0, 0, 0]\n[0, 2, 0, 0, 0, 0, 0, 0, 0, 0, 0, 0, 0, 0\n 0, 0, 0, 0, 0, 0, 0, 0, 0, 0]\n[0, 0, 0, 0, 0, 0, 0, 0, 0, 1, 0, 0, 0, 0\n 0, 0, 0, 0, 1, 0, 0, 0, 0, 0]\n[2, 0, 0, 0, 0, 0, 0, 0, 0, 0, 0, 0, 0, 0\n 0, 0, 0, 0, 0, 0, 0, 0, 0, 0]]"] ;
8 -> 16 ;
17 [label="gini = 0.0\nsamples = 1\nvalue = [[0, 1, 0, 0, 0, 0, 0, 0, 0, 0, 0, 0, 0, 0\n 0, 0, 0, 0, 0, 0, 0, 0, 0, 0]\n[0, 0, 0, 0, 0, 0, 1, 0, 0, 0, 0, 0, 0, 0\n 0, 0, 0, 0, 0, 0, 0, 0, 0, 0]\n[0, 1, 0, 0, 0, 0, 0, 0, 0, 0, 0, 0, 0, 0\n 0, 0, 0, 0, 0, 0, 0, 0, 0, 0]\n[0, 1, 0, 0, 0, 0, 0, 0, 0, 0, 0, 0, 0, 0\n 0, 0, 0, 0, 0, 0, 0, 0, 0, 0]\n[0, 1, 0, 0, 0, 0, 0, 0, 0, 0, 0, 0, 0, 0\n 0, 0, 0, 0, 0, 0, 0, 0, 0, 0]\n[0, 0, 0, 0, 0, 0, 0, 0, 0, 1, 0, 0, 0, 0\n 0, 0, 0, 0, 0, 0, 0, 0, 0, 0]\n[1, 0, 0, 0, 0, 0, 0, 0, 0, 0, 0, 0, 0, 0\n 0, 0, 0, 0, 0, 0, 0, 0, 0, 0]]"] ;
16 -> 17 ;
18 [label="gini = 0.0\nsamples = 1\nvalue = [[0, 1, 0, 0, 0, 0, 0, 0, 0, 0, 0, 0, 0, 0\n 0, 0, 0, 0, 0, 0, 0, 0, 0, 0]\n[0, 0, 1, 0, 0, 0, 0, 0, 0, 0, 0, 0, 0, 0\n 0, 0, 0, 0, 0, 0, 0, 0, 0, 0]\n[0, 1, 0, 0, 0, 0, 0, 0, 0, 0, 0, 0, 0, 0\n 0, 0, 0, 0, 0, 0, 0, 0, 0, 0]\n[0, 1, 0, 0, 0, 0, 0, 0, 0, 0, 0, 0, 0, 0\n 0, 0, 0, 0, 0, 0, 0, 0, 0, 0]\n[0, 1, 0, 0, 0, 0, 0, 0, 0, 0, 0, 0, 0, 0\n 0, 0, 0, 0, 0, 0, 0, 0, 0, 0]\n[0, 0, 0, 0, 0, 0, 0, 0, 0, 0, 0, 0, 0, 0\n 0, 0, 0, 0, 1, 0, 0, 0, 0, 0]\n[1, 0, 0, 0, 0, 0, 0, 0, 0, 0, 0, 0, 0, 0\n 0, 0, 0, 0, 0, 0, 0, 0, 0, 0]]"] ;
16 -> 18 ;
19 [label="X[12] <= -0.0\ngini = 0.453\nsamples = 44\nvalue = [[1, 43, 0, 0, 0, 0, 0, 0, 0, 0, 0, 0, 0, 0\n 0, 0, 0, 0, 0, 0, 0, 0, 0, 0]\n[3, 2, 7, 5, 11, 4, 3, 9, 0, 0, 0, 0, 0, 0\n 0, 0, 0, 0, 0, 0, 0, 0, 0, 0]\n[35, 9, 0, 0, 0, 0, 0, 0, 0, 0, 0, 0, 0, 0\n 0, 0, 0, 0, 0, 0, 0, 0, 0, 0]\n[15, 29, 0, 0, 0, 0, 0, 0, 0, 0, 0, 0, 0, 0\n 0, 0, 0, 0, 0, 0, 0, 0, 0, 0]\n[17, 27, 0, 0, 0, 0, 0, 0, 0, 0, 0, 0, 0, 0\n 0, 0, 0, 0, 0, 0, 0, 0, 0, 0]\n[0, 0, 1, 2, 0, 4, 0, 4, 0, 4, 0, 12, 4, 0\n 2, 0, 3, 1, 3, 1, 0, 1, 2, 0]\n[40, 4, 0, 0, 0, 0, 0, 0, 0, 0, 0, 0, 0, 0\n 0, 0, 0, 0, 0, 0, 0, 0, 0, 0]]"] ;
5 -> 19 ;
20 [label="X[1] <= 3520.5\ngini = 0.457\nsamples = 21\nvalue = [[0, 21, 0, 0, 0, 0, 0, 0, 0, 0, 0, 0, 0, 0\n 0, 0, 0, 0, 0, 0, 0, 0, 0, 0]\n[0, 2, 5, 3, 1, 2, 3, 5, 0, 0, 0, 0, 0, 0\n 0, 0, 0, 0, 0, 0, 0, 0, 0, 0]\n[14, 7, 0, 0, 0, 0, 0, 0, 0, 0, 0, 0, 0, 0\n 0, 0, 0, 0, 0, 0, 0, 0, 0, 0]\n[4, 17, 0, 0, 0, 0, 0, 0, 0, 0, 0, 0, 0, 0\n 0, 0, 0, 0, 0, 0, 0, 0, 0, 0]\n[11, 10, 0, 0, 0, 0, 0, 0, 0, 0, 0, 0, 0, 0\n 0, 0, 0, 0, 0, 0, 0, 0, 0, 0]\n[0, 0, 1, 2, 0, 1, 0, 1, 0, 3, 0, 5, 0, 0\n 2, 0, 0, 1, 2, 1, 0, 0, 2, 0]\n[18, 3, 0, 0, 0, 0, 0, 0, 0, 0, 0, 0, 0, 0\n 0, 0, 0, 0, 0, 0, 0, 0, 0, 0]]"] ;
19 -> 20 ;
21 [label="X[4] <= -31.747\ngini = 0.397\nsamples = 7\nvalue = [[0, 7, 0, 0, 0, 0, 0, 0, 0, 0, 0, 0, 0, 0\n 0, 0, 0, 0, 0, 0, 0, 0, 0, 0]\n[0, 0, 0, 3, 1, 1, 0, 2, 0, 0, 0, 0, 0, 0\n 0, 0, 0, 0, 0, 0, 0, 0, 0, 0]\n[7, 0, 0, 0, 0, 0, 0, 0, 0, 0, 0, 0, 0, 0\n 0, 0, 0, 0, 0, 0, 0, 0, 0, 0]\n[3, 4, 0, 0, 0, 0, 0, 0, 0, 0, 0, 0, 0, 0\n 0, 0, 0, 0, 0, 0, 0, 0, 0, 0]\n[5, 2, 0, 0, 0, 0, 0, 0, 0, 0, 0, 0, 0, 0\n 0, 0, 0, 0, 0, 0, 0, 0, 0, 0]\n[0, 0, 1, 1, 0, 0, 0, 0, 0, 2, 0, 0, 0, 0\n 0, 0, 0, 1, 2, 0, 0, 0, 0, 0]\n[5, 2, 0, 0, 0, 0, 0, 0, 0, 0, 0, 0, 0, 0\n 0, 0, 0, 0, 0, 0, 0, 0, 0, 0]]"] ;
20 -> 21 ;
22 [label="X[7] <= 0.416\ngini = 0.127\nsamples = 3\nvalue = [[0, 3, 0, 0, 0, 0, 0, 0, 0, 0, 0, 0, 0, 0\n 0, 0, 0, 0, 0, 0, 0, 0, 0, 0]\n[0, 0, 0, 2, 1, 0, 0, 0, 0, 0, 0, 0, 0, 0\n 0, 0, 0, 0, 0, 0, 0, 0, 0, 0]\n[3, 0, 0, 0, 0, 0, 0, 0, 0, 0, 0, 0, 0, 0\n 0, 0, 0, 0, 0, 0, 0, 0, 0, 0]\n[0, 3, 0, 0, 0, 0, 0, 0, 0, 0, 0, 0, 0, 0\n 0, 0, 0, 0, 0, 0, 0, 0, 0, 0]\n[3, 0, 0, 0, 0, 0, 0, 0, 0, 0, 0, 0, 0, 0\n 0, 0, 0, 0, 0, 0, 0, 0, 0, 0]\n[0, 0, 0, 0, 0, 0, 0, 0, 0, 2, 0, 0, 0, 0\n 0, 0, 0, 0, 1, 0, 0, 0, 0, 0]\n[3, 0, 0, 0, 0, 0, 0, 0, 0, 0, 0, 0, 0, 0\n 0, 0, 0, 0, 0, 0, 0, 0, 0, 0]]"] ;
21 -> 22 ;
23 [label="gini = 0.0\nsamples = 1\nvalue = [[0, 1, 0, 0, 0, 0, 0, 0, 0, 0, 0, 0, 0, 0\n 0, 0, 0, 0, 0, 0, 0, 0, 0, 0]\n[0, 0, 0, 1, 0, 0, 0, 0, 0, 0, 0, 0, 0, 0\n 0, 0, 0, 0, 0, 0, 0, 0, 0, 0]\n[1, 0, 0, 0, 0, 0, 0, 0, 0, 0, 0, 0, 0, 0\n 0, 0, 0, 0, 0, 0, 0, 0, 0, 0]\n[0, 1, 0, 0, 0, 0, 0, 0, 0, 0, 0, 0, 0, 0\n 0, 0, 0, 0, 0, 0, 0, 0, 0, 0]\n[1, 0, 0, 0, 0, 0, 0, 0, 0, 0, 0, 0, 0, 0\n 0, 0, 0, 0, 0, 0, 0, 0, 0, 0]\n[0, 0, 0, 0, 0, 0, 0, 0, 0, 0, 0, 0, 0, 0\n 0, 0, 0, 0, 1, 0, 0, 0, 0, 0]\n[1, 0, 0, 0, 0, 0, 0, 0, 0, 0, 0, 0, 0, 0\n 0, 0, 0, 0, 0, 0, 0, 0, 0, 0]]"] ;
22 -> 23 ;
24 [label="X[11] <= 4211.601\ngini = 0.071\nsamples = 2\nvalue = [[0, 2, 0, 0, 0, 0, 0, 0, 0, 0, 0, 0, 0, 0\n 0, 0, 0, 0, 0, 0, 0, 0, 0, 0]\n[0, 0, 0, 1, 1, 0, 0, 0, 0, 0, 0, 0, 0, 0\n 0, 0, 0, 0, 0, 0, 0, 0, 0, 0]\n[2, 0, 0, 0, 0, 0, 0, 0, 0, 0, 0, 0, 0, 0\n 0, 0, 0, 0, 0, 0, 0, 0, 0, 0]\n[0, 2, 0, 0, 0, 0, 0, 0, 0, 0, 0, 0, 0, 0\n 0, 0, 0, 0, 0, 0, 0, 0, 0, 0]\n[2, 0, 0, 0, 0, 0, 0, 0, 0, 0, 0, 0, 0, 0\n 0, 0, 0, 0, 0, 0, 0, 0, 0, 0]\n[0, 0, 0, 0, 0, 0, 0, 0, 0, 2, 0, 0, 0, 0\n 0, 0, 0, 0, 0, 0, 0, 0, 0, 0]\n[2, 0, 0, 0, 0, 0, 0, 0, 0, 0, 0, 0, 0, 0\n 0, 0, 0, 0, 0, 0, 0, 0, 0, 0]]"] ;
22 -> 24 ;
25 [label="gini = 0.0\nsamples = 1\nvalue = [[0, 1, 0, 0, 0, 0, 0, 0, 0, 0, 0, 0, 0, 0\n 0, 0, 0, 0, 0, 0, 0, 0, 0, 0]\n[0, 0, 0, 1, 0, 0, 0, 0, 0, 0, 0, 0, 0, 0\n 0, 0, 0, 0, 0, 0, 0, 0, 0, 0]\n[1, 0, 0, 0, 0, 0, 0, 0, 0, 0, 0, 0, 0, 0\n 0, 0, 0, 0, 0, 0, 0, 0, 0, 0]\n[0, 1, 0, 0, 0, 0, 0, 0, 0, 0, 0, 0, 0, 0\n 0, 0, 0, 0, 0, 0, 0, 0, 0, 0]\n[1, 0, 0, 0, 0, 0, 0, 0, 0, 0, 0, 0, 0, 0\n 0, 0, 0, 0, 0, 0, 0, 0, 0, 0]\n[0, 0, 0, 0, 0, 0, 0, 0, 0, 1, 0, 0, 0, 0\n 0, 0, 0, 0, 0, 0, 0, 0, 0, 0]\n[1, 0, 0, 0, 0, 0, 0, 0, 0, 0, 0, 0, 0, 0\n 0, 0, 0, 0, 0, 0, 0, 0, 0, 0]]"] ;
24 -> 25 ;
26 [label="gini = 0.0\nsamples = 1\nvalue = [[0, 1, 0, 0, 0, 0, 0, 0, 0, 0, 0, 0, 0, 0\n 0, 0, 0, 0, 0, 0, 0, 0, 0, 0]\n[0, 0, 0, 0, 1, 0, 0, 0, 0, 0, 0, 0, 0, 0\n 0, 0, 0, 0, 0, 0, 0, 0, 0, 0]\n[1, 0, 0, 0, 0, 0, 0, 0, 0, 0, 0, 0, 0, 0\n 0, 0, 0, 0, 0, 0, 0, 0, 0, 0]\n[0, 1, 0, 0, 0, 0, 0, 0, 0, 0, 0, 0, 0, 0\n 0, 0, 0, 0, 0, 0, 0, 0, 0, 0]\n[1, 0, 0, 0, 0, 0, 0, 0, 0, 0, 0, 0, 0, 0\n 0, 0, 0, 0, 0, 0, 0, 0, 0, 0]\n[0, 0, 0, 0, 0, 0, 0, 0, 0, 1, 0, 0, 0, 0\n 0, 0, 0, 0, 0, 0, 0, 0, 0, 0]\n[1, 0, 0, 0, 0, 0, 0, 0, 0, 0, 0, 0, 0, 0\n 0, 0, 0, 0, 0, 0, 0, 0, 0, 0]]"] ;
24 -> 26 ;
27 [label="X[9] <= 853.376\ngini = 0.393\nsamples = 4\nvalue = [[0, 4, 0, 0, 0, 0, 0, 0, 0, 0, 0, 0, 0, 0\n 0, 0, 0, 0, 0, 0, 0, 0, 0, 0]\n[0, 0, 0, 1, 0, 1, 0, 2, 0, 0, 0, 0, 0, 0\n 0, 0, 0, 0, 0, 0, 0, 0, 0, 0]\n[4, 0, 0, 0, 0, 0, 0, 0, 0, 0, 0, 0, 0, 0\n 0, 0, 0, 0, 0, 0, 0, 0, 0, 0]\n[3, 1, 0, 0, 0, 0, 0, 0, 0, 0, 0, 0, 0, 0\n 0, 0, 0, 0, 0, 0, 0, 0, 0, 0]\n[2, 2, 0, 0, 0, 0, 0, 0, 0, 0, 0, 0, 0, 0\n 0, 0, 0, 0, 0, 0, 0, 0, 0, 0]\n[0, 0, 1, 1, 0, 0, 0, 0, 0, 0, 0, 0, 0, 0\n 0, 0, 0, 1, 1, 0, 0, 0, 0, 0]\n[2, 2, 0, 0, 0, 0, 0, 0, 0, 0, 0, 0, 0, 0\n 0, 0, 0, 0, 0, 0, 0, 0, 0, 0]]"] ;
21 -> 27 ;
28 [label="gini = 0.0\nsamples = 1\nvalue = [[0, 1, 0, 0, 0, 0, 0, 0, 0, 0, 0, 0, 0, 0\n 0, 0, 0, 0, 0, 0, 0, 0, 0, 0]\n[0, 0, 0, 0, 0, 0, 0, 1, 0, 0, 0, 0, 0, 0\n 0, 0, 0, 0, 0, 0, 0, 0, 0, 0]\n[1, 0, 0, 0, 0, 0, 0, 0, 0, 0, 0, 0, 0, 0\n 0, 0, 0, 0, 0, 0, 0, 0, 0, 0]\n[0, 1, 0, 0, 0, 0, 0, 0, 0, 0, 0, 0, 0, 0\n 0, 0, 0, 0, 0, 0, 0, 0, 0, 0]\n[0, 1, 0, 0, 0, 0, 0, 0, 0, 0, 0, 0, 0, 0\n 0, 0, 0, 0, 0, 0, 0, 0, 0, 0]\n[0, 0, 1, 0, 0, 0, 0, 0, 0, 0, 0, 0, 0, 0\n 0, 0, 0, 0, 0, 0, 0, 0, 0, 0]\n[0, 1, 0, 0, 0, 0, 0, 0, 0, 0, 0, 0, 0, 0\n 0, 0, 0, 0, 0, 0, 0, 0, 0, 0]]"] ;
27 -> 28 ;
29 [label="X[0] <= 2.459\ngini = 0.317\nsamples = 3\nvalue = [[0, 3, 0, 0, 0, 0, 0, 0, 0, 0, 0, 0, 0, 0\n 0, 0, 0, 0, 0, 0, 0, 0, 0, 0]\n[0, 0, 0, 1, 0, 1, 0, 1, 0, 0, 0, 0, 0, 0\n 0, 0, 0, 0, 0, 0, 0, 0, 0, 0]\n[3, 0, 0, 0, 0, 0, 0, 0, 0, 0, 0, 0, 0, 0\n 0, 0, 0, 0, 0, 0, 0, 0, 0, 0]\n[3, 0, 0, 0, 0, 0, 0, 0, 0, 0, 0, 0, 0, 0\n 0, 0, 0, 0, 0, 0, 0, 0, 0, 0]\n[2, 1, 0, 0, 0, 0, 0, 0, 0, 0, 0, 0, 0, 0\n 0, 0, 0, 0, 0, 0, 0, 0, 0, 0]\n[0, 0, 0, 1, 0, 0, 0, 0, 0, 0, 0, 0, 0, 0\n 0, 0, 0, 1, 1, 0, 0, 0, 0, 0]\n[2, 1, 0, 0, 0, 0, 0, 0, 0, 0, 0, 0, 0, 0\n 0, 0, 0, 0, 0, 0, 0, 0, 0, 0]]"] ;
27 -> 29 ;
30 [label="X[15] <= -3.688\ngini = 0.214\nsamples = 2\nvalue = [[0, 2, 0, 0, 0, 0, 0, 0, 0, 0, 0, 0, 0, 0\n 0, 0, 0, 0, 0, 0, 0, 0, 0, 0]\n[0, 0, 0, 1, 0, 0, 0, 1, 0, 0, 0, 0, 0, 0\n 0, 0, 0, 0, 0, 0, 0, 0, 0, 0]\n[2, 0, 0, 0, 0, 0, 0, 0, 0, 0, 0, 0, 0, 0\n 0, 0, 0, 0, 0, 0, 0, 0, 0, 0]\n[2, 0, 0, 0, 0, 0, 0, 0, 0, 0, 0, 0, 0, 0\n 0, 0, 0, 0, 0, 0, 0, 0, 0, 0]\n[1, 1, 0, 0, 0, 0, 0, 0, 0, 0, 0, 0, 0, 0\n 0, 0, 0, 0, 0, 0, 0, 0, 0, 0]\n[0, 0, 0, 1, 0, 0, 0, 0, 0, 0, 0, 0, 0, 0\n 0, 0, 0, 0, 1, 0, 0, 0, 0, 0]\n[2, 0, 0, 0, 0, 0, 0, 0, 0, 0, 0, 0, 0, 0\n 0, 0, 0, 0, 0, 0, 0, 0, 0, 0]]"] ;
29 -> 30 ;
31 [label="gini = 0.0\nsamples = 1\nvalue = [[0, 1, 0, 0, 0, 0, 0, 0, 0, 0, 0, 0, 0, 0\n 0, 0, 0, 0, 0, 0, 0, 0, 0, 0]\n[0, 0, 0, 1, 0, 0, 0, 0, 0, 0, 0, 0, 0, 0\n 0, 0, 0, 0, 0, 0, 0, 0, 0, 0]\n[1, 0, 0, 0, 0, 0, 0, 0, 0, 0, 0, 0, 0, 0\n 0, 0, 0, 0, 0, 0, 0, 0, 0, 0]\n[1, 0, 0, 0, 0, 0, 0, 0, 0, 0, 0, 0, 0, 0\n 0, 0, 0, 0, 0, 0, 0, 0, 0, 0]\n[0, 1, 0, 0, 0, 0, 0, 0, 0, 0, 0, 0, 0, 0\n 0, 0, 0, 0, 0, 0, 0, 0, 0, 0]\n[0, 0, 0, 0, 0, 0, 0, 0, 0, 0, 0, 0, 0, 0\n 0, 0, 0, 0, 1, 0, 0, 0, 0, 0]\n[1, 0, 0, 0, 0, 0, 0, 0, 0, 0, 0, 0, 0, 0\n 0, 0, 0, 0, 0, 0, 0, 0, 0, 0]]"] ;
30 -> 31 ;
32 [label="gini = 0.0\nsamples = 1\nvalue = [[0, 1, 0, 0, 0, 0, 0, 0, 0, 0, 0, 0, 0, 0\n 0, 0, 0, 0, 0, 0, 0, 0, 0, 0]\n[0, 0, 0, 0, 0, 0, 0, 1, 0, 0, 0, 0, 0, 0\n 0, 0, 0, 0, 0, 0, 0, 0, 0, 0]\n[1, 0, 0, 0, 0, 0, 0, 0, 0, 0, 0, 0, 0, 0\n 0, 0, 0, 0, 0, 0, 0, 0, 0, 0]\n[1, 0, 0, 0, 0, 0, 0, 0, 0, 0, 0, 0, 0, 0\n 0, 0, 0, 0, 0, 0, 0, 0, 0, 0]\n[1, 0, 0, 0, 0, 0, 0, 0, 0, 0, 0, 0, 0, 0\n 0, 0, 0, 0, 0, 0, 0, 0, 0, 0]\n[0, 0, 0, 1, 0, 0, 0, 0, 0, 0, 0, 0, 0, 0\n 0, 0, 0, 0, 0, 0, 0, 0, 0, 0]\n[1, 0, 0, 0, 0, 0, 0, 0, 0, 0, 0, 0, 0, 0\n 0, 0, 0, 0, 0, 0, 0, 0, 0, 0]]"] ;
30 -> 32 ;
33 [label="gini = 0.0\nsamples = 1\nvalue = [[0, 1, 0, 0, 0, 0, 0, 0, 0, 0, 0, 0, 0, 0\n 0, 0, 0, 0, 0, 0, 0, 0, 0, 0]\n[0, 0, 0, 0, 0, 1, 0, 0, 0, 0, 0, 0, 0, 0\n 0, 0, 0, 0, 0, 0, 0, 0, 0, 0]\n[1, 0, 0, 0, 0, 0, 0, 0, 0, 0, 0, 0, 0, 0\n 0, 0, 0, 0, 0, 0, 0, 0, 0, 0]\n[1, 0, 0, 0, 0, 0, 0, 0, 0, 0, 0, 0, 0, 0\n 0, 0, 0, 0, 0, 0, 0, 0, 0, 0]\n[1, 0, 0, 0, 0, 0, 0, 0, 0, 0, 0, 0, 0, 0\n 0, 0, 0, 0, 0, 0, 0, 0, 0, 0]\n[0, 0, 0, 0, 0, 0, 0, 0, 0, 0, 0, 0, 0, 0\n 0, 0, 0, 1, 0, 0, 0, 0, 0, 0]\n[0, 1, 0, 0, 0, 0, 0, 0, 0, 0, 0, 0, 0, 0\n 0, 0, 0, 0, 0, 0, 0, 0, 0, 0]]"] ;
29 -> 33 ;
34 [label="X[10] <= 0.233\ngini = 0.402\nsamples = 14\nvalue = [[0, 14, 0, 0, 0, 0, 0, 0, 0, 0, 0, 0, 0, 0\n 0, 0, 0, 0, 0, 0, 0, 0, 0, 0]\n[0, 2, 5, 0, 0, 1, 3, 3, 0, 0, 0, 0, 0, 0\n 0, 0, 0, 0, 0, 0, 0, 0, 0, 0]\n[7, 7, 0, 0, 0, 0, 0, 0, 0, 0, 0, 0, 0, 0\n 0, 0, 0, 0, 0, 0, 0, 0, 0, 0]\n[1, 13, 0, 0, 0, 0, 0, 0, 0, 0, 0, 0, 0, 0\n 0, 0, 0, 0, 0, 0, 0, 0, 0, 0]\n[6, 8, 0, 0, 0, 0, 0, 0, 0, 0, 0, 0, 0, 0\n 0, 0, 0, 0, 0, 0, 0, 0, 0, 0]\n[0, 0, 0, 1, 0, 1, 0, 1, 0, 1, 0, 5, 0, 0\n 2, 0, 0, 0, 0, 1, 0, 0, 2, 0]\n[13, 1, 0, 0, 0, 0, 0, 0, 0, 0, 0, 0, 0, 0\n 0, 0, 0, 0, 0, 0, 0, 0, 0, 0]]"] ;
20 -> 34 ;
35 [label="X[3] <= 242.687\ngini = 0.362\nsamples = 8\nvalue = [[0, 8, 0, 0, 0, 0, 0, 0, 0, 0, 0, 0, 0, 0\n 0, 0, 0, 0, 0, 0, 0, 0, 0, 0]\n[0, 1, 0, 0, 0, 1, 3, 3, 0, 0, 0, 0, 0, 0\n 0, 0, 0, 0, 0, 0, 0, 0, 0, 0]\n[2, 6, 0, 0, 0, 0, 0, 0, 0, 0, 0, 0, 0, 0\n 0, 0, 0, 0, 0, 0, 0, 0, 0, 0]\n[0, 8, 0, 0, 0, 0, 0, 0, 0, 0, 0, 0, 0, 0\n 0, 0, 0, 0, 0, 0, 0, 0, 0, 0]\n[3, 5, 0, 0, 0, 0, 0, 0, 0, 0, 0, 0, 0, 0\n 0, 0, 0, 0, 0, 0, 0, 0, 0, 0]\n[0, 0, 0, 0, 0, 0, 0, 0, 0, 1, 0, 2, 0, 0\n 2, 0, 0, 0, 0, 1, 0, 0, 2, 0]\n[7, 1, 0, 0, 0, 0, 0, 0, 0, 0, 0, 0, 0, 0\n 0, 0, 0, 0, 0, 0, 0, 0, 0, 0]]"] ;
34 -> 35 ;
36 [label="X[16] <= 0.351\ngini = 0.309\nsamples = 7\nvalue = [[0, 7, 0, 0, 0, 0, 0, 0, 0, 0, 0, 0, 0, 0\n 0, 0, 0, 0, 0, 0, 0, 0, 0, 0]\n[0, 1, 0, 0, 0, 1, 3, 2, 0, 0, 0, 0, 0, 0\n 0, 0, 0, 0, 0, 0, 0, 0, 0, 0]\n[1, 6, 0, 0, 0, 0, 0, 0, 0, 0, 0, 0, 0, 0\n 0, 0, 0, 0, 0, 0, 0, 0, 0, 0]\n[0, 7, 0, 0, 0, 0, 0, 0, 0, 0, 0, 0, 0, 0\n 0, 0, 0, 0, 0, 0, 0, 0, 0, 0]\n[3, 4, 0, 0, 0, 0, 0, 0, 0, 0, 0, 0, 0, 0\n 0, 0, 0, 0, 0, 0, 0, 0, 0, 0]\n[0, 0, 0, 0, 0, 0, 0, 0, 0, 1, 0, 2, 0, 0\n 2, 0, 0, 0, 0, 0, 0, 0, 2, 0]\n[7, 0, 0, 0, 0, 0, 0, 0, 0, 0, 0, 0, 0, 0\n 0, 0, 0, 0, 0, 0, 0, 0, 0, 0]]"] ;
35 -> 36 ;
37 [label="X[12] <= -0.315\ngini = 0.262\nsamples = 6\nvalue = [[0, 6, 0, 0, 0, 0, 0, 0, 0, 0, 0, 0, 0, 0\n 0, 0, 0, 0, 0, 0, 0, 0, 0, 0]\n[0, 1, 0, 0, 0, 0, 3, 2, 0, 0, 0, 0, 0, 0\n 0, 0, 0, 0, 0, 0, 0, 0, 0, 0]\n[0, 6, 0, 0, 0, 0, 0, 0, 0, 0, 0, 0, 0, 0\n 0, 0, 0, 0, 0, 0, 0, 0, 0, 0]\n[0, 6, 0, 0, 0, 0, 0, 0, 0, 0, 0, 0, 0, 0\n 0, 0, 0, 0, 0, 0, 0, 0, 0, 0]\n[3, 3, 0, 0, 0, 0, 0, 0, 0, 0, 0, 0, 0, 0\n 0, 0, 0, 0, 0, 0, 0, 0, 0, 0]\n[0, 0, 0, 0, 0, 0, 0, 0, 0, 1, 0, 1, 0, 0\n 2, 0, 0, 0, 0, 0, 0, 0, 2, 0]\n[6, 0, 0, 0, 0, 0, 0, 0, 0, 0, 0, 0, 0, 0\n 0, 0, 0, 0, 0, 0, 0, 0, 0, 0]]"] ;
36 -> 37 ;
38 [label="X[16] <= 0.327\ngini = 0.127\nsamples = 3\nvalue = [[0, 3, 0, 0, 0, 0, 0, 0, 0, 0, 0, 0, 0, 0\n 0, 0, 0, 0, 0, 0, 0, 0, 0, 0]\n[0, 0, 0, 0, 0, 0, 3, 0, 0, 0, 0, 0, 0, 0\n 0, 0, 0, 0, 0, 0, 0, 0, 0, 0]\n[0, 3, 0, 0, 0, 0, 0, 0, 0, 0, 0, 0, 0, 0\n 0, 0, 0, 0, 0, 0, 0, 0, 0, 0]\n[0, 3, 0, 0, 0, 0, 0, 0, 0, 0, 0, 0, 0, 0\n 0, 0, 0, 0, 0, 0, 0, 0, 0, 0]\n[1, 2, 0, 0, 0, 0, 0, 0, 0, 0, 0, 0, 0, 0\n 0, 0, 0, 0, 0, 0, 0, 0, 0, 0]\n[0, 0, 0, 0, 0, 0, 0, 0, 0, 0, 0, 0, 0, 0\n 1, 0, 0, 0, 0, 0, 0, 0, 2, 0]\n[3, 0, 0, 0, 0, 0, 0, 0, 0, 0, 0, 0, 0, 0\n 0, 0, 0, 0, 0, 0, 0, 0, 0, 0]]"] ;
37 -> 38 ;
39 [label="gini = 0.0\nsamples = 1\nvalue = [[0, 1, 0, 0, 0, 0, 0, 0, 0, 0, 0, 0, 0, 0\n 0, 0, 0, 0, 0, 0, 0, 0, 0, 0]\n[0, 0, 0, 0, 0, 0, 1, 0, 0, 0, 0, 0, 0, 0\n 0, 0, 0, 0, 0, 0, 0, 0, 0, 0]\n[0, 1, 0, 0, 0, 0, 0, 0, 0, 0, 0, 0, 0, 0\n 0, 0, 0, 0, 0, 0, 0, 0, 0, 0]\n[0, 1, 0, 0, 0, 0, 0, 0, 0, 0, 0, 0, 0, 0\n 0, 0, 0, 0, 0, 0, 0, 0, 0, 0]\n[0, 1, 0, 0, 0, 0, 0, 0, 0, 0, 0, 0, 0, 0\n 0, 0, 0, 0, 0, 0, 0, 0, 0, 0]\n[0, 0, 0, 0, 0, 0, 0, 0, 0, 0, 0, 0, 0, 0\n 1, 0, 0, 0, 0, 0, 0, 0, 0, 0]\n[1, 0, 0, 0, 0, 0, 0, 0, 0, 0, 0, 0, 0, 0\n 0, 0, 0, 0, 0, 0, 0, 0, 0, 0]]"] ;
38 -> 39 ;
40 [label="X[7] <= 0.205\ngini = 0.071\nsamples = 2\nvalue = [[0, 2, 0, 0, 0, 0, 0, 0, 0, 0, 0, 0, 0, 0\n 0, 0, 0, 0, 0, 0, 0, 0, 0, 0]\n[0, 0, 0, 0, 0, 0, 2, 0, 0, 0, 0, 0, 0, 0\n 0, 0, 0, 0, 0, 0, 0, 0, 0, 0]\n[0, 2, 0, 0, 0, 0, 0, 0, 0, 0, 0, 0, 0, 0\n 0, 0, 0, 0, 0, 0, 0, 0, 0, 0]\n[0, 2, 0, 0, 0, 0, 0, 0, 0, 0, 0, 0, 0, 0\n 0, 0, 0, 0, 0, 0, 0, 0, 0, 0]\n[1, 1, 0, 0, 0, 0, 0, 0, 0, 0, 0, 0, 0, 0\n 0, 0, 0, 0, 0, 0, 0, 0, 0, 0]\n[0, 0, 0, 0, 0, 0, 0, 0, 0, 0, 0, 0, 0, 0\n 0, 0, 0, 0, 0, 0, 0, 0, 2, 0]\n[2, 0, 0, 0, 0, 0, 0, 0, 0, 0, 0, 0, 0, 0\n 0, 0, 0, 0, 0, 0, 0, 0, 0, 0]]"] ;
38 -> 40 ;
41 [label="gini = 0.0\nsamples = 1\nvalue = [[0, 1, 0, 0, 0, 0, 0, 0, 0, 0, 0, 0, 0, 0\n 0, 0, 0, 0, 0, 0, 0, 0, 0, 0]\n[0, 0, 0, 0, 0, 0, 1, 0, 0, 0, 0, 0, 0, 0\n 0, 0, 0, 0, 0, 0, 0, 0, 0, 0]\n[0, 1, 0, 0, 0, 0, 0, 0, 0, 0, 0, 0, 0, 0\n 0, 0, 0, 0, 0, 0, 0, 0, 0, 0]\n[0, 1, 0, 0, 0, 0, 0, 0, 0, 0, 0, 0, 0, 0\n 0, 0, 0, 0, 0, 0, 0, 0, 0, 0]\n[1, 0, 0, 0, 0, 0, 0, 0, 0, 0, 0, 0, 0, 0\n 0, 0, 0, 0, 0, 0, 0, 0, 0, 0]\n[0, 0, 0, 0, 0, 0, 0, 0, 0, 0, 0, 0, 0, 0\n 0, 0, 0, 0, 0, 0, 0, 0, 1, 0]\n[1, 0, 0, 0, 0, 0, 0, 0, 0, 0, 0, 0, 0, 0\n 0, 0, 0, 0, 0, 0, 0, 0, 0, 0]]"] ;
40 -> 41 ;
42 [label="gini = 0.0\nsamples = 1\nvalue = [[0, 1, 0, 0, 0, 0, 0, 0, 0, 0, 0, 0, 0, 0\n 0, 0, 0, 0, 0, 0, 0, 0, 0, 0]\n[0, 0, 0, 0, 0, 0, 1, 0, 0, 0, 0, 0, 0, 0\n 0, 0, 0, 0, 0, 0, 0, 0, 0, 0]\n[0, 1, 0, 0, 0, 0, 0, 0, 0, 0, 0, 0, 0, 0\n 0, 0, 0, 0, 0, 0, 0, 0, 0, 0]\n[0, 1, 0, 0, 0, 0, 0, 0, 0, 0, 0, 0, 0, 0\n 0, 0, 0, 0, 0, 0, 0, 0, 0, 0]\n[0, 1, 0, 0, 0, 0, 0, 0, 0, 0, 0, 0, 0, 0\n 0, 0, 0, 0, 0, 0, 0, 0, 0, 0]\n[0, 0, 0, 0, 0, 0, 0, 0, 0, 0, 0, 0, 0, 0\n 0, 0, 0, 0, 0, 0, 0, 0, 1, 0]\n[1, 0, 0, 0, 0, 0, 0, 0, 0, 0, 0, 0, 0, 0\n 0, 0, 0, 0, 0, 0, 0, 0, 0, 0]]"] ;
40 -> 42 ;
43 [label="X[16] <= 0.344\ngini = 0.222\nsamples = 3\nvalue = [[0, 3, 0, 0, 0, 0, 0, 0, 0, 0, 0, 0, 0, 0\n 0, 0, 0, 0, 0, 0, 0, 0, 0, 0]\n[0, 1, 0, 0, 0, 0, 0, 2, 0, 0, 0, 0, 0, 0\n 0, 0, 0, 0, 0, 0, 0, 0, 0, 0]\n[0, 3, 0, 0, 0, 0, 0, 0, 0, 0, 0, 0, 0, 0\n 0, 0, 0, 0, 0, 0, 0, 0, 0, 0]\n[0, 3, 0, 0, 0, 0, 0, 0, 0, 0, 0, 0, 0, 0\n 0, 0, 0, 0, 0, 0, 0, 0, 0, 0]\n[2, 1, 0, 0, 0, 0, 0, 0, 0, 0, 0, 0, 0, 0\n 0, 0, 0, 0, 0, 0, 0, 0, 0, 0]\n[0, 0, 0, 0, 0, 0, 0, 0, 0, 1, 0, 1, 0, 0\n 1, 0, 0, 0, 0, 0, 0, 0, 0, 0]\n[3, 0, 0, 0, 0, 0, 0, 0, 0, 0, 0, 0, 0, 0\n 0, 0, 0, 0, 0, 0, 0, 0, 0, 0]]"] ;
37 -> 43 ;
44 [label="X[15] <= -3.442\ngini = 0.143\nsamples = 2\nvalue = [[0, 2, 0, 0, 0, 0, 0, 0, 0, 0, 0, 0, 0, 0\n 0, 0, 0, 0, 0, 0, 0, 0, 0, 0]\n[0, 1, 0, 0, 0, 0, 0, 1, 0, 0, 0, 0, 0, 0\n 0, 0, 0, 0, 0, 0, 0, 0, 0, 0]\n[0, 2, 0, 0, 0, 0, 0, 0, 0, 0, 0, 0, 0, 0\n 0, 0, 0, 0, 0, 0, 0, 0, 0, 0]\n[0, 2, 0, 0, 0, 0, 0, 0, 0, 0, 0, 0, 0, 0\n 0, 0, 0, 0, 0, 0, 0, 0, 0, 0]\n[2, 0, 0, 0, 0, 0, 0, 0, 0, 0, 0, 0, 0, 0\n 0, 0, 0, 0, 0, 0, 0, 0, 0, 0]\n[0, 0, 0, 0, 0, 0, 0, 0, 0, 0, 0, 1, 0, 0\n 1, 0, 0, 0, 0, 0, 0, 0, 0, 0]\n[2, 0, 0, 0, 0, 0, 0, 0, 0, 0, 0, 0, 0, 0\n 0, 0, 0, 0, 0, 0, 0, 0, 0, 0]]"] ;
43 -> 44 ;
45 [label="gini = 0.0\nsamples = 1\nvalue = [[0, 1, 0, 0, 0, 0, 0, 0, 0, 0, 0, 0, 0, 0\n 0, 0, 0, 0, 0, 0, 0, 0, 0, 0]\n[0, 0, 0, 0, 0, 0, 0, 1, 0, 0, 0, 0, 0, 0\n 0, 0, 0, 0, 0, 0, 0, 0, 0, 0]\n[0, 1, 0, 0, 0, 0, 0, 0, 0, 0, 0, 0, 0, 0\n 0, 0, 0, 0, 0, 0, 0, 0, 0, 0]\n[0, 1, 0, 0, 0, 0, 0, 0, 0, 0, 0, 0, 0, 0\n 0, 0, 0, 0, 0, 0, 0, 0, 0, 0]\n[1, 0, 0, 0, 0, 0, 0, 0, 0, 0, 0, 0, 0, 0\n 0, 0, 0, 0, 0, 0, 0, 0, 0, 0]\n[0, 0, 0, 0, 0, 0, 0, 0, 0, 0, 0, 0, 0, 0\n 1, 0, 0, 0, 0, 0, 0, 0, 0, 0]\n[1, 0, 0, 0, 0, 0, 0, 0, 0, 0, 0, 0, 0, 0\n 0, 0, 0, 0, 0, 0, 0, 0, 0, 0]]"] ;
44 -> 45 ;
46 [label="gini = 0.0\nsamples = 1\nvalue = [[0, 1, 0, 0, 0, 0, 0, 0, 0, 0, 0, 0, 0, 0\n 0, 0, 0, 0, 0, 0, 0, 0, 0, 0]\n[0, 1, 0, 0, 0, 0, 0, 0, 0, 0, 0, 0, 0, 0\n 0, 0, 0, 0, 0, 0, 0, 0, 0, 0]\n[0, 1, 0, 0, 0, 0, 0, 0, 0, 0, 0, 0, 0, 0\n 0, 0, 0, 0, 0, 0, 0, 0, 0, 0]\n[0, 1, 0, 0, 0, 0, 0, 0, 0, 0, 0, 0, 0, 0\n 0, 0, 0, 0, 0, 0, 0, 0, 0, 0]\n[1, 0, 0, 0, 0, 0, 0, 0, 0, 0, 0, 0, 0, 0\n 0, 0, 0, 0, 0, 0, 0, 0, 0, 0]\n[0, 0, 0, 0, 0, 0, 0, 0, 0, 0, 0, 1, 0, 0\n 0, 0, 0, 0, 0, 0, 0, 0, 0, 0]\n[1, 0, 0, 0, 0, 0, 0, 0, 0, 0, 0, 0, 0, 0\n 0, 0, 0, 0, 0, 0, 0, 0, 0, 0]]"] ;
44 -> 46 ;
47 [label="gini = 0.0\nsamples = 1\nvalue = [[0, 1, 0, 0, 0, 0, 0, 0, 0, 0, 0, 0, 0, 0\n 0, 0, 0, 0, 0, 0, 0, 0, 0, 0]\n[0, 0, 0, 0, 0, 0, 0, 1, 0, 0, 0, 0, 0, 0\n 0, 0, 0, 0, 0, 0, 0, 0, 0, 0]\n[0, 1, 0, 0, 0, 0, 0, 0, 0, 0, 0, 0, 0, 0\n 0, 0, 0, 0, 0, 0, 0, 0, 0, 0]\n[0, 1, 0, 0, 0, 0, 0, 0, 0, 0, 0, 0, 0, 0\n 0, 0, 0, 0, 0, 0, 0, 0, 0, 0]\n[0, 1, 0, 0, 0, 0, 0, 0, 0, 0, 0, 0, 0, 0\n 0, 0, 0, 0, 0, 0, 0, 0, 0, 0]\n[0, 0, 0, 0, 0, 0, 0, 0, 0, 1, 0, 0, 0, 0\n 0, 0, 0, 0, 0, 0, 0, 0, 0, 0]\n[1, 0, 0, 0, 0, 0, 0, 0, 0, 0, 0, 0, 0, 0\n 0, 0, 0, 0, 0, 0, 0, 0, 0, 0]]"] ;
43 -> 47 ;
48 [label="gini = 0.0\nsamples = 1\nvalue = [[0, 1, 0, 0, 0, 0, 0, 0, 0, 0, 0, 0, 0, 0\n 0, 0, 0, 0, 0, 0, 0, 0, 0, 0]\n[0, 0, 0, 0, 0, 1, 0, 0, 0, 0, 0, 0, 0, 0\n 0, 0, 0, 0, 0, 0, 0, 0, 0, 0]\n[1, 0, 0, 0, 0, 0, 0, 0, 0, 0, 0, 0, 0, 0\n 0, 0, 0, 0, 0, 0, 0, 0, 0, 0]\n[0, 1, 0, 0, 0, 0, 0, 0, 0, 0, 0, 0, 0, 0\n 0, 0, 0, 0, 0, 0, 0, 0, 0, 0]\n[0, 1, 0, 0, 0, 0, 0, 0, 0, 0, 0, 0, 0, 0\n 0, 0, 0, 0, 0, 0, 0, 0, 0, 0]\n[0, 0, 0, 0, 0, 0, 0, 0, 0, 0, 0, 1, 0, 0\n 0, 0, 0, 0, 0, 0, 0, 0, 0, 0]\n[1, 0, 0, 0, 0, 0, 0, 0, 0, 0, 0, 0, 0, 0\n 0, 0, 0, 0, 0, 0, 0, 0, 0, 0]]"] ;
36 -> 48 ;
49 [label="gini = 0.0\nsamples = 1\nvalue = [[0, 1, 0, 0, 0, 0, 0, 0, 0, 0, 0, 0, 0, 0\n 0, 0, 0, 0, 0, 0, 0, 0, 0, 0]\n[0, 0, 0, 0, 0, 0, 0, 1, 0, 0, 0, 0, 0, 0\n 0, 0, 0, 0, 0, 0, 0, 0, 0, 0]\n[1, 0, 0, 0, 0, 0, 0, 0, 0, 0, 0, 0, 0, 0\n 0, 0, 0, 0, 0, 0, 0, 0, 0, 0]\n[0, 1, 0, 0, 0, 0, 0, 0, 0, 0, 0, 0, 0, 0\n 0, 0, 0, 0, 0, 0, 0, 0, 0, 0]\n[0, 1, 0, 0, 0, 0, 0, 0, 0, 0, 0, 0, 0, 0\n 0, 0, 0, 0, 0, 0, 0, 0, 0, 0]\n[0, 0, 0, 0, 0, 0, 0, 0, 0, 0, 0, 0, 0, 0\n 0, 0, 0, 0, 0, 1, 0, 0, 0, 0]\n[0, 1, 0, 0, 0, 0, 0, 0, 0, 0, 0, 0, 0, 0\n 0, 0, 0, 0, 0, 0, 0, 0, 0, 0]]"] ;
35 -> 49 ;
50 [label="X[5] <= 152.701\ngini = 0.286\nsamples = 6\nvalue = [[0, 6, 0, 0, 0, 0, 0, 0, 0, 0, 0, 0, 0, 0\n 0, 0, 0, 0, 0, 0, 0, 0, 0, 0]\n[0, 1, 5, 0, 0, 0, 0, 0, 0, 0, 0, 0, 0, 0\n 0, 0, 0, 0, 0, 0, 0, 0, 0, 0]\n[5, 1, 0, 0, 0, 0, 0, 0, 0, 0, 0, 0, 0, 0\n 0, 0, 0, 0, 0, 0, 0, 0, 0, 0]\n[1, 5, 0, 0, 0, 0, 0, 0, 0, 0, 0, 0, 0, 0\n 0, 0, 0, 0, 0, 0, 0, 0, 0, 0]\n[3, 3, 0, 0, 0, 0, 0, 0, 0, 0, 0, 0, 0, 0\n 0, 0, 0, 0, 0, 0, 0, 0, 0, 0]\n[0, 0, 0, 1, 0, 1, 0, 1, 0, 0, 0, 3, 0, 0\n 0, 0, 0, 0, 0, 0, 0, 0, 0, 0]\n[6, 0, 0, 0, 0, 0, 0, 0, 0, 0, 0, 0, 0, 0\n 0, 0, 0, 0, 0, 0, 0, 0, 0, 0]]"] ;
34 -> 50 ;
51 [label="X[0] <= 2.389\ngini = 0.19\nsamples = 3\nvalue = [[0, 3, 0, 0, 0, 0, 0, 0, 0, 0, 0, 0, 0, 0\n 0, 0, 0, 0, 0, 0, 0, 0, 0, 0]\n[0, 0, 3, 0, 0, 0, 0, 0, 0, 0, 0, 0, 0, 0\n 0, 0, 0, 0, 0, 0, 0, 0, 0, 0]\n[2, 1, 0, 0, 0, 0, 0, 0, 0, 0, 0, 0, 0, 0\n 0, 0, 0, 0, 0, 0, 0, 0, 0, 0]\n[1, 2, 0, 0, 0, 0, 0, 0, 0, 0, 0, 0, 0, 0\n 0, 0, 0, 0, 0, 0, 0, 0, 0, 0]\n[3, 0, 0, 0, 0, 0, 0, 0, 0, 0, 0, 0, 0, 0\n 0, 0, 0, 0, 0, 0, 0, 0, 0, 0]\n[0, 0, 0, 1, 0, 0, 0, 0, 0, 0, 0, 2, 0, 0\n 0, 0, 0, 0, 0, 0, 0, 0, 0, 0]\n[3, 0, 0, 0, 0, 0, 0, 0, 0, 0, 0, 0, 0, 0\n 0, 0, 0, 0, 0, 0, 0, 0, 0, 0]]"] ;
50 -> 51 ;
52 [label="gini = 0.0\nsamples = 1\nvalue = [[0, 1, 0, 0, 0, 0, 0, 0, 0, 0, 0, 0, 0, 0\n 0, 0, 0, 0, 0, 0, 0, 0, 0, 0]\n[0, 0, 1, 0, 0, 0, 0, 0, 0, 0, 0, 0, 0, 0\n 0, 0, 0, 0, 0, 0, 0, 0, 0, 0]\n[0, 1, 0, 0, 0, 0, 0, 0, 0, 0, 0, 0, 0, 0\n 0, 0, 0, 0, 0, 0, 0, 0, 0, 0]\n[1, 0, 0, 0, 0, 0, 0, 0, 0, 0, 0, 0, 0, 0\n 0, 0, 0, 0, 0, 0, 0, 0, 0, 0]\n[1, 0, 0, 0, 0, 0, 0, 0, 0, 0, 0, 0, 0, 0\n 0, 0, 0, 0, 0, 0, 0, 0, 0, 0]\n[0, 0, 0, 0, 0, 0, 0, 0, 0, 0, 0, 1, 0, 0\n 0, 0, 0, 0, 0, 0, 0, 0, 0, 0]\n[1, 0, 0, 0, 0, 0, 0, 0, 0, 0, 0, 0, 0, 0\n 0, 0, 0, 0, 0, 0, 0, 0, 0, 0]]"] ;
51 -> 52 ;
53 [label="X[3] <= 227.17\ngini = 0.071\nsamples = 2\nvalue = [[0, 2, 0, 0, 0, 0, 0, 0, 0, 0, 0, 0, 0, 0\n 0, 0, 0, 0, 0, 0, 0, 0, 0, 0]\n[0, 0, 2, 0, 0, 0, 0, 0, 0, 0, 0, 0, 0, 0\n 0, 0, 0, 0, 0, 0, 0, 0, 0, 0]\n[2, 0, 0, 0, 0, 0, 0, 0, 0, 0, 0, 0, 0, 0\n 0, 0, 0, 0, 0, 0, 0, 0, 0, 0]\n[0, 2, 0, 0, 0, 0, 0, 0, 0, 0, 0, 0, 0, 0\n 0, 0, 0, 0, 0, 0, 0, 0, 0, 0]\n[2, 0, 0, 0, 0, 0, 0, 0, 0, 0, 0, 0, 0, 0\n 0, 0, 0, 0, 0, 0, 0, 0, 0, 0]\n[0, 0, 0, 1, 0, 0, 0, 0, 0, 0, 0, 1, 0, 0\n 0, 0, 0, 0, 0, 0, 0, 0, 0, 0]\n[2, 0, 0, 0, 0, 0, 0, 0, 0, 0, 0, 0, 0, 0\n 0, 0, 0, 0, 0, 0, 0, 0, 0, 0]]"] ;
51 -> 53 ;
54 [label="gini = 0.0\nsamples = 1\nvalue = [[0, 1, 0, 0, 0, 0, 0, 0, 0, 0, 0, 0, 0, 0\n 0, 0, 0, 0, 0, 0, 0, 0, 0, 0]\n[0, 0, 1, 0, 0, 0, 0, 0, 0, 0, 0, 0, 0, 0\n 0, 0, 0, 0, 0, 0, 0, 0, 0, 0]\n[1, 0, 0, 0, 0, 0, 0, 0, 0, 0, 0, 0, 0, 0\n 0, 0, 0, 0, 0, 0, 0, 0, 0, 0]\n[0, 1, 0, 0, 0, 0, 0, 0, 0, 0, 0, 0, 0, 0\n 0, 0, 0, 0, 0, 0, 0, 0, 0, 0]\n[1, 0, 0, 0, 0, 0, 0, 0, 0, 0, 0, 0, 0, 0\n 0, 0, 0, 0, 0, 0, 0, 0, 0, 0]\n[0, 0, 0, 0, 0, 0, 0, 0, 0, 0, 0, 1, 0, 0\n 0, 0, 0, 0, 0, 0, 0, 0, 0, 0]\n[1, 0, 0, 0, 0, 0, 0, 0, 0, 0, 0, 0, 0, 0\n 0, 0, 0, 0, 0, 0, 0, 0, 0, 0]]"] ;
53 -> 54 ;
55 [label="gini = 0.0\nsamples = 1\nvalue = [[0, 1, 0, 0, 0, 0, 0, 0, 0, 0, 0, 0, 0, 0\n 0, 0, 0, 0, 0, 0, 0, 0, 0, 0]\n[0, 0, 1, 0, 0, 0, 0, 0, 0, 0, 0, 0, 0, 0\n 0, 0, 0, 0, 0, 0, 0, 0, 0, 0]\n[1, 0, 0, 0, 0, 0, 0, 0, 0, 0, 0, 0, 0, 0\n 0, 0, 0, 0, 0, 0, 0, 0, 0, 0]\n[0, 1, 0, 0, 0, 0, 0, 0, 0, 0, 0, 0, 0, 0\n 0, 0, 0, 0, 0, 0, 0, 0, 0, 0]\n[1, 0, 0, 0, 0, 0, 0, 0, 0, 0, 0, 0, 0, 0\n 0, 0, 0, 0, 0, 0, 0, 0, 0, 0]\n[0, 0, 0, 1, 0, 0, 0, 0, 0, 0, 0, 0, 0, 0\n 0, 0, 0, 0, 0, 0, 0, 0, 0, 0]\n[1, 0, 0, 0, 0, 0, 0, 0, 0, 0, 0, 0, 0, 0\n 0, 0, 0, 0, 0, 0, 0, 0, 0, 0]]"] ;
53 -> 55 ;
56 [label="X[4] <= -32.384\ngini = 0.159\nsamples = 3\nvalue = [[0, 3, 0, 0, 0, 0, 0, 0, 0, 0, 0, 0, 0, 0\n 0, 0, 0, 0, 0, 0, 0, 0, 0, 0]\n[0, 1, 2, 0, 0, 0, 0, 0, 0, 0, 0, 0, 0, 0\n 0, 0, 0, 0, 0, 0, 0, 0, 0, 0]\n[3, 0, 0, 0, 0, 0, 0, 0, 0, 0, 0, 0, 0, 0\n 0, 0, 0, 0, 0, 0, 0, 0, 0, 0]\n[0, 3, 0, 0, 0, 0, 0, 0, 0, 0, 0, 0, 0, 0\n 0, 0, 0, 0, 0, 0, 0, 0, 0, 0]\n[0, 3, 0, 0, 0, 0, 0, 0, 0, 0, 0, 0, 0, 0\n 0, 0, 0, 0, 0, 0, 0, 0, 0, 0]\n[0, 0, 0, 0, 0, 1, 0, 1, 0, 0, 0, 1, 0, 0\n 0, 0, 0, 0, 0, 0, 0, 0, 0, 0]\n[3, 0, 0, 0, 0, 0, 0, 0, 0, 0, 0, 0, 0, 0\n 0, 0, 0, 0, 0, 0, 0, 0, 0, 0]]"] ;
50 -> 56 ;
57 [label="X[15] <= -3.867\ngini = 0.071\nsamples = 2\nvalue = [[0, 2, 0, 0, 0, 0, 0, 0, 0, 0, 0, 0, 0, 0\n 0, 0, 0, 0, 0, 0, 0, 0, 0, 0]\n[0, 0, 2, 0, 0, 0, 0, 0, 0, 0, 0, 0, 0, 0\n 0, 0, 0, 0, 0, 0, 0, 0, 0, 0]\n[2, 0, 0, 0, 0, 0, 0, 0, 0, 0, 0, 0, 0, 0\n 0, 0, 0, 0, 0, 0, 0, 0, 0, 0]\n[0, 2, 0, 0, 0, 0, 0, 0, 0, 0, 0, 0, 0, 0\n 0, 0, 0, 0, 0, 0, 0, 0, 0, 0]\n[0, 2, 0, 0, 0, 0, 0, 0, 0, 0, 0, 0, 0, 0\n 0, 0, 0, 0, 0, 0, 0, 0, 0, 0]\n[0, 0, 0, 0, 0, 1, 0, 0, 0, 0, 0, 1, 0, 0\n 0, 0, 0, 0, 0, 0, 0, 0, 0, 0]\n[2, 0, 0, 0, 0, 0, 0, 0, 0, 0, 0, 0, 0, 0\n 0, 0, 0, 0, 0, 0, 0, 0, 0, 0]]"] ;
56 -> 57 ;
58 [label="gini = 0.0\nsamples = 1\nvalue = [[0, 1, 0, 0, 0, 0, 0, 0, 0, 0, 0, 0, 0, 0\n 0, 0, 0, 0, 0, 0, 0, 0, 0, 0]\n[0, 0, 1, 0, 0, 0, 0, 0, 0, 0, 0, 0, 0, 0\n 0, 0, 0, 0, 0, 0, 0, 0, 0, 0]\n[1, 0, 0, 0, 0, 0, 0, 0, 0, 0, 0, 0, 0, 0\n 0, 0, 0, 0, 0, 0, 0, 0, 0, 0]\n[0, 1, 0, 0, 0, 0, 0, 0, 0, 0, 0, 0, 0, 0\n 0, 0, 0, 0, 0, 0, 0, 0, 0, 0]\n[0, 1, 0, 0, 0, 0, 0, 0, 0, 0, 0, 0, 0, 0\n 0, 0, 0, 0, 0, 0, 0, 0, 0, 0]\n[0, 0, 0, 0, 0, 1, 0, 0, 0, 0, 0, 0, 0, 0\n 0, 0, 0, 0, 0, 0, 0, 0, 0, 0]\n[1, 0, 0, 0, 0, 0, 0, 0, 0, 0, 0, 0, 0, 0\n 0, 0, 0, 0, 0, 0, 0, 0, 0, 0]]"] ;
57 -> 58 ;
59 [label="gini = 0.0\nsamples = 1\nvalue = [[0, 1, 0, 0, 0, 0, 0, 0, 0, 0, 0, 0, 0, 0\n 0, 0, 0, 0, 0, 0, 0, 0, 0, 0]\n[0, 0, 1, 0, 0, 0, 0, 0, 0, 0, 0, 0, 0, 0\n 0, 0, 0, 0, 0, 0, 0, 0, 0, 0]\n[1, 0, 0, 0, 0, 0, 0, 0, 0, 0, 0, 0, 0, 0\n 0, 0, 0, 0, 0, 0, 0, 0, 0, 0]\n[0, 1, 0, 0, 0, 0, 0, 0, 0, 0, 0, 0, 0, 0\n 0, 0, 0, 0, 0, 0, 0, 0, 0, 0]\n[0, 1, 0, 0, 0, 0, 0, 0, 0, 0, 0, 0, 0, 0\n 0, 0, 0, 0, 0, 0, 0, 0, 0, 0]\n[0, 0, 0, 0, 0, 0, 0, 0, 0, 0, 0, 1, 0, 0\n 0, 0, 0, 0, 0, 0, 0, 0, 0, 0]\n[1, 0, 0, 0, 0, 0, 0, 0, 0, 0, 0, 0, 0, 0\n 0, 0, 0, 0, 0, 0, 0, 0, 0, 0]]"] ;
57 -> 59 ;
60 [label="gini = 0.0\nsamples = 1\nvalue = [[0, 1, 0, 0, 0, 0, 0, 0, 0, 0, 0, 0, 0, 0\n 0, 0, 0, 0, 0, 0, 0, 0, 0, 0]\n[0, 1, 0, 0, 0, 0, 0, 0, 0, 0, 0, 0, 0, 0\n 0, 0, 0, 0, 0, 0, 0, 0, 0, 0]\n[1, 0, 0, 0, 0, 0, 0, 0, 0, 0, 0, 0, 0, 0\n 0, 0, 0, 0, 0, 0, 0, 0, 0, 0]\n[0, 1, 0, 0, 0, 0, 0, 0, 0, 0, 0, 0, 0, 0\n 0, 0, 0, 0, 0, 0, 0, 0, 0, 0]\n[0, 1, 0, 0, 0, 0, 0, 0, 0, 0, 0, 0, 0, 0\n 0, 0, 0, 0, 0, 0, 0, 0, 0, 0]\n[0, 0, 0, 0, 0, 0, 0, 1, 0, 0, 0, 0, 0, 0\n 0, 0, 0, 0, 0, 0, 0, 0, 0, 0]\n[1, 0, 0, 0, 0, 0, 0, 0, 0, 0, 0, 0, 0, 0\n 0, 0, 0, 0, 0, 0, 0, 0, 0, 0]]"] ;
56 -> 60 ;
61 [label="X[0] <= 2.337\ngini = 0.396\nsamples = 23\nvalue = [[1, 22, 0, 0, 0, 0, 0, 0, 0, 0, 0, 0, 0, 0\n 0, 0, 0, 0, 0, 0, 0, 0, 0, 0]\n[3, 0, 2, 2, 10, 2, 0, 4, 0, 0, 0, 0, 0, 0\n 0, 0, 0, 0, 0, 0, 0, 0, 0, 0]\n[21, 2, 0, 0, 0, 0, 0, 0, 0, 0, 0, 0, 0, 0\n 0, 0, 0, 0, 0, 0, 0, 0, 0, 0]\n[11, 12, 0, 0, 0, 0, 0, 0, 0, 0, 0, 0, 0, 0\n 0, 0, 0, 0, 0, 0, 0, 0, 0, 0]\n[6, 17, 0, 0, 0, 0, 0, 0, 0, 0, 0, 0, 0, 0\n 0, 0, 0, 0, 0, 0, 0, 0, 0, 0]\n[0, 0, 0, 0, 0, 3, 0, 3, 0, 1, 0, 7, 4, 0\n 0, 0, 3, 0, 1, 0, 0, 1, 0, 0]\n[22, 1, 0, 0, 0, 0, 0, 0, 0, 0, 0, 0, 0, 0\n 0, 0, 0, 0, 0, 0, 0, 0, 0, 0]]"] ;
19 -> 61 ;
62 [label="X[17] <= 10485.0\ngini = 0.385\nsamples = 7\nvalue = [[1, 6, 0, 0, 0, 0, 0, 0, 0, 0, 0, 0, 0, 0\n 0, 0, 0, 0, 0, 0, 0, 0, 0, 0]\n[0, 0, 1, 2, 2, 0, 0, 2, 0, 0, 0, 0, 0, 0\n 0, 0, 0, 0, 0, 0, 0, 0, 0, 0]\n[5, 2, 0, 0, 0, 0, 0, 0, 0, 0, 0, 0, 0, 0\n 0, 0, 0, 0, 0, 0, 0, 0, 0, 0]\n[6, 1, 0, 0, 0, 0, 0, 0, 0, 0, 0, 0, 0, 0\n 0, 0, 0, 0, 0, 0, 0, 0, 0, 0]\n[0, 7, 0, 0, 0, 0, 0, 0, 0, 0, 0, 0, 0, 0\n 0, 0, 0, 0, 0, 0, 0, 0, 0, 0]\n[0, 0, 0, 0, 0, 2, 0, 1, 0, 1, 0, 1, 1, 0\n 0, 0, 0, 0, 0, 0, 0, 1, 0, 0]\n[6, 1, 0, 0, 0, 0, 0, 0, 0, 0, 0, 0, 0, 0\n 0, 0, 0, 0, 0, 0, 0, 0, 0, 0]]"] ;
61 -> 62 ;
63 [label="gini = 0.0\nsamples = 1\nvalue = [[0, 1, 0, 0, 0, 0, 0, 0, 0, 0, 0, 0, 0, 0\n 0, 0, 0, 0, 0, 0, 0, 0, 0, 0]\n[0, 0, 0, 1, 0, 0, 0, 0, 0, 0, 0, 0, 0, 0\n 0, 0, 0, 0, 0, 0, 0, 0, 0, 0]\n[1, 0, 0, 0, 0, 0, 0, 0, 0, 0, 0, 0, 0, 0\n 0, 0, 0, 0, 0, 0, 0, 0, 0, 0]\n[0, 1, 0, 0, 0, 0, 0, 0, 0, 0, 0, 0, 0, 0\n 0, 0, 0, 0, 0, 0, 0, 0, 0, 0]\n[0, 1, 0, 0, 0, 0, 0, 0, 0, 0, 0, 0, 0, 0\n 0, 0, 0, 0, 0, 0, 0, 0, 0, 0]\n[0, 0, 0, 0, 0, 0, 0, 0, 0, 0, 0, 0, 0, 0\n 0, 0, 0, 0, 0, 0, 0, 1, 0, 0]\n[0, 1, 0, 0, 0, 0, 0, 0, 0, 0, 0, 0, 0, 0\n 0, 0, 0, 0, 0, 0, 0, 0, 0, 0]]"] ;
62 -> 63 ;
64 [label="X[9] <= 945.005\ngini = 0.317\nsamples = 6\nvalue = [[1, 5, 0, 0, 0, 0, 0, 0, 0, 0, 0, 0, 0, 0\n 0, 0, 0, 0, 0, 0, 0, 0, 0, 0]\n[0, 0, 1, 1, 2, 0, 0, 2, 0, 0, 0, 0, 0, 0\n 0, 0, 0, 0, 0, 0, 0, 0, 0, 0]\n[4, 2, 0, 0, 0, 0, 0, 0, 0, 0, 0, 0, 0, 0\n 0, 0, 0, 0, 0, 0, 0, 0, 0, 0]\n[6, 0, 0, 0, 0, 0, 0, 0, 0, 0, 0, 0, 0, 0\n 0, 0, 0, 0, 0, 0, 0, 0, 0, 0]\n[0, 6, 0, 0, 0, 0, 0, 0, 0, 0, 0, 0, 0, 0\n 0, 0, 0, 0, 0, 0, 0, 0, 0, 0]\n[0, 0, 0, 0, 0, 2, 0, 1, 0, 1, 0, 1, 1, 0\n 0, 0, 0, 0, 0, 0, 0, 0, 0, 0]\n[6, 0, 0, 0, 0, 0, 0, 0, 0, 0, 0, 0, 0, 0\n 0, 0, 0, 0, 0, 0, 0, 0, 0, 0]]"] ;
62 -> 64 ;
65 [label="X[14] <= 0.411\ngini = 0.268\nsamples = 4\nvalue = [[0, 4, 0, 0, 0, 0, 0, 0, 0, 0, 0, 0, 0, 0\n 0, 0, 0, 0, 0, 0, 0, 0, 0, 0]\n[0, 0, 1, 1, 0, 0, 0, 2, 0, 0, 0, 0, 0, 0\n 0, 0, 0, 0, 0, 0, 0, 0, 0, 0]\n[2, 2, 0, 0, 0, 0, 0, 0, 0, 0, 0, 0, 0, 0\n 0, 0, 0, 0, 0, 0, 0, 0, 0, 0]\n[4, 0, 0, 0, 0, 0, 0, 0, 0, 0, 0, 0, 0, 0\n 0, 0, 0, 0, 0, 0, 0, 0, 0, 0]\n[0, 4, 0, 0, 0, 0, 0, 0, 0, 0, 0, 0, 0, 0\n 0, 0, 0, 0, 0, 0, 0, 0, 0, 0]\n[0, 0, 0, 0, 0, 0, 0, 1, 0, 1, 0, 1, 1, 0\n 0, 0, 0, 0, 0, 0, 0, 0, 0, 0]\n[4, 0, 0, 0, 0, 0, 0, 0, 0, 0, 0, 0, 0, 0\n 0, 0, 0, 0, 0, 0, 0, 0, 0, 0]]"] ;
64 -> 65 ;
66 [label="X[11] <= 3970.497\ngini = 0.071\nsamples = 2\nvalue = [[0, 2, 0, 0, 0, 0, 0, 0, 0, 0, 0, 0, 0, 0\n 0, 0, 0, 0, 0, 0, 0, 0, 0, 0]\n[0, 0, 0, 0, 0, 0, 0, 2, 0, 0, 0, 0, 0, 0\n 0, 0, 0, 0, 0, 0, 0, 0, 0, 0]\n[0, 2, 0, 0, 0, 0, 0, 0, 0, 0, 0, 0, 0, 0\n 0, 0, 0, 0, 0, 0, 0, 0, 0, 0]\n[2, 0, 0, 0, 0, 0, 0, 0, 0, 0, 0, 0, 0, 0\n 0, 0, 0, 0, 0, 0, 0, 0, 0, 0]\n[0, 2, 0, 0, 0, 0, 0, 0, 0, 0, 0, 0, 0, 0\n 0, 0, 0, 0, 0, 0, 0, 0, 0, 0]\n[0, 0, 0, 0, 0, 0, 0, 1, 0, 0, 0, 0, 1, 0\n 0, 0, 0, 0, 0, 0, 0, 0, 0, 0]\n[2, 0, 0, 0, 0, 0, 0, 0, 0, 0, 0, 0, 0, 0\n 0, 0, 0, 0, 0, 0, 0, 0, 0, 0]]"] ;
65 -> 66 ;
67 [label="gini = 0.0\nsamples = 1\nvalue = [[0, 1, 0, 0, 0, 0, 0, 0, 0, 0, 0, 0, 0, 0\n 0, 0, 0, 0, 0, 0, 0, 0, 0, 0]\n[0, 0, 0, 0, 0, 0, 0, 1, 0, 0, 0, 0, 0, 0\n 0, 0, 0, 0, 0, 0, 0, 0, 0, 0]\n[0, 1, 0, 0, 0, 0, 0, 0, 0, 0, 0, 0, 0, 0\n 0, 0, 0, 0, 0, 0, 0, 0, 0, 0]\n[1, 0, 0, 0, 0, 0, 0, 0, 0, 0, 0, 0, 0, 0\n 0, 0, 0, 0, 0, 0, 0, 0, 0, 0]\n[0, 1, 0, 0, 0, 0, 0, 0, 0, 0, 0, 0, 0, 0\n 0, 0, 0, 0, 0, 0, 0, 0, 0, 0]\n[0, 0, 0, 0, 0, 0, 0, 0, 0, 0, 0, 0, 1, 0\n 0, 0, 0, 0, 0, 0, 0, 0, 0, 0]\n[1, 0, 0, 0, 0, 0, 0, 0, 0, 0, 0, 0, 0, 0\n 0, 0, 0, 0, 0, 0, 0, 0, 0, 0]]"] ;
66 -> 67 ;
68 [label="gini = 0.0\nsamples = 1\nvalue = [[0, 1, 0, 0, 0, 0, 0, 0, 0, 0, 0, 0, 0, 0\n 0, 0, 0, 0, 0, 0, 0, 0, 0, 0]\n[0, 0, 0, 0, 0, 0, 0, 1, 0, 0, 0, 0, 0, 0\n 0, 0, 0, 0, 0, 0, 0, 0, 0, 0]\n[0, 1, 0, 0, 0, 0, 0, 0, 0, 0, 0, 0, 0, 0\n 0, 0, 0, 0, 0, 0, 0, 0, 0, 0]\n[1, 0, 0, 0, 0, 0, 0, 0, 0, 0, 0, 0, 0, 0\n 0, 0, 0, 0, 0, 0, 0, 0, 0, 0]\n[0, 1, 0, 0, 0, 0, 0, 0, 0, 0, 0, 0, 0, 0\n 0, 0, 0, 0, 0, 0, 0, 0, 0, 0]\n[0, 0, 0, 0, 0, 0, 0, 1, 0, 0, 0, 0, 0, 0\n 0, 0, 0, 0, 0, 0, 0, 0, 0, 0]\n[1, 0, 0, 0, 0, 0, 0, 0, 0, 0, 0, 0, 0, 0\n 0, 0, 0, 0, 0, 0, 0, 0, 0, 0]]"] ;
66 -> 68 ;
69 [label="X[16] <= 0.35\ngini = 0.143\nsamples = 2\nvalue = [[0, 2, 0, 0, 0, 0, 0, 0, 0, 0, 0, 0, 0, 0\n 0, 0, 0, 0, 0, 0, 0, 0, 0, 0]\n[0, 0, 1, 1, 0, 0, 0, 0, 0, 0, 0, 0, 0, 0\n 0, 0, 0, 0, 0, 0, 0, 0, 0, 0]\n[2, 0, 0, 0, 0, 0, 0, 0, 0, 0, 0, 0, 0, 0\n 0, 0, 0, 0, 0, 0, 0, 0, 0, 0]\n[2, 0, 0, 0, 0, 0, 0, 0, 0, 0, 0, 0, 0, 0\n 0, 0, 0, 0, 0, 0, 0, 0, 0, 0]\n[0, 2, 0, 0, 0, 0, 0, 0, 0, 0, 0, 0, 0, 0\n 0, 0, 0, 0, 0, 0, 0, 0, 0, 0]\n[0, 0, 0, 0, 0, 0, 0, 0, 0, 1, 0, 1, 0, 0\n 0, 0, 0, 0, 0, 0, 0, 0, 0, 0]\n[2, 0, 0, 0, 0, 0, 0, 0, 0, 0, 0, 0, 0, 0\n 0, 0, 0, 0, 0, 0, 0, 0, 0, 0]]"] ;
65 -> 69 ;
70 [label="gini = 0.0\nsamples = 1\nvalue = [[0, 1, 0, 0, 0, 0, 0, 0, 0, 0, 0, 0, 0, 0\n 0, 0, 0, 0, 0, 0, 0, 0, 0, 0]\n[0, 0, 0, 1, 0, 0, 0, 0, 0, 0, 0, 0, 0, 0\n 0, 0, 0, 0, 0, 0, 0, 0, 0, 0]\n[1, 0, 0, 0, 0, 0, 0, 0, 0, 0, 0, 0, 0, 0\n 0, 0, 0, 0, 0, 0, 0, 0, 0, 0]\n[1, 0, 0, 0, 0, 0, 0, 0, 0, 0, 0, 0, 0, 0\n 0, 0, 0, 0, 0, 0, 0, 0, 0, 0]\n[0, 1, 0, 0, 0, 0, 0, 0, 0, 0, 0, 0, 0, 0\n 0, 0, 0, 0, 0, 0, 0, 0, 0, 0]\n[0, 0, 0, 0, 0, 0, 0, 0, 0, 1, 0, 0, 0, 0\n 0, 0, 0, 0, 0, 0, 0, 0, 0, 0]\n[1, 0, 0, 0, 0, 0, 0, 0, 0, 0, 0, 0, 0, 0\n 0, 0, 0, 0, 0, 0, 0, 0, 0, 0]]"] ;
69 -> 70 ;
71 [label="gini = 0.0\nsamples = 1\nvalue = [[0, 1, 0, 0, 0, 0, 0, 0, 0, 0, 0, 0, 0, 0\n 0, 0, 0, 0, 0, 0, 0, 0, 0, 0]\n[0, 0, 1, 0, 0, 0, 0, 0, 0, 0, 0, 0, 0, 0\n 0, 0, 0, 0, 0, 0, 0, 0, 0, 0]\n[1, 0, 0, 0, 0, 0, 0, 0, 0, 0, 0, 0, 0, 0\n 0, 0, 0, 0, 0, 0, 0, 0, 0, 0]\n[1, 0, 0, 0, 0, 0, 0, 0, 0, 0, 0, 0, 0, 0\n 0, 0, 0, 0, 0, 0, 0, 0, 0, 0]\n[0, 1, 0, 0, 0, 0, 0, 0, 0, 0, 0, 0, 0, 0\n 0, 0, 0, 0, 0, 0, 0, 0, 0, 0]\n[0, 0, 0, 0, 0, 0, 0, 0, 0, 0, 0, 1, 0, 0\n 0, 0, 0, 0, 0, 0, 0, 0, 0, 0]\n[1, 0, 0, 0, 0, 0, 0, 0, 0, 0, 0, 0, 0, 0\n 0, 0, 0, 0, 0, 0, 0, 0, 0, 0]]"] ;
69 -> 71 ;
72 [label="X[17] <= 12717.0\ngini = 0.071\nsamples = 2\nvalue = [[1, 1, 0, 0, 0, 0, 0, 0, 0, 0, 0, 0, 0, 0\n 0, 0, 0, 0, 0, 0, 0, 0, 0, 0]\n[0, 0, 0, 0, 2, 0, 0, 0, 0, 0, 0, 0, 0, 0\n 0, 0, 0, 0, 0, 0, 0, 0, 0, 0]\n[2, 0, 0, 0, 0, 0, 0, 0, 0, 0, 0, 0, 0, 0\n 0, 0, 0, 0, 0, 0, 0, 0, 0, 0]\n[2, 0, 0, 0, 0, 0, 0, 0, 0, 0, 0, 0, 0, 0\n 0, 0, 0, 0, 0, 0, 0, 0, 0, 0]\n[0, 2, 0, 0, 0, 0, 0, 0, 0, 0, 0, 0, 0, 0\n 0, 0, 0, 0, 0, 0, 0, 0, 0, 0]\n[0, 0, 0, 0, 0, 2, 0, 0, 0, 0, 0, 0, 0, 0\n 0, 0, 0, 0, 0, 0, 0, 0, 0, 0]\n[2, 0, 0, 0, 0, 0, 0, 0, 0, 0, 0, 0, 0, 0\n 0, 0, 0, 0, 0, 0, 0, 0, 0, 0]]"] ;
64 -> 72 ;
73 [label="gini = 0.0\nsamples = 1\nvalue = [[0, 1, 0, 0, 0, 0, 0, 0, 0, 0, 0, 0, 0, 0\n 0, 0, 0, 0, 0, 0, 0, 0, 0, 0]\n[0, 0, 0, 0, 1, 0, 0, 0, 0, 0, 0, 0, 0, 0\n 0, 0, 0, 0, 0, 0, 0, 0, 0, 0]\n[1, 0, 0, 0, 0, 0, 0, 0, 0, 0, 0, 0, 0, 0\n 0, 0, 0, 0, 0, 0, 0, 0, 0, 0]\n[1, 0, 0, 0, 0, 0, 0, 0, 0, 0, 0, 0, 0, 0\n 0, 0, 0, 0, 0, 0, 0, 0, 0, 0]\n[0, 1, 0, 0, 0, 0, 0, 0, 0, 0, 0, 0, 0, 0\n 0, 0, 0, 0, 0, 0, 0, 0, 0, 0]\n[0, 0, 0, 0, 0, 1, 0, 0, 0, 0, 0, 0, 0, 0\n 0, 0, 0, 0, 0, 0, 0, 0, 0, 0]\n[1, 0, 0, 0, 0, 0, 0, 0, 0, 0, 0, 0, 0, 0\n 0, 0, 0, 0, 0, 0, 0, 0, 0, 0]]"] ;
72 -> 73 ;
74 [label="gini = 0.0\nsamples = 1\nvalue = [[1, 0, 0, 0, 0, 0, 0, 0, 0, 0, 0, 0, 0, 0\n 0, 0, 0, 0, 0, 0, 0, 0, 0, 0]\n[0, 0, 0, 0, 1, 0, 0, 0, 0, 0, 0, 0, 0, 0\n 0, 0, 0, 0, 0, 0, 0, 0, 0, 0]\n[1, 0, 0, 0, 0, 0, 0, 0, 0, 0, 0, 0, 0, 0\n 0, 0, 0, 0, 0, 0, 0, 0, 0, 0]\n[1, 0, 0, 0, 0, 0, 0, 0, 0, 0, 0, 0, 0, 0\n 0, 0, 0, 0, 0, 0, 0, 0, 0, 0]\n[0, 1, 0, 0, 0, 0, 0, 0, 0, 0, 0, 0, 0, 0\n 0, 0, 0, 0, 0, 0, 0, 0, 0, 0]\n[0, 0, 0, 0, 0, 1, 0, 0, 0, 0, 0, 0, 0, 0\n 0, 0, 0, 0, 0, 0, 0, 0, 0, 0]\n[1, 0, 0, 0, 0, 0, 0, 0, 0, 0, 0, 0, 0, 0\n 0, 0, 0, 0, 0, 0, 0, 0, 0, 0]]"] ;
72 -> 74 ;
75 [label="X[6] <= -1.522\ngini = 0.335\nsamples = 16\nvalue = [[0, 16, 0, 0, 0, 0, 0, 0, 0, 0, 0, 0, 0, 0\n 0, 0, 0, 0, 0, 0, 0, 0, 0, 0]\n[3, 0, 1, 0, 8, 2, 0, 2, 0, 0, 0, 0, 0, 0\n 0, 0, 0, 0, 0, 0, 0, 0, 0, 0]\n[16, 0, 0, 0, 0, 0, 0, 0, 0, 0, 0, 0, 0, 0\n 0, 0, 0, 0, 0, 0, 0, 0, 0, 0]\n[5, 11, 0, 0, 0, 0, 0, 0, 0, 0, 0, 0, 0, 0\n 0, 0, 0, 0, 0, 0, 0, 0, 0, 0]\n[6, 10, 0, 0, 0, 0, 0, 0, 0, 0, 0, 0, 0, 0\n 0, 0, 0, 0, 0, 0, 0, 0, 0, 0]\n[0, 0, 0, 0, 0, 1, 0, 2, 0, 0, 0, 6, 3, 0\n 0, 0, 3, 0, 1, 0, 0, 0, 0, 0]\n[16, 0, 0, 0, 0, 0, 0, 0, 0, 0, 0, 0, 0, 0\n 0, 0, 0, 0, 0, 0, 0, 0, 0, 0]]"] ;
61 -> 75 ;
76 [label="X[6] <= -1.551\ngini = 0.27\nsamples = 6\nvalue = [[0, 6, 0, 0, 0, 0, 0, 0, 0, 0, 0, 0, 0, 0\n 0, 0, 0, 0, 0, 0, 0, 0, 0, 0]\n[1, 0, 0, 0, 3, 2, 0, 0, 0, 0, 0, 0, 0, 0\n 0, 0, 0, 0, 0, 0, 0, 0, 0, 0]\n[6, 0, 0, 0, 0, 0, 0, 0, 0, 0, 0, 0, 0, 0\n 0, 0, 0, 0, 0, 0, 0, 0, 0, 0]\n[5, 1, 0, 0, 0, 0, 0, 0, 0, 0, 0, 0, 0, 0\n 0, 0, 0, 0, 0, 0, 0, 0, 0, 0]\n[3, 3, 0, 0, 0, 0, 0, 0, 0, 0, 0, 0, 0, 0\n 0, 0, 0, 0, 0, 0, 0, 0, 0, 0]\n[0, 0, 0, 0, 0, 0, 0, 1, 0, 0, 0, 4, 0, 0\n 0, 0, 1, 0, 0, 0, 0, 0, 0, 0]\n[6, 0, 0, 0, 0, 0, 0, 0, 0, 0, 0, 0, 0, 0\n 0, 0, 0, 0, 0, 0, 0, 0, 0, 0]]"] ;
75 -> 76 ;
77 [label="X[3] <= 217.471\ngini = 0.229\nsamples = 5\nvalue = [[0, 5, 0, 0, 0, 0, 0, 0, 0, 0, 0, 0, 0, 0\n 0, 0, 0, 0, 0, 0, 0, 0, 0, 0]\n[0, 0, 0, 0, 3, 2, 0, 0, 0, 0, 0, 0, 0, 0\n 0, 0, 0, 0, 0, 0, 0, 0, 0, 0]\n[5, 0, 0, 0, 0, 0, 0, 0, 0, 0, 0, 0, 0, 0\n 0, 0, 0, 0, 0, 0, 0, 0, 0, 0]\n[4, 1, 0, 0, 0, 0, 0, 0, 0, 0, 0, 0, 0, 0\n 0, 0, 0, 0, 0, 0, 0, 0, 0, 0]\n[2, 3, 0, 0, 0, 0, 0, 0, 0, 0, 0, 0, 0, 0\n 0, 0, 0, 0, 0, 0, 0, 0, 0, 0]\n[0, 0, 0, 0, 0, 0, 0, 0, 0, 0, 0, 4, 0, 0\n 0, 0, 1, 0, 0, 0, 0, 0, 0, 0]\n[5, 0, 0, 0, 0, 0, 0, 0, 0, 0, 0, 0, 0, 0\n 0, 0, 0, 0, 0, 0, 0, 0, 0, 0]]"] ;
76 -> 77 ;
78 [label="X[11] <= 3908.679\ngini = 0.127\nsamples = 3\nvalue = [[0, 3, 0, 0, 0, 0, 0, 0, 0, 0, 0, 0, 0, 0\n 0, 0, 0, 0, 0, 0, 0, 0, 0, 0]\n[0, 0, 0, 0, 2, 1, 0, 0, 0, 0, 0, 0, 0, 0\n 0, 0, 0, 0, 0, 0, 0, 0, 0, 0]\n[3, 0, 0, 0, 0, 0, 0, 0, 0, 0, 0, 0, 0, 0\n 0, 0, 0, 0, 0, 0, 0, 0, 0, 0]\n[3, 0, 0, 0, 0, 0, 0, 0, 0, 0, 0, 0, 0, 0\n 0, 0, 0, 0, 0, 0, 0, 0, 0, 0]\n[0, 3, 0, 0, 0, 0, 0, 0, 0, 0, 0, 0, 0, 0\n 0, 0, 0, 0, 0, 0, 0, 0, 0, 0]\n[0, 0, 0, 0, 0, 0, 0, 0, 0, 0, 0, 2, 0, 0\n 0, 0, 1, 0, 0, 0, 0, 0, 0, 0]\n[3, 0, 0, 0, 0, 0, 0, 0, 0, 0, 0, 0, 0, 0\n 0, 0, 0, 0, 0, 0, 0, 0, 0, 0]]"] ;
77 -> 78 ;
79 [label="X[6] <= -1.629\ngini = 0.071\nsamples = 2\nvalue = [[0, 2, 0, 0, 0, 0, 0, 0, 0, 0, 0, 0, 0, 0\n 0, 0, 0, 0, 0, 0, 0, 0, 0, 0]\n[0, 0, 0, 0, 2, 0, 0, 0, 0, 0, 0, 0, 0, 0\n 0, 0, 0, 0, 0, 0, 0, 0, 0, 0]\n[2, 0, 0, 0, 0, 0, 0, 0, 0, 0, 0, 0, 0, 0\n 0, 0, 0, 0, 0, 0, 0, 0, 0, 0]\n[2, 0, 0, 0, 0, 0, 0, 0, 0, 0, 0, 0, 0, 0\n 0, 0, 0, 0, 0, 0, 0, 0, 0, 0]\n[0, 2, 0, 0, 0, 0, 0, 0, 0, 0, 0, 0, 0, 0\n 0, 0, 0, 0, 0, 0, 0, 0, 0, 0]\n[0, 0, 0, 0, 0, 0, 0, 0, 0, 0, 0, 1, 0, 0\n 0, 0, 1, 0, 0, 0, 0, 0, 0, 0]\n[2, 0, 0, 0, 0, 0, 0, 0, 0, 0, 0, 0, 0, 0\n 0, 0, 0, 0, 0, 0, 0, 0, 0, 0]]"] ;
78 -> 79 ;
80 [label="gini = 0.0\nsamples = 1\nvalue = [[0, 1, 0, 0, 0, 0, 0, 0, 0, 0, 0, 0, 0, 0\n 0, 0, 0, 0, 0, 0, 0, 0, 0, 0]\n[0, 0, 0, 0, 1, 0, 0, 0, 0, 0, 0, 0, 0, 0\n 0, 0, 0, 0, 0, 0, 0, 0, 0, 0]\n[1, 0, 0, 0, 0, 0, 0, 0, 0, 0, 0, 0, 0, 0\n 0, 0, 0, 0, 0, 0, 0, 0, 0, 0]\n[1, 0, 0, 0, 0, 0, 0, 0, 0, 0, 0, 0, 0, 0\n 0, 0, 0, 0, 0, 0, 0, 0, 0, 0]\n[0, 1, 0, 0, 0, 0, 0, 0, 0, 0, 0, 0, 0, 0\n 0, 0, 0, 0, 0, 0, 0, 0, 0, 0]\n[0, 0, 0, 0, 0, 0, 0, 0, 0, 0, 0, 1, 0, 0\n 0, 0, 0, 0, 0, 0, 0, 0, 0, 0]\n[1, 0, 0, 0, 0, 0, 0, 0, 0, 0, 0, 0, 0, 0\n 0, 0, 0, 0, 0, 0, 0, 0, 0, 0]]"] ;
79 -> 80 ;
81 [label="gini = 0.0\nsamples = 1\nvalue = [[0, 1, 0, 0, 0, 0, 0, 0, 0, 0, 0, 0, 0, 0\n 0, 0, 0, 0, 0, 0, 0, 0, 0, 0]\n[0, 0, 0, 0, 1, 0, 0, 0, 0, 0, 0, 0, 0, 0\n 0, 0, 0, 0, 0, 0, 0, 0, 0, 0]\n[1, 0, 0, 0, 0, 0, 0, 0, 0, 0, 0, 0, 0, 0\n 0, 0, 0, 0, 0, 0, 0, 0, 0, 0]\n[1, 0, 0, 0, 0, 0, 0, 0, 0, 0, 0, 0, 0, 0\n 0, 0, 0, 0, 0, 0, 0, 0, 0, 0]\n[0, 1, 0, 0, 0, 0, 0, 0, 0, 0, 0, 0, 0, 0\n 0, 0, 0, 0, 0, 0, 0, 0, 0, 0]\n[0, 0, 0, 0, 0, 0, 0, 0, 0, 0, 0, 0, 0, 0\n 0, 0, 1, 0, 0, 0, 0, 0, 0, 0]\n[1, 0, 0, 0, 0, 0, 0, 0, 0, 0, 0, 0, 0, 0\n 0, 0, 0, 0, 0, 0, 0, 0, 0, 0]]"] ;
79 -> 81 ;
82 [label="gini = 0.0\nsamples = 1\nvalue = [[0, 1, 0, 0, 0, 0, 0, 0, 0, 0, 0, 0, 0, 0\n 0, 0, 0, 0, 0, 0, 0, 0, 0, 0]\n[0, 0, 0, 0, 0, 1, 0, 0, 0, 0, 0, 0, 0, 0\n 0, 0, 0, 0, 0, 0, 0, 0, 0, 0]\n[1, 0, 0, 0, 0, 0, 0, 0, 0, 0, 0, 0, 0, 0\n 0, 0, 0, 0, 0, 0, 0, 0, 0, 0]\n[1, 0, 0, 0, 0, 0, 0, 0, 0, 0, 0, 0, 0, 0\n 0, 0, 0, 0, 0, 0, 0, 0, 0, 0]\n[0, 1, 0, 0, 0, 0, 0, 0, 0, 0, 0, 0, 0, 0\n 0, 0, 0, 0, 0, 0, 0, 0, 0, 0]\n[0, 0, 0, 0, 0, 0, 0, 0, 0, 0, 0, 1, 0, 0\n 0, 0, 0, 0, 0, 0, 0, 0, 0, 0]\n[1, 0, 0, 0, 0, 0, 0, 0, 0, 0, 0, 0, 0, 0\n 0, 0, 0, 0, 0, 0, 0, 0, 0, 0]]"] ;
78 -> 82 ;
83 [label="X[6] <= -1.59\ngini = 0.143\nsamples = 2\nvalue = [[0, 2, 0, 0, 0, 0, 0, 0, 0, 0, 0, 0, 0, 0\n 0, 0, 0, 0, 0, 0, 0, 0, 0, 0]\n[0, 0, 0, 0, 1, 1, 0, 0, 0, 0, 0, 0, 0, 0\n 0, 0, 0, 0, 0, 0, 0, 0, 0, 0]\n[2, 0, 0, 0, 0, 0, 0, 0, 0, 0, 0, 0, 0, 0\n 0, 0, 0, 0, 0, 0, 0, 0, 0, 0]\n[1, 1, 0, 0, 0, 0, 0, 0, 0, 0, 0, 0, 0, 0\n 0, 0, 0, 0, 0, 0, 0, 0, 0, 0]\n[2, 0, 0, 0, 0, 0, 0, 0, 0, 0, 0, 0, 0, 0\n 0, 0, 0, 0, 0, 0, 0, 0, 0, 0]\n[0, 0, 0, 0, 0, 0, 0, 0, 0, 0, 0, 2, 0, 0\n 0, 0, 0, 0, 0, 0, 0, 0, 0, 0]\n[2, 0, 0, 0, 0, 0, 0, 0, 0, 0, 0, 0, 0, 0\n 0, 0, 0, 0, 0, 0, 0, 0, 0, 0]]"] ;
77 -> 83 ;
84 [label="gini = 0.0\nsamples = 1\nvalue = [[0, 1, 0, 0, 0, 0, 0, 0, 0, 0, 0, 0, 0, 0\n 0, 0, 0, 0, 0, 0, 0, 0, 0, 0]\n[0, 0, 0, 0, 0, 1, 0, 0, 0, 0, 0, 0, 0, 0\n 0, 0, 0, 0, 0, 0, 0, 0, 0, 0]\n[1, 0, 0, 0, 0, 0, 0, 0, 0, 0, 0, 0, 0, 0\n 0, 0, 0, 0, 0, 0, 0, 0, 0, 0]\n[1, 0, 0, 0, 0, 0, 0, 0, 0, 0, 0, 0, 0, 0\n 0, 0, 0, 0, 0, 0, 0, 0, 0, 0]\n[1, 0, 0, 0, 0, 0, 0, 0, 0, 0, 0, 0, 0, 0\n 0, 0, 0, 0, 0, 0, 0, 0, 0, 0]\n[0, 0, 0, 0, 0, 0, 0, 0, 0, 0, 0, 1, 0, 0\n 0, 0, 0, 0, 0, 0, 0, 0, 0, 0]\n[1, 0, 0, 0, 0, 0, 0, 0, 0, 0, 0, 0, 0, 0\n 0, 0, 0, 0, 0, 0, 0, 0, 0, 0]]"] ;
83 -> 84 ;
85 [label="gini = 0.0\nsamples = 1\nvalue = [[0, 1, 0, 0, 0, 0, 0, 0, 0, 0, 0, 0, 0, 0\n 0, 0, 0, 0, 0, 0, 0, 0, 0, 0]\n[0, 0, 0, 0, 1, 0, 0, 0, 0, 0, 0, 0, 0, 0\n 0, 0, 0, 0, 0, 0, 0, 0, 0, 0]\n[1, 0, 0, 0, 0, 0, 0, 0, 0, 0, 0, 0, 0, 0\n 0, 0, 0, 0, 0, 0, 0, 0, 0, 0]\n[0, 1, 0, 0, 0, 0, 0, 0, 0, 0, 0, 0, 0, 0\n 0, 0, 0, 0, 0, 0, 0, 0, 0, 0]\n[1, 0, 0, 0, 0, 0, 0, 0, 0, 0, 0, 0, 0, 0\n 0, 0, 0, 0, 0, 0, 0, 0, 0, 0]\n[0, 0, 0, 0, 0, 0, 0, 0, 0, 0, 0, 1, 0, 0\n 0, 0, 0, 0, 0, 0, 0, 0, 0, 0]\n[1, 0, 0, 0, 0, 0, 0, 0, 0, 0, 0, 0, 0, 0\n 0, 0, 0, 0, 0, 0, 0, 0, 0, 0]]"] ;
83 -> 85 ;
86 [label="gini = 0.0\nsamples = 1\nvalue = [[0, 1, 0, 0, 0, 0, 0, 0, 0, 0, 0, 0, 0, 0\n 0, 0, 0, 0, 0, 0, 0, 0, 0, 0]\n[1, 0, 0, 0, 0, 0, 0, 0, 0, 0, 0, 0, 0, 0\n 0, 0, 0, 0, 0, 0, 0, 0, 0, 0]\n[1, 0, 0, 0, 0, 0, 0, 0, 0, 0, 0, 0, 0, 0\n 0, 0, 0, 0, 0, 0, 0, 0, 0, 0]\n[1, 0, 0, 0, 0, 0, 0, 0, 0, 0, 0, 0, 0, 0\n 0, 0, 0, 0, 0, 0, 0, 0, 0, 0]\n[1, 0, 0, 0, 0, 0, 0, 0, 0, 0, 0, 0, 0, 0\n 0, 0, 0, 0, 0, 0, 0, 0, 0, 0]\n[0, 0, 0, 0, 0, 0, 0, 1, 0, 0, 0, 0, 0, 0\n 0, 0, 0, 0, 0, 0, 0, 0, 0, 0]\n[1, 0, 0, 0, 0, 0, 0, 0, 0, 0, 0, 0, 0, 0\n 0, 0, 0, 0, 0, 0, 0, 0, 0, 0]]"] ;
76 -> 86 ;
87 [label="X[8] <= 4604.245\ngini = 0.269\nsamples = 10\nvalue = [[0, 10, 0, 0, 0, 0, 0, 0, 0, 0, 0, 0, 0, 0\n 0, 0, 0, 0, 0, 0, 0, 0, 0, 0]\n[2, 0, 1, 0, 5, 0, 0, 2, 0, 0, 0, 0, 0, 0\n 0, 0, 0, 0, 0, 0, 0, 0, 0, 0]\n[10, 0, 0, 0, 0, 0, 0, 0, 0, 0, 0, 0, 0, 0\n 0, 0, 0, 0, 0, 0, 0, 0, 0, 0]\n[0, 10, 0, 0, 0, 0, 0, 0, 0, 0, 0, 0, 0, 0\n 0, 0, 0, 0, 0, 0, 0, 0, 0, 0]\n[3, 7, 0, 0, 0, 0, 0, 0, 0, 0, 0, 0, 0, 0\n 0, 0, 0, 0, 0, 0, 0, 0, 0, 0]\n[0, 0, 0, 0, 0, 1, 0, 1, 0, 0, 0, 2, 3, 0\n 0, 0, 2, 0, 1, 0, 0, 0, 0, 0]\n[10, 0, 0, 0, 0, 0, 0, 0, 0, 0, 0, 0, 0, 0\n 0, 0, 0, 0, 0, 0, 0, 0, 0, 0]]"] ;
75 -> 87 ;
88 [label="X[9] <= 788.964\ngini = 0.127\nsamples = 3\nvalue = [[0, 3, 0, 0, 0, 0, 0, 0, 0, 0, 0, 0, 0, 0\n 0, 0, 0, 0, 0, 0, 0, 0, 0, 0]\n[0, 0, 0, 0, 3, 0, 0, 0, 0, 0, 0, 0, 0, 0\n 0, 0, 0, 0, 0, 0, 0, 0, 0, 0]\n[3, 0, 0, 0, 0, 0, 0, 0, 0, 0, 0, 0, 0, 0\n 0, 0, 0, 0, 0, 0, 0, 0, 0, 0]\n[0, 3, 0, 0, 0, 0, 0, 0, 0, 0, 0, 0, 0, 0\n 0, 0, 0, 0, 0, 0, 0, 0, 0, 0]\n[2, 1, 0, 0, 0, 0, 0, 0, 0, 0, 0, 0, 0, 0\n 0, 0, 0, 0, 0, 0, 0, 0, 0, 0]\n[0, 0, 0, 0, 0, 0, 0, 1, 0, 0, 0, 0, 2, 0\n 0, 0, 0, 0, 0, 0, 0, 0, 0, 0]\n[3, 0, 0, 0, 0, 0, 0, 0, 0, 0, 0, 0, 0, 0\n 0, 0, 0, 0, 0, 0, 0, 0, 0, 0]]"] ;
87 -> 88 ;
89 [label="gini = 0.0\nsamples = 1\nvalue = [[0, 1, 0, 0, 0, 0, 0, 0, 0, 0, 0, 0, 0, 0\n 0, 0, 0, 0, 0, 0, 0, 0, 0, 0]\n[0, 0, 0, 0, 1, 0, 0, 0, 0, 0, 0, 0, 0, 0\n 0, 0, 0, 0, 0, 0, 0, 0, 0, 0]\n[1, 0, 0, 0, 0, 0, 0, 0, 0, 0, 0, 0, 0, 0\n 0, 0, 0, 0, 0, 0, 0, 0, 0, 0]\n[0, 1, 0, 0, 0, 0, 0, 0, 0, 0, 0, 0, 0, 0\n 0, 0, 0, 0, 0, 0, 0, 0, 0, 0]\n[1, 0, 0, 0, 0, 0, 0, 0, 0, 0, 0, 0, 0, 0\n 0, 0, 0, 0, 0, 0, 0, 0, 0, 0]\n[0, 0, 0, 0, 0, 0, 0, 1, 0, 0, 0, 0, 0, 0\n 0, 0, 0, 0, 0, 0, 0, 0, 0, 0]\n[1, 0, 0, 0, 0, 0, 0, 0, 0, 0, 0, 0, 0, 0\n 0, 0, 0, 0, 0, 0, 0, 0, 0, 0]]"] ;
88 -> 89 ;
90 [label="X[2] <= 0.498\ngini = 0.071\nsamples = 2\nvalue = [[0, 2, 0, 0, 0, 0, 0, 0, 0, 0, 0, 0, 0, 0\n 0, 0, 0, 0, 0, 0, 0, 0, 0, 0]\n[0, 0, 0, 0, 2, 0, 0, 0, 0, 0, 0, 0, 0, 0\n 0, 0, 0, 0, 0, 0, 0, 0, 0, 0]\n[2, 0, 0, 0, 0, 0, 0, 0, 0, 0, 0, 0, 0, 0\n 0, 0, 0, 0, 0, 0, 0, 0, 0, 0]\n[0, 2, 0, 0, 0, 0, 0, 0, 0, 0, 0, 0, 0, 0\n 0, 0, 0, 0, 0, 0, 0, 0, 0, 0]\n[1, 1, 0, 0, 0, 0, 0, 0, 0, 0, 0, 0, 0, 0\n 0, 0, 0, 0, 0, 0, 0, 0, 0, 0]\n[0, 0, 0, 0, 0, 0, 0, 0, 0, 0, 0, 0, 2, 0\n 0, 0, 0, 0, 0, 0, 0, 0, 0, 0]\n[2, 0, 0, 0, 0, 0, 0, 0, 0, 0, 0, 0, 0, 0\n 0, 0, 0, 0, 0, 0, 0, 0, 0, 0]]"] ;
88 -> 90 ;
91 [label="gini = 0.0\nsamples = 1\nvalue = [[0, 1, 0, 0, 0, 0, 0, 0, 0, 0, 0, 0, 0, 0\n 0, 0, 0, 0, 0, 0, 0, 0, 0, 0]\n[0, 0, 0, 0, 1, 0, 0, 0, 0, 0, 0, 0, 0, 0\n 0, 0, 0, 0, 0, 0, 0, 0, 0, 0]\n[1, 0, 0, 0, 0, 0, 0, 0, 0, 0, 0, 0, 0, 0\n 0, 0, 0, 0, 0, 0, 0, 0, 0, 0]\n[0, 1, 0, 0, 0, 0, 0, 0, 0, 0, 0, 0, 0, 0\n 0, 0, 0, 0, 0, 0, 0, 0, 0, 0]\n[0, 1, 0, 0, 0, 0, 0, 0, 0, 0, 0, 0, 0, 0\n 0, 0, 0, 0, 0, 0, 0, 0, 0, 0]\n[0, 0, 0, 0, 0, 0, 0, 0, 0, 0, 0, 0, 1, 0\n 0, 0, 0, 0, 0, 0, 0, 0, 0, 0]\n[1, 0, 0, 0, 0, 0, 0, 0, 0, 0, 0, 0, 0, 0\n 0, 0, 0, 0, 0, 0, 0, 0, 0, 0]]"] ;
90 -> 91 ;
92 [label="gini = 0.0\nsamples = 1\nvalue = [[0, 1, 0, 0, 0, 0, 0, 0, 0, 0, 0, 0, 0, 0\n 0, 0, 0, 0, 0, 0, 0, 0, 0, 0]\n[0, 0, 0, 0, 1, 0, 0, 0, 0, 0, 0, 0, 0, 0\n 0, 0, 0, 0, 0, 0, 0, 0, 0, 0]\n[1, 0, 0, 0, 0, 0, 0, 0, 0, 0, 0, 0, 0, 0\n 0, 0, 0, 0, 0, 0, 0, 0, 0, 0]\n[0, 1, 0, 0, 0, 0, 0, 0, 0, 0, 0, 0, 0, 0\n 0, 0, 0, 0, 0, 0, 0, 0, 0, 0]\n[1, 0, 0, 0, 0, 0, 0, 0, 0, 0, 0, 0, 0, 0\n 0, 0, 0, 0, 0, 0, 0, 0, 0, 0]\n[0, 0, 0, 0, 0, 0, 0, 0, 0, 0, 0, 0, 1, 0\n 0, 0, 0, 0, 0, 0, 0, 0, 0, 0]\n[1, 0, 0, 0, 0, 0, 0, 0, 0, 0, 0, 0, 0, 0\n 0, 0, 0, 0, 0, 0, 0, 0, 0, 0]]"] ;
90 -> 92 ;
93 [label="X[6] <= -1.393\ngini = 0.251\nsamples = 7\nvalue = [[0, 7, 0, 0, 0, 0, 0, 0, 0, 0, 0, 0, 0, 0\n 0, 0, 0, 0, 0, 0, 0, 0, 0, 0]\n[2, 0, 1, 0, 2, 0, 0, 2, 0, 0, 0, 0, 0, 0\n 0, 0, 0, 0, 0, 0, 0, 0, 0, 0]\n[7, 0, 0, 0, 0, 0, 0, 0, 0, 0, 0, 0, 0, 0\n 0, 0, 0, 0, 0, 0, 0, 0, 0, 0]\n[0, 7, 0, 0, 0, 0, 0, 0, 0, 0, 0, 0, 0, 0\n 0, 0, 0, 0, 0, 0, 0, 0, 0, 0]\n[1, 6, 0, 0, 0, 0, 0, 0, 0, 0, 0, 0, 0, 0\n 0, 0, 0, 0, 0, 0, 0, 0, 0, 0]\n[0, 0, 0, 0, 0, 1, 0, 0, 0, 0, 0, 2, 1, 0\n 0, 0, 2, 0, 1, 0, 0, 0, 0, 0]\n[7, 0, 0, 0, 0, 0, 0, 0, 0, 0, 0, 0, 0, 0\n 0, 0, 0, 0, 0, 0, 0, 0, 0, 0]]"] ;
87 -> 93 ;
94 [label="X[10] <= 0.084\ngini = 0.183\nsamples = 5\nvalue = [[0, 5, 0, 0, 0, 0, 0, 0, 0, 0, 0, 0, 0, 0\n 0, 0, 0, 0, 0, 0, 0, 0, 0, 0]\n[0, 0, 1, 0, 2, 0, 0, 2, 0, 0, 0, 0, 0, 0\n 0, 0, 0, 0, 0, 0, 0, 0, 0, 0]\n[5, 0, 0, 0, 0, 0, 0, 0, 0, 0, 0, 0, 0, 0\n 0, 0, 0, 0, 0, 0, 0, 0, 0, 0]\n[0, 5, 0, 0, 0, 0, 0, 0, 0, 0, 0, 0, 0, 0\n 0, 0, 0, 0, 0, 0, 0, 0, 0, 0]\n[0, 5, 0, 0, 0, 0, 0, 0, 0, 0, 0, 0, 0, 0\n 0, 0, 0, 0, 0, 0, 0, 0, 0, 0]\n[0, 0, 0, 0, 0, 0, 0, 0, 0, 0, 0, 2, 0, 0\n 0, 0, 2, 0, 1, 0, 0, 0, 0, 0]\n[5, 0, 0, 0, 0, 0, 0, 0, 0, 0, 0, 0, 0, 0\n 0, 0, 0, 0, 0, 0, 0, 0, 0, 0]]"] ;
93 -> 94 ;
95 [label="X[1] <= 3620.5\ngini = 0.071\nsamples = 2\nvalue = [[0, 2, 0, 0, 0, 0, 0, 0, 0, 0, 0, 0, 0, 0\n 0, 0, 0, 0, 0, 0, 0, 0, 0, 0]\n[0, 0, 0, 0, 2, 0, 0, 0, 0, 0, 0, 0, 0, 0\n 0, 0, 0, 0, 0, 0, 0, 0, 0, 0]\n[2, 0, 0, 0, 0, 0, 0, 0, 0, 0, 0, 0, 0, 0\n 0, 0, 0, 0, 0, 0, 0, 0, 0, 0]\n[0, 2, 0, 0, 0, 0, 0, 0, 0, 0, 0, 0, 0, 0\n 0, 0, 0, 0, 0, 0, 0, 0, 0, 0]\n[0, 2, 0, 0, 0, 0, 0, 0, 0, 0, 0, 0, 0, 0\n 0, 0, 0, 0, 0, 0, 0, 0, 0, 0]\n[0, 0, 0, 0, 0, 0, 0, 0, 0, 0, 0, 1, 0, 0\n 0, 0, 0, 0, 1, 0, 0, 0, 0, 0]\n[2, 0, 0, 0, 0, 0, 0, 0, 0, 0, 0, 0, 0, 0\n 0, 0, 0, 0, 0, 0, 0, 0, 0, 0]]"] ;
94 -> 95 ;
96 [label="gini = 0.0\nsamples = 1\nvalue = [[0, 1, 0, 0, 0, 0, 0, 0, 0, 0, 0, 0, 0, 0\n 0, 0, 0, 0, 0, 0, 0, 0, 0, 0]\n[0, 0, 0, 0, 1, 0, 0, 0, 0, 0, 0, 0, 0, 0\n 0, 0, 0, 0, 0, 0, 0, 0, 0, 0]\n[1, 0, 0, 0, 0, 0, 0, 0, 0, 0, 0, 0, 0, 0\n 0, 0, 0, 0, 0, 0, 0, 0, 0, 0]\n[0, 1, 0, 0, 0, 0, 0, 0, 0, 0, 0, 0, 0, 0\n 0, 0, 0, 0, 0, 0, 0, 0, 0, 0]\n[0, 1, 0, 0, 0, 0, 0, 0, 0, 0, 0, 0, 0, 0\n 0, 0, 0, 0, 0, 0, 0, 0, 0, 0]\n[0, 0, 0, 0, 0, 0, 0, 0, 0, 0, 0, 0, 0, 0\n 0, 0, 0, 0, 1, 0, 0, 0, 0, 0]\n[1, 0, 0, 0, 0, 0, 0, 0, 0, 0, 0, 0, 0, 0\n 0, 0, 0, 0, 0, 0, 0, 0, 0, 0]]"] ;
95 -> 96 ;
97 [label="gini = 0.0\nsamples = 1\nvalue = [[0, 1, 0, 0, 0, 0, 0, 0, 0, 0, 0, 0, 0, 0\n 0, 0, 0, 0, 0, 0, 0, 0, 0, 0]\n[0, 0, 0, 0, 1, 0, 0, 0, 0, 0, 0, 0, 0, 0\n 0, 0, 0, 0, 0, 0, 0, 0, 0, 0]\n[1, 0, 0, 0, 0, 0, 0, 0, 0, 0, 0, 0, 0, 0\n 0, 0, 0, 0, 0, 0, 0, 0, 0, 0]\n[0, 1, 0, 0, 0, 0, 0, 0, 0, 0, 0, 0, 0, 0\n 0, 0, 0, 0, 0, 0, 0, 0, 0, 0]\n[0, 1, 0, 0, 0, 0, 0, 0, 0, 0, 0, 0, 0, 0\n 0, 0, 0, 0, 0, 0, 0, 0, 0, 0]\n[0, 0, 0, 0, 0, 0, 0, 0, 0, 0, 0, 1, 0, 0\n 0, 0, 0, 0, 0, 0, 0, 0, 0, 0]\n[1, 0, 0, 0, 0, 0, 0, 0, 0, 0, 0, 0, 0, 0\n 0, 0, 0, 0, 0, 0, 0, 0, 0, 0]]"] ;
95 -> 97 ;
98 [label="X[8] <= 5110.961\ngini = 0.127\nsamples = 3\nvalue = [[0, 3, 0, 0, 0, 0, 0, 0, 0, 0, 0, 0, 0, 0\n 0, 0, 0, 0, 0, 0, 0, 0, 0, 0]\n[0, 0, 1, 0, 0, 0, 0, 2, 0, 0, 0, 0, 0, 0\n 0, 0, 0, 0, 0, 0, 0, 0, 0, 0]\n[3, 0, 0, 0, 0, 0, 0, 0, 0, 0, 0, 0, 0, 0\n 0, 0, 0, 0, 0, 0, 0, 0, 0, 0]\n[0, 3, 0, 0, 0, 0, 0, 0, 0, 0, 0, 0, 0, 0\n 0, 0, 0, 0, 0, 0, 0, 0, 0, 0]\n[0, 3, 0, 0, 0, 0, 0, 0, 0, 0, 0, 0, 0, 0\n 0, 0, 0, 0, 0, 0, 0, 0, 0, 0]\n[0, 0, 0, 0, 0, 0, 0, 0, 0, 0, 0, 1, 0, 0\n 0, 0, 2, 0, 0, 0, 0, 0, 0, 0]\n[3, 0, 0, 0, 0, 0, 0, 0, 0, 0, 0, 0, 0, 0\n 0, 0, 0, 0, 0, 0, 0, 0, 0, 0]]"] ;
94 -> 98 ;
99 [label="gini = 0.0\nsamples = 1\nvalue = [[0, 1, 0, 0, 0, 0, 0, 0, 0, 0, 0, 0, 0, 0\n 0, 0, 0, 0, 0, 0, 0, 0, 0, 0]\n[0, 0, 1, 0, 0, 0, 0, 0, 0, 0, 0, 0, 0, 0\n 0, 0, 0, 0, 0, 0, 0, 0, 0, 0]\n[1, 0, 0, 0, 0, 0, 0, 0, 0, 0, 0, 0, 0, 0\n 0, 0, 0, 0, 0, 0, 0, 0, 0, 0]\n[0, 1, 0, 0, 0, 0, 0, 0, 0, 0, 0, 0, 0, 0\n 0, 0, 0, 0, 0, 0, 0, 0, 0, 0]\n[0, 1, 0, 0, 0, 0, 0, 0, 0, 0, 0, 0, 0, 0\n 0, 0, 0, 0, 0, 0, 0, 0, 0, 0]\n[0, 0, 0, 0, 0, 0, 0, 0, 0, 0, 0, 0, 0, 0\n 0, 0, 1, 0, 0, 0, 0, 0, 0, 0]\n[1, 0, 0, 0, 0, 0, 0, 0, 0, 0, 0, 0, 0, 0\n 0, 0, 0, 0, 0, 0, 0, 0, 0, 0]]"] ;
98 -> 99 ;
100 [label="X[0] <= 2.547\ngini = 0.071\nsamples = 2\nvalue = [[0, 2, 0, 0, 0, 0, 0, 0, 0, 0, 0, 0, 0, 0\n 0, 0, 0, 0, 0, 0, 0, 0, 0, 0]\n[0, 0, 0, 0, 0, 0, 0, 2, 0, 0, 0, 0, 0, 0\n 0, 0, 0, 0, 0, 0, 0, 0, 0, 0]\n[2, 0, 0, 0, 0, 0, 0, 0, 0, 0, 0, 0, 0, 0\n 0, 0, 0, 0, 0, 0, 0, 0, 0, 0]\n[0, 2, 0, 0, 0, 0, 0, 0, 0, 0, 0, 0, 0, 0\n 0, 0, 0, 0, 0, 0, 0, 0, 0, 0]\n[0, 2, 0, 0, 0, 0, 0, 0, 0, 0, 0, 0, 0, 0\n 0, 0, 0, 0, 0, 0, 0, 0, 0, 0]\n[0, 0, 0, 0, 0, 0, 0, 0, 0, 0, 0, 1, 0, 0\n 0, 0, 1, 0, 0, 0, 0, 0, 0, 0]\n[2, 0, 0, 0, 0, 0, 0, 0, 0, 0, 0, 0, 0, 0\n 0, 0, 0, 0, 0, 0, 0, 0, 0, 0]]"] ;
98 -> 100 ;
101 [label="gini = 0.0\nsamples = 1\nvalue = [[0, 1, 0, 0, 0, 0, 0, 0, 0, 0, 0, 0, 0, 0\n 0, 0, 0, 0, 0, 0, 0, 0, 0, 0]\n[0, 0, 0, 0, 0, 0, 0, 1, 0, 0, 0, 0, 0, 0\n 0, 0, 0, 0, 0, 0, 0, 0, 0, 0]\n[1, 0, 0, 0, 0, 0, 0, 0, 0, 0, 0, 0, 0, 0\n 0, 0, 0, 0, 0, 0, 0, 0, 0, 0]\n[0, 1, 0, 0, 0, 0, 0, 0, 0, 0, 0, 0, 0, 0\n 0, 0, 0, 0, 0, 0, 0, 0, 0, 0]\n[0, 1, 0, 0, 0, 0, 0, 0, 0, 0, 0, 0, 0, 0\n 0, 0, 0, 0, 0, 0, 0, 0, 0, 0]\n[0, 0, 0, 0, 0, 0, 0, 0, 0, 0, 0, 0, 0, 0\n 0, 0, 1, 0, 0, 0, 0, 0, 0, 0]\n[1, 0, 0, 0, 0, 0, 0, 0, 0, 0, 0, 0, 0, 0\n 0, 0, 0, 0, 0, 0, 0, 0, 0, 0]]"] ;
100 -> 101 ;
102 [label="gini = 0.0\nsamples = 1\nvalue = [[0, 1, 0, 0, 0, 0, 0, 0, 0, 0, 0, 0, 0, 0\n 0, 0, 0, 0, 0, 0, 0, 0, 0, 0]\n[0, 0, 0, 0, 0, 0, 0, 1, 0, 0, 0, 0, 0, 0\n 0, 0, 0, 0, 0, 0, 0, 0, 0, 0]\n[1, 0, 0, 0, 0, 0, 0, 0, 0, 0, 0, 0, 0, 0\n 0, 0, 0, 0, 0, 0, 0, 0, 0, 0]\n[0, 1, 0, 0, 0, 0, 0, 0, 0, 0, 0, 0, 0, 0\n 0, 0, 0, 0, 0, 0, 0, 0, 0, 0]\n[0, 1, 0, 0, 0, 0, 0, 0, 0, 0, 0, 0, 0, 0\n 0, 0, 0, 0, 0, 0, 0, 0, 0, 0]\n[0, 0, 0, 0, 0, 0, 0, 0, 0, 0, 0, 1, 0, 0\n 0, 0, 0, 0, 0, 0, 0, 0, 0, 0]\n[1, 0, 0, 0, 0, 0, 0, 0, 0, 0, 0, 0, 0, 0\n 0, 0, 0, 0, 0, 0, 0, 0, 0, 0]]"] ;
100 -> 102 ;
103 [label="X[3] <= 186.76\ngini = 0.143\nsamples = 2\nvalue = [[0, 2, 0, 0, 0, 0, 0, 0, 0, 0, 0, 0, 0, 0\n 0, 0, 0, 0, 0, 0, 0, 0, 0, 0]\n[2, 0, 0, 0, 0, 0, 0, 0, 0, 0, 0, 0, 0, 0\n 0, 0, 0, 0, 0, 0, 0, 0, 0, 0]\n[2, 0, 0, 0, 0, 0, 0, 0, 0, 0, 0, 0, 0, 0\n 0, 0, 0, 0, 0, 0, 0, 0, 0, 0]\n[0, 2, 0, 0, 0, 0, 0, 0, 0, 0, 0, 0, 0, 0\n 0, 0, 0, 0, 0, 0, 0, 0, 0, 0]\n[1, 1, 0, 0, 0, 0, 0, 0, 0, 0, 0, 0, 0, 0\n 0, 0, 0, 0, 0, 0, 0, 0, 0, 0]\n[0, 0, 0, 0, 0, 1, 0, 0, 0, 0, 0, 0, 1, 0\n 0, 0, 0, 0, 0, 0, 0, 0, 0, 0]\n[2, 0, 0, 0, 0, 0, 0, 0, 0, 0, 0, 0, 0, 0\n 0, 0, 0, 0, 0, 0, 0, 0, 0, 0]]"] ;
93 -> 103 ;
104 [label="gini = 0.0\nsamples = 1\nvalue = [[0, 1, 0, 0, 0, 0, 0, 0, 0, 0, 0, 0, 0, 0\n 0, 0, 0, 0, 0, 0, 0, 0, 0, 0]\n[1, 0, 0, 0, 0, 0, 0, 0, 0, 0, 0, 0, 0, 0\n 0, 0, 0, 0, 0, 0, 0, 0, 0, 0]\n[1, 0, 0, 0, 0, 0, 0, 0, 0, 0, 0, 0, 0, 0\n 0, 0, 0, 0, 0, 0, 0, 0, 0, 0]\n[0, 1, 0, 0, 0, 0, 0, 0, 0, 0, 0, 0, 0, 0\n 0, 0, 0, 0, 0, 0, 0, 0, 0, 0]\n[1, 0, 0, 0, 0, 0, 0, 0, 0, 0, 0, 0, 0, 0\n 0, 0, 0, 0, 0, 0, 0, 0, 0, 0]\n[0, 0, 0, 0, 0, 1, 0, 0, 0, 0, 0, 0, 0, 0\n 0, 0, 0, 0, 0, 0, 0, 0, 0, 0]\n[1, 0, 0, 0, 0, 0, 0, 0, 0, 0, 0, 0, 0, 0\n 0, 0, 0, 0, 0, 0, 0, 0, 0, 0]]"] ;
103 -> 104 ;
105 [label="gini = 0.0\nsamples = 1\nvalue = [[0, 1, 0, 0, 0, 0, 0, 0, 0, 0, 0, 0, 0, 0\n 0, 0, 0, 0, 0, 0, 0, 0, 0, 0]\n[1, 0, 0, 0, 0, 0, 0, 0, 0, 0, 0, 0, 0, 0\n 0, 0, 0, 0, 0, 0, 0, 0, 0, 0]\n[1, 0, 0, 0, 0, 0, 0, 0, 0, 0, 0, 0, 0, 0\n 0, 0, 0, 0, 0, 0, 0, 0, 0, 0]\n[0, 1, 0, 0, 0, 0, 0, 0, 0, 0, 0, 0, 0, 0\n 0, 0, 0, 0, 0, 0, 0, 0, 0, 0]\n[0, 1, 0, 0, 0, 0, 0, 0, 0, 0, 0, 0, 0, 0\n 0, 0, 0, 0, 0, 0, 0, 0, 0, 0]\n[0, 0, 0, 0, 0, 0, 0, 0, 0, 0, 0, 0, 1, 0\n 0, 0, 0, 0, 0, 0, 0, 0, 0, 0]\n[1, 0, 0, 0, 0, 0, 0, 0, 0, 0, 0, 0, 0, 0\n 0, 0, 0, 0, 0, 0, 0, 0, 0, 0]]"] ;
103 -> 105 ;
106 [label="X[12] <= -0.677\ngini = 0.444\nsamples = 66\nvalue = [[0, 66, 0, 0, 0, 0, 0, 0, 0, 0, 0, 0, 0, 0\n 0, 0, 0, 0, 0, 0, 0, 0, 0, 0]\n[1, 25, 5, 2, 2, 13, 13, 5, 0, 0, 0, 0, 0\n 0, 0, 0, 0, 0, 0, 0, 0, 0, 0, 0]\n[49, 17, 0, 0, 0, 0, 0, 0, 0, 0, 0, 0, 0, 0\n 0, 0, 0, 0, 0, 0, 0, 0, 0, 0]\n[35, 31, 0, 0, 0, 0, 0, 0, 0, 0, 0, 0, 0, 0\n 0, 0, 0, 0, 0, 0, 0, 0, 0, 0]\n[43, 23, 0, 0, 0, 0, 0, 0, 0, 0, 0, 0, 0, 0\n 0, 0, 0, 0, 0, 0, 0, 0, 0, 0]\n[0, 0, 0, 3, 0, 4, 0, 3, 0, 8, 0, 3, 13, 0\n 5, 2, 7, 0, 2, 0, 5, 0, 9, 2]\n[62, 4, 0, 0, 0, 0, 0, 0, 0, 0, 0, 0, 0, 0\n 0, 0, 0, 0, 0, 0, 0, 0, 0, 0]]"] ;
4 -> 106 ;
107 [label="X[8] <= 5456.234\ngini = 0.391\nsamples = 14\nvalue = [[0, 14, 0, 0, 0, 0, 0, 0, 0, 0, 0, 0, 0, 0\n 0, 0, 0, 0, 0, 0, 0, 0, 0, 0]\n[0, 11, 0, 0, 0, 0, 2, 1, 0, 0, 0, 0, 0, 0\n 0, 0, 0, 0, 0, 0, 0, 0, 0, 0]\n[7, 7, 0, 0, 0, 0, 0, 0, 0, 0, 0, 0, 0, 0\n 0, 0, 0, 0, 0, 0, 0, 0, 0, 0]\n[4, 10, 0, 0, 0, 0, 0, 0, 0, 0, 0, 0, 0, 0\n 0, 0, 0, 0, 0, 0, 0, 0, 0, 0]\n[5, 9, 0, 0, 0, 0, 0, 0, 0, 0, 0, 0, 0, 0\n 0, 0, 0, 0, 0, 0, 0, 0, 0, 0]\n[0, 0, 0, 3, 0, 0, 0, 0, 0, 4, 0, 0, 0, 0\n 1, 0, 0, 0, 0, 0, 0, 0, 4, 2]\n[12, 2, 0, 0, 0, 0, 0, 0, 0, 0, 0, 0, 0, 0\n 0, 0, 0, 0, 0, 0, 0, 0, 0, 0]]"] ;
106 -> 107 ;
108 [label="X[5] <= 174.169\ngini = 0.214\nsamples = 2\nvalue = [[0, 2, 0, 0, 0, 0, 0, 0, 0, 0, 0, 0, 0, 0\n 0, 0, 0, 0, 0, 0, 0, 0, 0, 0]\n[0, 0, 0, 0, 0, 0, 1, 1, 0, 0, 0, 0, 0, 0\n 0, 0, 0, 0, 0, 0, 0, 0, 0, 0]\n[1, 1, 0, 0, 0, 0, 0, 0, 0, 0, 0, 0, 0, 0\n 0, 0, 0, 0, 0, 0, 0, 0, 0, 0]\n[1, 1, 0, 0, 0, 0, 0, 0, 0, 0, 0, 0, 0, 0\n 0, 0, 0, 0, 0, 0, 0, 0, 0, 0]\n[0, 2, 0, 0, 0, 0, 0, 0, 0, 0, 0, 0, 0, 0\n 0, 0, 0, 0, 0, 0, 0, 0, 0, 0]\n[0, 0, 0, 0, 0, 0, 0, 0, 0, 0, 0, 0, 0, 0\n 0, 0, 0, 0, 0, 0, 0, 0, 0, 2]\n[0, 2, 0, 0, 0, 0, 0, 0, 0, 0, 0, 0, 0, 0\n 0, 0, 0, 0, 0, 0, 0, 0, 0, 0]]"] ;
107 -> 108 ;
109 [label="gini = 0.0\nsamples = 1\nvalue = [[0, 1, 0, 0, 0, 0, 0, 0, 0, 0, 0, 0, 0, 0\n 0, 0, 0, 0, 0, 0, 0, 0, 0, 0]\n[0, 0, 0, 0, 0, 0, 1, 0, 0, 0, 0, 0, 0, 0\n 0, 0, 0, 0, 0, 0, 0, 0, 0, 0]\n[0, 1, 0, 0, 0, 0, 0, 0, 0, 0, 0, 0, 0, 0\n 0, 0, 0, 0, 0, 0, 0, 0, 0, 0]\n[1, 0, 0, 0, 0, 0, 0, 0, 0, 0, 0, 0, 0, 0\n 0, 0, 0, 0, 0, 0, 0, 0, 0, 0]\n[0, 1, 0, 0, 0, 0, 0, 0, 0, 0, 0, 0, 0, 0\n 0, 0, 0, 0, 0, 0, 0, 0, 0, 0]\n[0, 0, 0, 0, 0, 0, 0, 0, 0, 0, 0, 0, 0, 0\n 0, 0, 0, 0, 0, 0, 0, 0, 0, 1]\n[0, 1, 0, 0, 0, 0, 0, 0, 0, 0, 0, 0, 0, 0\n 0, 0, 0, 0, 0, 0, 0, 0, 0, 0]]"] ;
108 -> 109 ;
110 [label="gini = 0.0\nsamples = 1\nvalue = [[0, 1, 0, 0, 0, 0, 0, 0, 0, 0, 0, 0, 0, 0\n 0, 0, 0, 0, 0, 0, 0, 0, 0, 0]\n[0, 0, 0, 0, 0, 0, 0, 1, 0, 0, 0, 0, 0, 0\n 0, 0, 0, 0, 0, 0, 0, 0, 0, 0]\n[1, 0, 0, 0, 0, 0, 0, 0, 0, 0, 0, 0, 0, 0\n 0, 0, 0, 0, 0, 0, 0, 0, 0, 0]\n[0, 1, 0, 0, 0, 0, 0, 0, 0, 0, 0, 0, 0, 0\n 0, 0, 0, 0, 0, 0, 0, 0, 0, 0]\n[0, 1, 0, 0, 0, 0, 0, 0, 0, 0, 0, 0, 0, 0\n 0, 0, 0, 0, 0, 0, 0, 0, 0, 0]\n[0, 0, 0, 0, 0, 0, 0, 0, 0, 0, 0, 0, 0, 0\n 0, 0, 0, 0, 0, 0, 0, 0, 0, 1]\n[0, 1, 0, 0, 0, 0, 0, 0, 0, 0, 0, 0, 0, 0\n 0, 0, 0, 0, 0, 0, 0, 0, 0, 0]]"] ;
108 -> 110 ;
111 [label="X[14] <= 0.541\ngini = 0.317\nsamples = 12\nvalue = [[0, 12, 0, 0, 0, 0, 0, 0, 0, 0, 0, 0, 0, 0\n 0, 0, 0, 0, 0, 0, 0, 0, 0, 0]\n[0, 11, 0, 0, 0, 0, 1, 0, 0, 0, 0, 0, 0, 0\n 0, 0, 0, 0, 0, 0, 0, 0, 0, 0]\n[6, 6, 0, 0, 0, 0, 0, 0, 0, 0, 0, 0, 0, 0\n 0, 0, 0, 0, 0, 0, 0, 0, 0, 0]\n[3, 9, 0, 0, 0, 0, 0, 0, 0, 0, 0, 0, 0, 0\n 0, 0, 0, 0, 0, 0, 0, 0, 0, 0]\n[5, 7, 0, 0, 0, 0, 0, 0, 0, 0, 0, 0, 0, 0\n 0, 0, 0, 0, 0, 0, 0, 0, 0, 0]\n[0, 0, 0, 3, 0, 0, 0, 0, 0, 4, 0, 0, 0, 0\n 1, 0, 0, 0, 0, 0, 0, 0, 4, 0]\n[12, 0, 0, 0, 0, 0, 0, 0, 0, 0, 0, 0, 0, 0\n 0, 0, 0, 0, 0, 0, 0, 0, 0, 0]]"] ;
107 -> 111 ;
112 [label="X[3] <= 200.006\ngini = 0.161\nsamples = 4\nvalue = [[0, 4, 0, 0, 0, 0, 0, 0, 0, 0, 0, 0, 0, 0\n 0, 0, 0, 0, 0, 0, 0, 0, 0, 0]\n[0, 4, 0, 0, 0, 0, 0, 0, 0, 0, 0, 0, 0, 0\n 0, 0, 0, 0, 0, 0, 0, 0, 0, 0]\n[3, 1, 0, 0, 0, 0, 0, 0, 0, 0, 0, 0, 0, 0\n 0, 0, 0, 0, 0, 0, 0, 0, 0, 0]\n[0, 4, 0, 0, 0, 0, 0, 0, 0, 0, 0, 0, 0, 0\n 0, 0, 0, 0, 0, 0, 0, 0, 0, 0]\n[3, 1, 0, 0, 0, 0, 0, 0, 0, 0, 0, 0, 0, 0\n 0, 0, 0, 0, 0, 0, 0, 0, 0, 0]\n[0, 0, 0, 3, 0, 0, 0, 0, 0, 1, 0, 0, 0, 0\n 0, 0, 0, 0, 0, 0, 0, 0, 0, 0]\n[4, 0, 0, 0, 0, 0, 0, 0, 0, 0, 0, 0, 0, 0\n 0, 0, 0, 0, 0, 0, 0, 0, 0, 0]]"] ;
111 -> 112 ;
113 [label="gini = 0.0\nsamples = 1\nvalue = [[0, 1, 0, 0, 0, 0, 0, 0, 0, 0, 0, 0, 0, 0\n 0, 0, 0, 0, 0, 0, 0, 0, 0, 0]\n[0, 1, 0, 0, 0, 0, 0, 0, 0, 0, 0, 0, 0, 0\n 0, 0, 0, 0, 0, 0, 0, 0, 0, 0]\n[1, 0, 0, 0, 0, 0, 0, 0, 0, 0, 0, 0, 0, 0\n 0, 0, 0, 0, 0, 0, 0, 0, 0, 0]\n[0, 1, 0, 0, 0, 0, 0, 0, 0, 0, 0, 0, 0, 0\n 0, 0, 0, 0, 0, 0, 0, 0, 0, 0]\n[0, 1, 0, 0, 0, 0, 0, 0, 0, 0, 0, 0, 0, 0\n 0, 0, 0, 0, 0, 0, 0, 0, 0, 0]\n[0, 0, 0, 1, 0, 0, 0, 0, 0, 0, 0, 0, 0, 0\n 0, 0, 0, 0, 0, 0, 0, 0, 0, 0]\n[1, 0, 0, 0, 0, 0, 0, 0, 0, 0, 0, 0, 0, 0\n 0, 0, 0, 0, 0, 0, 0, 0, 0, 0]]"] ;
112 -> 113 ;
114 [label="X[8] <= 5887.271\ngini = 0.127\nsamples = 3\nvalue = [[0, 3, 0, 0, 0, 0, 0, 0, 0, 0, 0, 0, 0, 0\n 0, 0, 0, 0, 0, 0, 0, 0, 0, 0]\n[0, 3, 0, 0, 0, 0, 0, 0, 0, 0, 0, 0, 0, 0\n 0, 0, 0, 0, 0, 0, 0, 0, 0, 0]\n[2, 1, 0, 0, 0, 0, 0, 0, 0, 0, 0, 0, 0, 0\n 0, 0, 0, 0, 0, 0, 0, 0, 0, 0]\n[0, 3, 0, 0, 0, 0, 0, 0, 0, 0, 0, 0, 0, 0\n 0, 0, 0, 0, 0, 0, 0, 0, 0, 0]\n[3, 0, 0, 0, 0, 0, 0, 0, 0, 0, 0, 0, 0, 0\n 0, 0, 0, 0, 0, 0, 0, 0, 0, 0]\n[0, 0, 0, 2, 0, 0, 0, 0, 0, 1, 0, 0, 0, 0\n 0, 0, 0, 0, 0, 0, 0, 0, 0, 0]\n[3, 0, 0, 0, 0, 0, 0, 0, 0, 0, 0, 0, 0, 0\n 0, 0, 0, 0, 0, 0, 0, 0, 0, 0]]"] ;
112 -> 114 ;
115 [label="gini = 0.0\nsamples = 1\nvalue = [[0, 1, 0, 0, 0, 0, 0, 0, 0, 0, 0, 0, 0, 0\n 0, 0, 0, 0, 0, 0, 0, 0, 0, 0]\n[0, 1, 0, 0, 0, 0, 0, 0, 0, 0, 0, 0, 0, 0\n 0, 0, 0, 0, 0, 0, 0, 0, 0, 0]\n[0, 1, 0, 0, 0, 0, 0, 0, 0, 0, 0, 0, 0, 0\n 0, 0, 0, 0, 0, 0, 0, 0, 0, 0]\n[0, 1, 0, 0, 0, 0, 0, 0, 0, 0, 0, 0, 0, 0\n 0, 0, 0, 0, 0, 0, 0, 0, 0, 0]\n[1, 0, 0, 0, 0, 0, 0, 0, 0, 0, 0, 0, 0, 0\n 0, 0, 0, 0, 0, 0, 0, 0, 0, 0]\n[0, 0, 0, 1, 0, 0, 0, 0, 0, 0, 0, 0, 0, 0\n 0, 0, 0, 0, 0, 0, 0, 0, 0, 0]\n[1, 0, 0, 0, 0, 0, 0, 0, 0, 0, 0, 0, 0, 0\n 0, 0, 0, 0, 0, 0, 0, 0, 0, 0]]"] ;
114 -> 115 ;
116 [label="X[1] <= 3670.5\ngini = 0.071\nsamples = 2\nvalue = [[0, 2, 0, 0, 0, 0, 0, 0, 0, 0, 0, 0, 0, 0\n 0, 0, 0, 0, 0, 0, 0, 0, 0, 0]\n[0, 2, 0, 0, 0, 0, 0, 0, 0, 0, 0, 0, 0, 0\n 0, 0, 0, 0, 0, 0, 0, 0, 0, 0]\n[2, 0, 0, 0, 0, 0, 0, 0, 0, 0, 0, 0, 0, 0\n 0, 0, 0, 0, 0, 0, 0, 0, 0, 0]\n[0, 2, 0, 0, 0, 0, 0, 0, 0, 0, 0, 0, 0, 0\n 0, 0, 0, 0, 0, 0, 0, 0, 0, 0]\n[2, 0, 0, 0, 0, 0, 0, 0, 0, 0, 0, 0, 0, 0\n 0, 0, 0, 0, 0, 0, 0, 0, 0, 0]\n[0, 0, 0, 1, 0, 0, 0, 0, 0, 1, 0, 0, 0, 0\n 0, 0, 0, 0, 0, 0, 0, 0, 0, 0]\n[2, 0, 0, 0, 0, 0, 0, 0, 0, 0, 0, 0, 0, 0\n 0, 0, 0, 0, 0, 0, 0, 0, 0, 0]]"] ;
114 -> 116 ;
117 [label="gini = 0.0\nsamples = 1\nvalue = [[0, 1, 0, 0, 0, 0, 0, 0, 0, 0, 0, 0, 0, 0\n 0, 0, 0, 0, 0, 0, 0, 0, 0, 0]\n[0, 1, 0, 0, 0, 0, 0, 0, 0, 0, 0, 0, 0, 0\n 0, 0, 0, 0, 0, 0, 0, 0, 0, 0]\n[1, 0, 0, 0, 0, 0, 0, 0, 0, 0, 0, 0, 0, 0\n 0, 0, 0, 0, 0, 0, 0, 0, 0, 0]\n[0, 1, 0, 0, 0, 0, 0, 0, 0, 0, 0, 0, 0, 0\n 0, 0, 0, 0, 0, 0, 0, 0, 0, 0]\n[1, 0, 0, 0, 0, 0, 0, 0, 0, 0, 0, 0, 0, 0\n 0, 0, 0, 0, 0, 0, 0, 0, 0, 0]\n[0, 0, 0, 0, 0, 0, 0, 0, 0, 1, 0, 0, 0, 0\n 0, 0, 0, 0, 0, 0, 0, 0, 0, 0]\n[1, 0, 0, 0, 0, 0, 0, 0, 0, 0, 0, 0, 0, 0\n 0, 0, 0, 0, 0, 0, 0, 0, 0, 0]]"] ;
116 -> 117 ;
118 [label="gini = 0.0\nsamples = 1\nvalue = [[0, 1, 0, 0, 0, 0, 0, 0, 0, 0, 0, 0, 0, 0\n 0, 0, 0, 0, 0, 0, 0, 0, 0, 0]\n[0, 1, 0, 0, 0, 0, 0, 0, 0, 0, 0, 0, 0, 0\n 0, 0, 0, 0, 0, 0, 0, 0, 0, 0]\n[1, 0, 0, 0, 0, 0, 0, 0, 0, 0, 0, 0, 0, 0\n 0, 0, 0, 0, 0, 0, 0, 0, 0, 0]\n[0, 1, 0, 0, 0, 0, 0, 0, 0, 0, 0, 0, 0, 0\n 0, 0, 0, 0, 0, 0, 0, 0, 0, 0]\n[1, 0, 0, 0, 0, 0, 0, 0, 0, 0, 0, 0, 0, 0\n 0, 0, 0, 0, 0, 0, 0, 0, 0, 0]\n[0, 0, 0, 1, 0, 0, 0, 0, 0, 0, 0, 0, 0, 0\n 0, 0, 0, 0, 0, 0, 0, 0, 0, 0]\n[1, 0, 0, 0, 0, 0, 0, 0, 0, 0, 0, 0, 0, 0\n 0, 0, 0, 0, 0, 0, 0, 0, 0, 0]]"] ;
116 -> 118 ;
119 [label="X[10] <= -0.03\ngini = 0.304\nsamples = 8\nvalue = [[0, 8, 0, 0, 0, 0, 0, 0, 0, 0, 0, 0, 0, 0\n 0, 0, 0, 0, 0, 0, 0, 0, 0, 0]\n[0, 7, 0, 0, 0, 0, 1, 0, 0, 0, 0, 0, 0, 0\n 0, 0, 0, 0, 0, 0, 0, 0, 0, 0]\n[3, 5, 0, 0, 0, 0, 0, 0, 0, 0, 0, 0, 0, 0\n 0, 0, 0, 0, 0, 0, 0, 0, 0, 0]\n[3, 5, 0, 0, 0, 0, 0, 0, 0, 0, 0, 0, 0, 0\n 0, 0, 0, 0, 0, 0, 0, 0, 0, 0]\n[2, 6, 0, 0, 0, 0, 0, 0, 0, 0, 0, 0, 0, 0\n 0, 0, 0, 0, 0, 0, 0, 0, 0, 0]\n[0, 0, 0, 0, 0, 0, 0, 0, 0, 3, 0, 0, 0, 0\n 1, 0, 0, 0, 0, 0, 0, 0, 4, 0]\n[8, 0, 0, 0, 0, 0, 0, 0, 0, 0, 0, 0, 0, 0\n 0, 0, 0, 0, 0, 0, 0, 0, 0, 0]]"] ;
111 -> 119 ;
120 [label="X[13] <= -1.301\ngini = 0.127\nsamples = 3\nvalue = [[0, 3, 0, 0, 0, 0, 0, 0, 0, 0, 0, 0, 0, 0\n 0, 0, 0, 0, 0, 0, 0, 0, 0, 0]\n[0, 2, 0, 0, 0, 0, 1, 0, 0, 0, 0, 0, 0, 0\n 0, 0, 0, 0, 0, 0, 0, 0, 0, 0]\n[2, 1, 0, 0, 0, 0, 0, 0, 0, 0, 0, 0, 0, 0\n 0, 0, 0, 0, 0, 0, 0, 0, 0, 0]\n[0, 3, 0, 0, 0, 0, 0, 0, 0, 0, 0, 0, 0, 0\n 0, 0, 0, 0, 0, 0, 0, 0, 0, 0]\n[0, 3, 0, 0, 0, 0, 0, 0, 0, 0, 0, 0, 0, 0\n 0, 0, 0, 0, 0, 0, 0, 0, 0, 0]\n[0, 0, 0, 0, 0, 0, 0, 0, 0, 0, 0, 0, 0, 0\n 0, 0, 0, 0, 0, 0, 0, 0, 3, 0]\n[3, 0, 0, 0, 0, 0, 0, 0, 0, 0, 0, 0, 0, 0\n 0, 0, 0, 0, 0, 0, 0, 0, 0, 0]]"] ;
119 -> 120 ;
121 [label="gini = 0.0\nsamples = 1\nvalue = [[0, 1, 0, 0, 0, 0, 0, 0, 0, 0, 0, 0, 0, 0\n 0, 0, 0, 0, 0, 0, 0, 0, 0, 0]\n[0, 1, 0, 0, 0, 0, 0, 0, 0, 0, 0, 0, 0, 0\n 0, 0, 0, 0, 0, 0, 0, 0, 0, 0]\n[0, 1, 0, 0, 0, 0, 0, 0, 0, 0, 0, 0, 0, 0\n 0, 0, 0, 0, 0, 0, 0, 0, 0, 0]\n[0, 1, 0, 0, 0, 0, 0, 0, 0, 0, 0, 0, 0, 0\n 0, 0, 0, 0, 0, 0, 0, 0, 0, 0]\n[0, 1, 0, 0, 0, 0, 0, 0, 0, 0, 0, 0, 0, 0\n 0, 0, 0, 0, 0, 0, 0, 0, 0, 0]\n[0, 0, 0, 0, 0, 0, 0, 0, 0, 0, 0, 0, 0, 0\n 0, 0, 0, 0, 0, 0, 0, 0, 1, 0]\n[1, 0, 0, 0, 0, 0, 0, 0, 0, 0, 0, 0, 0, 0\n 0, 0, 0, 0, 0, 0, 0, 0, 0, 0]]"] ;
120 -> 121 ;
122 [label="X[10] <= -0.214\ngini = 0.071\nsamples = 2\nvalue = [[0, 2, 0, 0, 0, 0, 0, 0, 0, 0, 0, 0, 0, 0\n 0, 0, 0, 0, 0, 0, 0, 0, 0, 0]\n[0, 1, 0, 0, 0, 0, 1, 0, 0, 0, 0, 0, 0, 0\n 0, 0, 0, 0, 0, 0, 0, 0, 0, 0]\n[2, 0, 0, 0, 0, 0, 0, 0, 0, 0, 0, 0, 0, 0\n 0, 0, 0, 0, 0, 0, 0, 0, 0, 0]\n[0, 2, 0, 0, 0, 0, 0, 0, 0, 0, 0, 0, 0, 0\n 0, 0, 0, 0, 0, 0, 0, 0, 0, 0]\n[0, 2, 0, 0, 0, 0, 0, 0, 0, 0, 0, 0, 0, 0\n 0, 0, 0, 0, 0, 0, 0, 0, 0, 0]\n[0, 0, 0, 0, 0, 0, 0, 0, 0, 0, 0, 0, 0, 0\n 0, 0, 0, 0, 0, 0, 0, 0, 2, 0]\n[2, 0, 0, 0, 0, 0, 0, 0, 0, 0, 0, 0, 0, 0\n 0, 0, 0, 0, 0, 0, 0, 0, 0, 0]]"] ;
120 -> 122 ;
123 [label="gini = 0.0\nsamples = 1\nvalue = [[0, 1, 0, 0, 0, 0, 0, 0, 0, 0, 0, 0, 0, 0\n 0, 0, 0, 0, 0, 0, 0, 0, 0, 0]\n[0, 0, 0, 0, 0, 0, 1, 0, 0, 0, 0, 0, 0, 0\n 0, 0, 0, 0, 0, 0, 0, 0, 0, 0]\n[1, 0, 0, 0, 0, 0, 0, 0, 0, 0, 0, 0, 0, 0\n 0, 0, 0, 0, 0, 0, 0, 0, 0, 0]\n[0, 1, 0, 0, 0, 0, 0, 0, 0, 0, 0, 0, 0, 0\n 0, 0, 0, 0, 0, 0, 0, 0, 0, 0]\n[0, 1, 0, 0, 0, 0, 0, 0, 0, 0, 0, 0, 0, 0\n 0, 0, 0, 0, 0, 0, 0, 0, 0, 0]\n[0, 0, 0, 0, 0, 0, 0, 0, 0, 0, 0, 0, 0, 0\n 0, 0, 0, 0, 0, 0, 0, 0, 1, 0]\n[1, 0, 0, 0, 0, 0, 0, 0, 0, 0, 0, 0, 0, 0\n 0, 0, 0, 0, 0, 0, 0, 0, 0, 0]]"] ;
122 -> 123 ;
124 [label="gini = 0.0\nsamples = 1\nvalue = [[0, 1, 0, 0, 0, 0, 0, 0, 0, 0, 0, 0, 0, 0\n 0, 0, 0, 0, 0, 0, 0, 0, 0, 0]\n[0, 1, 0, 0, 0, 0, 0, 0, 0, 0, 0, 0, 0, 0\n 0, 0, 0, 0, 0, 0, 0, 0, 0, 0]\n[1, 0, 0, 0, 0, 0, 0, 0, 0, 0, 0, 0, 0, 0\n 0, 0, 0, 0, 0, 0, 0, 0, 0, 0]\n[0, 1, 0, 0, 0, 0, 0, 0, 0, 0, 0, 0, 0, 0\n 0, 0, 0, 0, 0, 0, 0, 0, 0, 0]\n[0, 1, 0, 0, 0, 0, 0, 0, 0, 0, 0, 0, 0, 0\n 0, 0, 0, 0, 0, 0, 0, 0, 0, 0]\n[0, 0, 0, 0, 0, 0, 0, 0, 0, 0, 0, 0, 0, 0\n 0, 0, 0, 0, 0, 0, 0, 0, 1, 0]\n[1, 0, 0, 0, 0, 0, 0, 0, 0, 0, 0, 0, 0, 0\n 0, 0, 0, 0, 0, 0, 0, 0, 0, 0]]"] ;
122 -> 124 ;
125 [label="X[2] <= 0.416\ngini = 0.263\nsamples = 5\nvalue = [[0, 5, 0, 0, 0, 0, 0, 0, 0, 0, 0, 0, 0, 0\n 0, 0, 0, 0, 0, 0, 0, 0, 0, 0]\n[0, 5, 0, 0, 0, 0, 0, 0, 0, 0, 0, 0, 0, 0\n 0, 0, 0, 0, 0, 0, 0, 0, 0, 0]\n[1, 4, 0, 0, 0, 0, 0, 0, 0, 0, 0, 0, 0, 0\n 0, 0, 0, 0, 0, 0, 0, 0, 0, 0]\n[3, 2, 0, 0, 0, 0, 0, 0, 0, 0, 0, 0, 0, 0\n 0, 0, 0, 0, 0, 0, 0, 0, 0, 0]\n[2, 3, 0, 0, 0, 0, 0, 0, 0, 0, 0, 0, 0, 0\n 0, 0, 0, 0, 0, 0, 0, 0, 0, 0]\n[0, 0, 0, 0, 0, 0, 0, 0, 0, 3, 0, 0, 0, 0\n 1, 0, 0, 0, 0, 0, 0, 0, 1, 0]\n[5, 0, 0, 0, 0, 0, 0, 0, 0, 0, 0, 0, 0, 0\n 0, 0, 0, 0, 0, 0, 0, 0, 0, 0]]"] ;
119 -> 125 ;
126 [label="X[4] <= -32.281\ngini = 0.071\nsamples = 2\nvalue = [[0, 2, 0, 0, 0, 0, 0, 0, 0, 0, 0, 0, 0, 0\n 0, 0, 0, 0, 0, 0, 0, 0, 0, 0]\n[0, 2, 0, 0, 0, 0, 0, 0, 0, 0, 0, 0, 0, 0\n 0, 0, 0, 0, 0, 0, 0, 0, 0, 0]\n[0, 2, 0, 0, 0, 0, 0, 0, 0, 0, 0, 0, 0, 0\n 0, 0, 0, 0, 0, 0, 0, 0, 0, 0]\n[2, 0, 0, 0, 0, 0, 0, 0, 0, 0, 0, 0, 0, 0\n 0, 0, 0, 0, 0, 0, 0, 0, 0, 0]\n[2, 0, 0, 0, 0, 0, 0, 0, 0, 0, 0, 0, 0, 0\n 0, 0, 0, 0, 0, 0, 0, 0, 0, 0]\n[0, 0, 0, 0, 0, 0, 0, 0, 0, 1, 0, 0, 0, 0\n 0, 0, 0, 0, 0, 0, 0, 0, 1, 0]\n[2, 0, 0, 0, 0, 0, 0, 0, 0, 0, 0, 0, 0, 0\n 0, 0, 0, 0, 0, 0, 0, 0, 0, 0]]"] ;
125 -> 126 ;
127 [label="gini = 0.0\nsamples = 1\nvalue = [[0, 1, 0, 0, 0, 0, 0, 0, 0, 0, 0, 0, 0, 0\n 0, 0, 0, 0, 0, 0, 0, 0, 0, 0]\n[0, 1, 0, 0, 0, 0, 0, 0, 0, 0, 0, 0, 0, 0\n 0, 0, 0, 0, 0, 0, 0, 0, 0, 0]\n[0, 1, 0, 0, 0, 0, 0, 0, 0, 0, 0, 0, 0, 0\n 0, 0, 0, 0, 0, 0, 0, 0, 0, 0]\n[1, 0, 0, 0, 0, 0, 0, 0, 0, 0, 0, 0, 0, 0\n 0, 0, 0, 0, 0, 0, 0, 0, 0, 0]\n[1, 0, 0, 0, 0, 0, 0, 0, 0, 0, 0, 0, 0, 0\n 0, 0, 0, 0, 0, 0, 0, 0, 0, 0]\n[0, 0, 0, 0, 0, 0, 0, 0, 0, 1, 0, 0, 0, 0\n 0, 0, 0, 0, 0, 0, 0, 0, 0, 0]\n[1, 0, 0, 0, 0, 0, 0, 0, 0, 0, 0, 0, 0, 0\n 0, 0, 0, 0, 0, 0, 0, 0, 0, 0]]"] ;
126 -> 127 ;
128 [label="gini = 0.0\nsamples = 1\nvalue = [[0, 1, 0, 0, 0, 0, 0, 0, 0, 0, 0, 0, 0, 0\n 0, 0, 0, 0, 0, 0, 0, 0, 0, 0]\n[0, 1, 0, 0, 0, 0, 0, 0, 0, 0, 0, 0, 0, 0\n 0, 0, 0, 0, 0, 0, 0, 0, 0, 0]\n[0, 1, 0, 0, 0, 0, 0, 0, 0, 0, 0, 0, 0, 0\n 0, 0, 0, 0, 0, 0, 0, 0, 0, 0]\n[1, 0, 0, 0, 0, 0, 0, 0, 0, 0, 0, 0, 0, 0\n 0, 0, 0, 0, 0, 0, 0, 0, 0, 0]\n[1, 0, 0, 0, 0, 0, 0, 0, 0, 0, 0, 0, 0, 0\n 0, 0, 0, 0, 0, 0, 0, 0, 0, 0]\n[0, 0, 0, 0, 0, 0, 0, 0, 0, 0, 0, 0, 0, 0\n 0, 0, 0, 0, 0, 0, 0, 0, 1, 0]\n[1, 0, 0, 0, 0, 0, 0, 0, 0, 0, 0, 0, 0, 0\n 0, 0, 0, 0, 0, 0, 0, 0, 0, 0]]"] ;
126 -> 128 ;
129 [label="X[5] <= 161.721\ngini = 0.19\nsamples = 3\nvalue = [[0, 3, 0, 0, 0, 0, 0, 0, 0, 0, 0, 0, 0, 0\n 0, 0, 0, 0, 0, 0, 0, 0, 0, 0]\n[0, 3, 0, 0, 0, 0, 0, 0, 0, 0, 0, 0, 0, 0\n 0, 0, 0, 0, 0, 0, 0, 0, 0, 0]\n[1, 2, 0, 0, 0, 0, 0, 0, 0, 0, 0, 0, 0, 0\n 0, 0, 0, 0, 0, 0, 0, 0, 0, 0]\n[1, 2, 0, 0, 0, 0, 0, 0, 0, 0, 0, 0, 0, 0\n 0, 0, 0, 0, 0, 0, 0, 0, 0, 0]\n[0, 3, 0, 0, 0, 0, 0, 0, 0, 0, 0, 0, 0, 0\n 0, 0, 0, 0, 0, 0, 0, 0, 0, 0]\n[0, 0, 0, 0, 0, 0, 0, 0, 0, 2, 0, 0, 0, 0\n 1, 0, 0, 0, 0, 0, 0, 0, 0, 0]\n[3, 0, 0, 0, 0, 0, 0, 0, 0, 0, 0, 0, 0, 0\n 0, 0, 0, 0, 0, 0, 0, 0, 0, 0]]"] ;
125 -> 129 ;
130 [label="gini = 0.0\nsamples = 1\nvalue = [[0, 1, 0, 0, 0, 0, 0, 0, 0, 0, 0, 0, 0, 0\n 0, 0, 0, 0, 0, 0, 0, 0, 0, 0]\n[0, 1, 0, 0, 0, 0, 0, 0, 0, 0, 0, 0, 0, 0\n 0, 0, 0, 0, 0, 0, 0, 0, 0, 0]\n[1, 0, 0, 0, 0, 0, 0, 0, 0, 0, 0, 0, 0, 0\n 0, 0, 0, 0, 0, 0, 0, 0, 0, 0]\n[1, 0, 0, 0, 0, 0, 0, 0, 0, 0, 0, 0, 0, 0\n 0, 0, 0, 0, 0, 0, 0, 0, 0, 0]\n[0, 1, 0, 0, 0, 0, 0, 0, 0, 0, 0, 0, 0, 0\n 0, 0, 0, 0, 0, 0, 0, 0, 0, 0]\n[0, 0, 0, 0, 0, 0, 0, 0, 0, 1, 0, 0, 0, 0\n 0, 0, 0, 0, 0, 0, 0, 0, 0, 0]\n[1, 0, 0, 0, 0, 0, 0, 0, 0, 0, 0, 0, 0, 0\n 0, 0, 0, 0, 0, 0, 0, 0, 0, 0]]"] ;
129 -> 130 ;
131 [label="X[1] <= 3720.5\ngini = 0.071\nsamples = 2\nvalue = [[0, 2, 0, 0, 0, 0, 0, 0, 0, 0, 0, 0, 0, 0\n 0, 0, 0, 0, 0, 0, 0, 0, 0, 0]\n[0, 2, 0, 0, 0, 0, 0, 0, 0, 0, 0, 0, 0, 0\n 0, 0, 0, 0, 0, 0, 0, 0, 0, 0]\n[0, 2, 0, 0, 0, 0, 0, 0, 0, 0, 0, 0, 0, 0\n 0, 0, 0, 0, 0, 0, 0, 0, 0, 0]\n[0, 2, 0, 0, 0, 0, 0, 0, 0, 0, 0, 0, 0, 0\n 0, 0, 0, 0, 0, 0, 0, 0, 0, 0]\n[0, 2, 0, 0, 0, 0, 0, 0, 0, 0, 0, 0, 0, 0\n 0, 0, 0, 0, 0, 0, 0, 0, 0, 0]\n[0, 0, 0, 0, 0, 0, 0, 0, 0, 1, 0, 0, 0, 0\n 1, 0, 0, 0, 0, 0, 0, 0, 0, 0]\n[2, 0, 0, 0, 0, 0, 0, 0, 0, 0, 0, 0, 0, 0\n 0, 0, 0, 0, 0, 0, 0, 0, 0, 0]]"] ;
129 -> 131 ;
132 [label="gini = 0.0\nsamples = 1\nvalue = [[0, 1, 0, 0, 0, 0, 0, 0, 0, 0, 0, 0, 0, 0\n 0, 0, 0, 0, 0, 0, 0, 0, 0, 0]\n[0, 1, 0, 0, 0, 0, 0, 0, 0, 0, 0, 0, 0, 0\n 0, 0, 0, 0, 0, 0, 0, 0, 0, 0]\n[0, 1, 0, 0, 0, 0, 0, 0, 0, 0, 0, 0, 0, 0\n 0, 0, 0, 0, 0, 0, 0, 0, 0, 0]\n[0, 1, 0, 0, 0, 0, 0, 0, 0, 0, 0, 0, 0, 0\n 0, 0, 0, 0, 0, 0, 0, 0, 0, 0]\n[0, 1, 0, 0, 0, 0, 0, 0, 0, 0, 0, 0, 0, 0\n 0, 0, 0, 0, 0, 0, 0, 0, 0, 0]\n[0, 0, 0, 0, 0, 0, 0, 0, 0, 1, 0, 0, 0, 0\n 0, 0, 0, 0, 0, 0, 0, 0, 0, 0]\n[1, 0, 0, 0, 0, 0, 0, 0, 0, 0, 0, 0, 0, 0\n 0, 0, 0, 0, 0, 0, 0, 0, 0, 0]]"] ;
131 -> 132 ;
133 [label="gini = 0.0\nsamples = 1\nvalue = [[0, 1, 0, 0, 0, 0, 0, 0, 0, 0, 0, 0, 0, 0\n 0, 0, 0, 0, 0, 0, 0, 0, 0, 0]\n[0, 1, 0, 0, 0, 0, 0, 0, 0, 0, 0, 0, 0, 0\n 0, 0, 0, 0, 0, 0, 0, 0, 0, 0]\n[0, 1, 0, 0, 0, 0, 0, 0, 0, 0, 0, 0, 0, 0\n 0, 0, 0, 0, 0, 0, 0, 0, 0, 0]\n[0, 1, 0, 0, 0, 0, 0, 0, 0, 0, 0, 0, 0, 0\n 0, 0, 0, 0, 0, 0, 0, 0, 0, 0]\n[0, 1, 0, 0, 0, 0, 0, 0, 0, 0, 0, 0, 0, 0\n 0, 0, 0, 0, 0, 0, 0, 0, 0, 0]\n[0, 0, 0, 0, 0, 0, 0, 0, 0, 0, 0, 0, 0, 0\n 1, 0, 0, 0, 0, 0, 0, 0, 0, 0]\n[1, 0, 0, 0, 0, 0, 0, 0, 0, 0, 0, 0, 0, 0\n 0, 0, 0, 0, 0, 0, 0, 0, 0, 0]]"] ;
131 -> 133 ;
134 [label="X[1] <= 3753.5\ngini = 0.419\nsamples = 52\nvalue = [[0, 52, 0, 0, 0, 0, 0, 0, 0, 0, 0, 0, 0, 0\n 0, 0, 0, 0, 0, 0, 0, 0, 0, 0]\n[1, 14, 5, 2, 2, 13, 11, 4, 0, 0, 0, 0, 0\n 0, 0, 0, 0, 0, 0, 0, 0, 0, 0, 0]\n[42, 10, 0, 0, 0, 0, 0, 0, 0, 0, 0, 0, 0, 0\n 0, 0, 0, 0, 0, 0, 0, 0, 0, 0]\n[31, 21, 0, 0, 0, 0, 0, 0, 0, 0, 0, 0, 0, 0\n 0, 0, 0, 0, 0, 0, 0, 0, 0, 0]\n[38, 14, 0, 0, 0, 0, 0, 0, 0, 0, 0, 0, 0, 0\n 0, 0, 0, 0, 0, 0, 0, 0, 0, 0]\n[0, 0, 0, 0, 0, 4, 0, 3, 0, 4, 0, 3, 13, 0\n 4, 2, 7, 0, 2, 0, 5, 0, 5, 0]\n[50, 2, 0, 0, 0, 0, 0, 0, 0, 0, 0, 0, 0, 0\n 0, 0, 0, 0, 0, 0, 0, 0, 0, 0]]"] ;
106 -> 134 ;
135 [label="X[12] <= 0.718\ngini = 0.394\nsamples = 37\nvalue = [[0, 37, 0, 0, 0, 0, 0, 0, 0, 0, 0, 0, 0, 0\n 0, 0, 0, 0, 0, 0, 0, 0, 0, 0]\n[1, 4, 3, 1, 2, 13, 9, 4, 0, 0, 0, 0, 0, 0\n 0, 0, 0, 0, 0, 0, 0, 0, 0, 0]\n[35, 2, 0, 0, 0, 0, 0, 0, 0, 0, 0, 0, 0, 0\n 0, 0, 0, 0, 0, 0, 0, 0, 0, 0]\n[22, 15, 0, 0, 0, 0, 0, 0, 0, 0, 0, 0, 0, 0\n 0, 0, 0, 0, 0, 0, 0, 0, 0, 0]\n[26, 11, 0, 0, 0, 0, 0, 0, 0, 0, 0, 0, 0, 0\n 0, 0, 0, 0, 0, 0, 0, 0, 0, 0]\n[0, 0, 0, 0, 0, 3, 0, 2, 0, 4, 0, 1, 9, 0\n 4, 2, 5, 0, 1, 0, 3, 0, 3, 0]\n[35, 2, 0, 0, 0, 0, 0, 0, 0, 0, 0, 0, 0, 0\n 0, 0, 0, 0, 0, 0, 0, 0, 0, 0]]"] ;
134 -> 135 ;
136 [label="X[6] <= -1.4\ngini = 0.377\nsamples = 35\nvalue = [[0, 35, 0, 0, 0, 0, 0, 0, 0, 0, 0, 0, 0, 0\n 0, 0, 0, 0, 0, 0, 0, 0, 0, 0]\n[1, 4, 3, 1, 2, 13, 7, 4, 0, 0, 0, 0, 0, 0\n 0, 0, 0, 0, 0, 0, 0, 0, 0, 0]\n[33, 2, 0, 0, 0, 0, 0, 0, 0, 0, 0, 0, 0, 0\n 0, 0, 0, 0, 0, 0, 0, 0, 0, 0]\n[21, 14, 0, 0, 0, 0, 0, 0, 0, 0, 0, 0, 0, 0\n 0, 0, 0, 0, 0, 0, 0, 0, 0, 0]\n[25, 10, 0, 0, 0, 0, 0, 0, 0, 0, 0, 0, 0, 0\n 0, 0, 0, 0, 0, 0, 0, 0, 0, 0]\n[0, 0, 0, 0, 0, 3, 0, 2, 0, 4, 0, 1, 9, 0\n 4, 0, 5, 0, 1, 0, 3, 0, 3, 0]\n[35, 0, 0, 0, 0, 0, 0, 0, 0, 0, 0, 0, 0, 0\n 0, 0, 0, 0, 0, 0, 0, 0, 0, 0]]"] ;
135 -> 136 ;
137 [label="X[14] <= 0.464\ngini = 0.328\nsamples = 23\nvalue = [[0, 23, 0, 0, 0, 0, 0, 0, 0, 0, 0, 0, 0, 0\n 0, 0, 0, 0, 0, 0, 0, 0, 0, 0]\n[1, 1, 1, 0, 1, 12, 5, 2, 0, 0, 0, 0, 0, 0\n 0, 0, 0, 0, 0, 0, 0, 0, 0, 0]\n[22, 1, 0, 0, 0, 0, 0, 0, 0, 0, 0, 0, 0, 0\n 0, 0, 0, 0, 0, 0, 0, 0, 0, 0]\n[16, 7, 0, 0, 0, 0, 0, 0, 0, 0, 0, 0, 0, 0\n 0, 0, 0, 0, 0, 0, 0, 0, 0, 0]\n[19, 4, 0, 0, 0, 0, 0, 0, 0, 0, 0, 0, 0, 0\n 0, 0, 0, 0, 0, 0, 0, 0, 0, 0]\n[0, 0, 0, 0, 0, 2, 0, 1, 0, 4, 0, 1, 6, 0\n 3, 0, 4, 0, 0, 0, 0, 0, 2, 0]\n[23, 0, 0, 0, 0, 0, 0, 0, 0, 0, 0, 0, 0, 0\n 0, 0, 0, 0, 0, 0, 0, 0, 0, 0]]"] ;
136 -> 137 ;
138 [label="X[5] <= 161.585\ngini = 0.298\nsamples = 12\nvalue = [[0, 12, 0, 0, 0, 0, 0, 0, 0, 0, 0, 0, 0, 0\n 0, 0, 0, 0, 0, 0, 0, 0, 0, 0]\n[1, 0, 1, 0, 1, 4, 4, 1, 0, 0, 0, 0, 0, 0\n 0, 0, 0, 0, 0, 0, 0, 0, 0, 0]\n[11, 1, 0, 0, 0, 0, 0, 0, 0, 0, 0, 0, 0, 0\n 0, 0, 0, 0, 0, 0, 0, 0, 0, 0]\n[10, 2, 0, 0, 0, 0, 0, 0, 0, 0, 0, 0, 0, 0\n 0, 0, 0, 0, 0, 0, 0, 0, 0, 0]\n[10, 2, 0, 0, 0, 0, 0, 0, 0, 0, 0, 0, 0, 0\n 0, 0, 0, 0, 0, 0, 0, 0, 0, 0]\n[0, 0, 0, 0, 0, 0, 0, 1, 0, 0, 0, 1, 6, 0\n 0, 0, 4, 0, 0, 0, 0, 0, 0, 0]\n[12, 0, 0, 0, 0, 0, 0, 0, 0, 0, 0, 0, 0, 0\n 0, 0, 0, 0, 0, 0, 0, 0, 0, 0]]"] ;
137 -> 138 ;
139 [label="X[12] <= 0.071\ngini = 0.278\nsamples = 6\nvalue = [[0, 6, 0, 0, 0, 0, 0, 0, 0, 0, 0, 0, 0, 0\n 0, 0, 0, 0, 0, 0, 0, 0, 0, 0]\n[0, 0, 0, 0, 1, 2, 3, 0, 0, 0, 0, 0, 0, 0\n 0, 0, 0, 0, 0, 0, 0, 0, 0, 0]\n[5, 1, 0, 0, 0, 0, 0, 0, 0, 0, 0, 0, 0, 0\n 0, 0, 0, 0, 0, 0, 0, 0, 0, 0]\n[5, 1, 0, 0, 0, 0, 0, 0, 0, 0, 0, 0, 0, 0\n 0, 0, 0, 0, 0, 0, 0, 0, 0, 0]\n[5, 1, 0, 0, 0, 0, 0, 0, 0, 0, 0, 0, 0, 0\n 0, 0, 0, 0, 0, 0, 0, 0, 0, 0]\n[0, 0, 0, 0, 0, 0, 0, 1, 0, 0, 0, 1, 0, 0\n 0, 0, 4, 0, 0, 0, 0, 0, 0, 0]\n[6, 0, 0, 0, 0, 0, 0, 0, 0, 0, 0, 0, 0, 0\n 0, 0, 0, 0, 0, 0, 0, 0, 0, 0]]"] ;
138 -> 139 ;
140 [label="X[0] <= 2.454\ngini = 0.214\nsamples = 2\nvalue = [[0, 2, 0, 0, 0, 0, 0, 0, 0, 0, 0, 0, 0, 0\n 0, 0, 0, 0, 0, 0, 0, 0, 0, 0]\n[0, 0, 0, 0, 0, 0, 2, 0, 0, 0, 0, 0, 0, 0\n 0, 0, 0, 0, 0, 0, 0, 0, 0, 0]\n[1, 1, 0, 0, 0, 0, 0, 0, 0, 0, 0, 0, 0, 0\n 0, 0, 0, 0, 0, 0, 0, 0, 0, 0]\n[2, 0, 0, 0, 0, 0, 0, 0, 0, 0, 0, 0, 0, 0\n 0, 0, 0, 0, 0, 0, 0, 0, 0, 0]\n[1, 1, 0, 0, 0, 0, 0, 0, 0, 0, 0, 0, 0, 0\n 0, 0, 0, 0, 0, 0, 0, 0, 0, 0]\n[0, 0, 0, 0, 0, 0, 0, 1, 0, 0, 0, 1, 0, 0\n 0, 0, 0, 0, 0, 0, 0, 0, 0, 0]\n[2, 0, 0, 0, 0, 0, 0, 0, 0, 0, 0, 0, 0, 0\n 0, 0, 0, 0, 0, 0, 0, 0, 0, 0]]"] ;
139 -> 140 ;
141 [label="gini = 0.0\nsamples = 1\nvalue = [[0, 1, 0, 0, 0, 0, 0, 0, 0, 0, 0, 0, 0, 0\n 0, 0, 0, 0, 0, 0, 0, 0, 0, 0]\n[0, 0, 0, 0, 0, 0, 1, 0, 0, 0, 0, 0, 0, 0\n 0, 0, 0, 0, 0, 0, 0, 0, 0, 0]\n[1, 0, 0, 0, 0, 0, 0, 0, 0, 0, 0, 0, 0, 0\n 0, 0, 0, 0, 0, 0, 0, 0, 0, 0]\n[1, 0, 0, 0, 0, 0, 0, 0, 0, 0, 0, 0, 0, 0\n 0, 0, 0, 0, 0, 0, 0, 0, 0, 0]\n[0, 1, 0, 0, 0, 0, 0, 0, 0, 0, 0, 0, 0, 0\n 0, 0, 0, 0, 0, 0, 0, 0, 0, 0]\n[0, 0, 0, 0, 0, 0, 0, 1, 0, 0, 0, 0, 0, 0\n 0, 0, 0, 0, 0, 0, 0, 0, 0, 0]\n[1, 0, 0, 0, 0, 0, 0, 0, 0, 0, 0, 0, 0, 0\n 0, 0, 0, 0, 0, 0, 0, 0, 0, 0]]"] ;
140 -> 141 ;
142 [label="gini = 0.0\nsamples = 1\nvalue = [[0, 1, 0, 0, 0, 0, 0, 0, 0, 0, 0, 0, 0, 0\n 0, 0, 0, 0, 0, 0, 0, 0, 0, 0]\n[0, 0, 0, 0, 0, 0, 1, 0, 0, 0, 0, 0, 0, 0\n 0, 0, 0, 0, 0, 0, 0, 0, 0, 0]\n[0, 1, 0, 0, 0, 0, 0, 0, 0, 0, 0, 0, 0, 0\n 0, 0, 0, 0, 0, 0, 0, 0, 0, 0]\n[1, 0, 0, 0, 0, 0, 0, 0, 0, 0, 0, 0, 0, 0\n 0, 0, 0, 0, 0, 0, 0, 0, 0, 0]\n[1, 0, 0, 0, 0, 0, 0, 0, 0, 0, 0, 0, 0, 0\n 0, 0, 0, 0, 0, 0, 0, 0, 0, 0]\n[0, 0, 0, 0, 0, 0, 0, 0, 0, 0, 0, 1, 0, 0\n 0, 0, 0, 0, 0, 0, 0, 0, 0, 0]\n[1, 0, 0, 0, 0, 0, 0, 0, 0, 0, 0, 0, 0, 0\n 0, 0, 0, 0, 0, 0, 0, 0, 0, 0]]"] ;
140 -> 142 ;
143 [label="X[10] <= 0.377\ngini = 0.143\nsamples = 4\nvalue = [[0, 4, 0, 0, 0, 0, 0, 0, 0, 0, 0, 0, 0, 0\n 0, 0, 0, 0, 0, 0, 0, 0, 0, 0]\n[0, 0, 0, 0, 1, 2, 1, 0, 0, 0, 0, 0, 0, 0\n 0, 0, 0, 0, 0, 0, 0, 0, 0, 0]\n[4, 0, 0, 0, 0, 0, 0, 0, 0, 0, 0, 0, 0, 0\n 0, 0, 0, 0, 0, 0, 0, 0, 0, 0]\n[3, 1, 0, 0, 0, 0, 0, 0, 0, 0, 0, 0, 0, 0\n 0, 0, 0, 0, 0, 0, 0, 0, 0, 0]\n[4, 0, 0, 0, 0, 0, 0, 0, 0, 0, 0, 0, 0, 0\n 0, 0, 0, 0, 0, 0, 0, 0, 0, 0]\n[0, 0, 0, 0, 0, 0, 0, 0, 0, 0, 0, 0, 0, 0\n 0, 0, 4, 0, 0, 0, 0, 0, 0, 0]\n[4, 0, 0, 0, 0, 0, 0, 0, 0, 0, 0, 0, 0, 0\n 0, 0, 0, 0, 0, 0, 0, 0, 0, 0]]"] ;
139 -> 143 ;
144 [label="X[15] <= -3.772\ngini = 0.071\nsamples = 2\nvalue = [[0, 2, 0, 0, 0, 0, 0, 0, 0, 0, 0, 0, 0, 0\n 0, 0, 0, 0, 0, 0, 0, 0, 0, 0]\n[0, 0, 0, 0, 1, 0, 1, 0, 0, 0, 0, 0, 0, 0\n 0, 0, 0, 0, 0, 0, 0, 0, 0, 0]\n[2, 0, 0, 0, 0, 0, 0, 0, 0, 0, 0, 0, 0, 0\n 0, 0, 0, 0, 0, 0, 0, 0, 0, 0]\n[2, 0, 0, 0, 0, 0, 0, 0, 0, 0, 0, 0, 0, 0\n 0, 0, 0, 0, 0, 0, 0, 0, 0, 0]\n[2, 0, 0, 0, 0, 0, 0, 0, 0, 0, 0, 0, 0, 0\n 0, 0, 0, 0, 0, 0, 0, 0, 0, 0]\n[0, 0, 0, 0, 0, 0, 0, 0, 0, 0, 0, 0, 0, 0\n 0, 0, 2, 0, 0, 0, 0, 0, 0, 0]\n[2, 0, 0, 0, 0, 0, 0, 0, 0, 0, 0, 0, 0, 0\n 0, 0, 0, 0, 0, 0, 0, 0, 0, 0]]"] ;
143 -> 144 ;
145 [label="gini = 0.0\nsamples = 1\nvalue = [[0, 1, 0, 0, 0, 0, 0, 0, 0, 0, 0, 0, 0, 0\n 0, 0, 0, 0, 0, 0, 0, 0, 0, 0]\n[0, 0, 0, 0, 0, 0, 1, 0, 0, 0, 0, 0, 0, 0\n 0, 0, 0, 0, 0, 0, 0, 0, 0, 0]\n[1, 0, 0, 0, 0, 0, 0, 0, 0, 0, 0, 0, 0, 0\n 0, 0, 0, 0, 0, 0, 0, 0, 0, 0]\n[1, 0, 0, 0, 0, 0, 0, 0, 0, 0, 0, 0, 0, 0\n 0, 0, 0, 0, 0, 0, 0, 0, 0, 0]\n[1, 0, 0, 0, 0, 0, 0, 0, 0, 0, 0, 0, 0, 0\n 0, 0, 0, 0, 0, 0, 0, 0, 0, 0]\n[0, 0, 0, 0, 0, 0, 0, 0, 0, 0, 0, 0, 0, 0\n 0, 0, 1, 0, 0, 0, 0, 0, 0, 0]\n[1, 0, 0, 0, 0, 0, 0, 0, 0, 0, 0, 0, 0, 0\n 0, 0, 0, 0, 0, 0, 0, 0, 0, 0]]"] ;
144 -> 145 ;
146 [label="gini = 0.0\nsamples = 1\nvalue = [[0, 1, 0, 0, 0, 0, 0, 0, 0, 0, 0, 0, 0, 0\n 0, 0, 0, 0, 0, 0, 0, 0, 0, 0]\n[0, 0, 0, 0, 1, 0, 0, 0, 0, 0, 0, 0, 0, 0\n 0, 0, 0, 0, 0, 0, 0, 0, 0, 0]\n[1, 0, 0, 0, 0, 0, 0, 0, 0, 0, 0, 0, 0, 0\n 0, 0, 0, 0, 0, 0, 0, 0, 0, 0]\n[1, 0, 0, 0, 0, 0, 0, 0, 0, 0, 0, 0, 0, 0\n 0, 0, 0, 0, 0, 0, 0, 0, 0, 0]\n[1, 0, 0, 0, 0, 0, 0, 0, 0, 0, 0, 0, 0, 0\n 0, 0, 0, 0, 0, 0, 0, 0, 0, 0]\n[0, 0, 0, 0, 0, 0, 0, 0, 0, 0, 0, 0, 0, 0\n 0, 0, 1, 0, 0, 0, 0, 0, 0, 0]\n[1, 0, 0, 0, 0, 0, 0, 0, 0, 0, 0, 0, 0, 0\n 0, 0, 0, 0, 0, 0, 0, 0, 0, 0]]"] ;
144 -> 146 ;
147 [label="X[15] <= -3.971\ngini = 0.071\nsamples = 2\nvalue = [[0, 2, 0, 0, 0, 0, 0, 0, 0, 0, 0, 0, 0, 0\n 0, 0, 0, 0, 0, 0, 0, 0, 0, 0]\n[0, 0, 0, 0, 0, 2, 0, 0, 0, 0, 0, 0, 0, 0\n 0, 0, 0, 0, 0, 0, 0, 0, 0, 0]\n[2, 0, 0, 0, 0, 0, 0, 0, 0, 0, 0, 0, 0, 0\n 0, 0, 0, 0, 0, 0, 0, 0, 0, 0]\n[1, 1, 0, 0, 0, 0, 0, 0, 0, 0, 0, 0, 0, 0\n 0, 0, 0, 0, 0, 0, 0, 0, 0, 0]\n[2, 0, 0, 0, 0, 0, 0, 0, 0, 0, 0, 0, 0, 0\n 0, 0, 0, 0, 0, 0, 0, 0, 0, 0]\n[0, 0, 0, 0, 0, 0, 0, 0, 0, 0, 0, 0, 0, 0\n 0, 0, 2, 0, 0, 0, 0, 0, 0, 0]\n[2, 0, 0, 0, 0, 0, 0, 0, 0, 0, 0, 0, 0, 0\n 0, 0, 0, 0, 0, 0, 0, 0, 0, 0]]"] ;
143 -> 147 ;
148 [label="gini = 0.0\nsamples = 1\nvalue = [[0, 1, 0, 0, 0, 0, 0, 0, 0, 0, 0, 0, 0, 0\n 0, 0, 0, 0, 0, 0, 0, 0, 0, 0]\n[0, 0, 0, 0, 0, 1, 0, 0, 0, 0, 0, 0, 0, 0\n 0, 0, 0, 0, 0, 0, 0, 0, 0, 0]\n[1, 0, 0, 0, 0, 0, 0, 0, 0, 0, 0, 0, 0, 0\n 0, 0, 0, 0, 0, 0, 0, 0, 0, 0]\n[0, 1, 0, 0, 0, 0, 0, 0, 0, 0, 0, 0, 0, 0\n 0, 0, 0, 0, 0, 0, 0, 0, 0, 0]\n[1, 0, 0, 0, 0, 0, 0, 0, 0, 0, 0, 0, 0, 0\n 0, 0, 0, 0, 0, 0, 0, 0, 0, 0]\n[0, 0, 0, 0, 0, 0, 0, 0, 0, 0, 0, 0, 0, 0\n 0, 0, 1, 0, 0, 0, 0, 0, 0, 0]\n[1, 0, 0, 0, 0, 0, 0, 0, 0, 0, 0, 0, 0, 0\n 0, 0, 0, 0, 0, 0, 0, 0, 0, 0]]"] ;
147 -> 148 ;
149 [label="gini = 0.0\nsamples = 1\nvalue = [[0, 1, 0, 0, 0, 0, 0, 0, 0, 0, 0, 0, 0, 0\n 0, 0, 0, 0, 0, 0, 0, 0, 0, 0]\n[0, 0, 0, 0, 0, 1, 0, 0, 0, 0, 0, 0, 0, 0\n 0, 0, 0, 0, 0, 0, 0, 0, 0, 0]\n[1, 0, 0, 0, 0, 0, 0, 0, 0, 0, 0, 0, 0, 0\n 0, 0, 0, 0, 0, 0, 0, 0, 0, 0]\n[1, 0, 0, 0, 0, 0, 0, 0, 0, 0, 0, 0, 0, 0\n 0, 0, 0, 0, 0, 0, 0, 0, 0, 0]\n[1, 0, 0, 0, 0, 0, 0, 0, 0, 0, 0, 0, 0, 0\n 0, 0, 0, 0, 0, 0, 0, 0, 0, 0]\n[0, 0, 0, 0, 0, 0, 0, 0, 0, 0, 0, 0, 0, 0\n 0, 0, 1, 0, 0, 0, 0, 0, 0, 0]\n[1, 0, 0, 0, 0, 0, 0, 0, 0, 0, 0, 0, 0, 0\n 0, 0, 0, 0, 0, 0, 0, 0, 0, 0]]"] ;
147 -> 149 ;
150 [label="X[10] <= 0.381\ngini = 0.19\nsamples = 6\nvalue = [[0, 6, 0, 0, 0, 0, 0, 0, 0, 0, 0, 0, 0, 0\n 0, 0, 0, 0, 0, 0, 0, 0, 0, 0]\n[1, 0, 1, 0, 0, 2, 1, 1, 0, 0, 0, 0, 0, 0\n 0, 0, 0, 0, 0, 0, 0, 0, 0, 0]\n[6, 0, 0, 0, 0, 0, 0, 0, 0, 0, 0, 0, 0, 0\n 0, 0, 0, 0, 0, 0, 0, 0, 0, 0]\n[5, 1, 0, 0, 0, 0, 0, 0, 0, 0, 0, 0, 0, 0\n 0, 0, 0, 0, 0, 0, 0, 0, 0, 0]\n[5, 1, 0, 0, 0, 0, 0, 0, 0, 0, 0, 0, 0, 0\n 0, 0, 0, 0, 0, 0, 0, 0, 0, 0]\n[0, 0, 0, 0, 0, 0, 0, 0, 0, 0, 0, 0, 6, 0\n 0, 0, 0, 0, 0, 0, 0, 0, 0, 0]\n[6, 0, 0, 0, 0, 0, 0, 0, 0, 0, 0, 0, 0, 0\n 0, 0, 0, 0, 0, 0, 0, 0, 0, 0]]"] ;
138 -> 150 ;
151 [label="X[15] <= -3.925\ngini = 0.149\nsamples = 5\nvalue = [[0, 5, 0, 0, 0, 0, 0, 0, 0, 0, 0, 0, 0, 0\n 0, 0, 0, 0, 0, 0, 0, 0, 0, 0]\n[0, 0, 1, 0, 0, 2, 1, 1, 0, 0, 0, 0, 0, 0\n 0, 0, 0, 0, 0, 0, 0, 0, 0, 0]\n[5, 0, 0, 0, 0, 0, 0, 0, 0, 0, 0, 0, 0, 0\n 0, 0, 0, 0, 0, 0, 0, 0, 0, 0]\n[5, 0, 0, 0, 0, 0, 0, 0, 0, 0, 0, 0, 0, 0\n 0, 0, 0, 0, 0, 0, 0, 0, 0, 0]\n[4, 1, 0, 0, 0, 0, 0, 0, 0, 0, 0, 0, 0, 0\n 0, 0, 0, 0, 0, 0, 0, 0, 0, 0]\n[0, 0, 0, 0, 0, 0, 0, 0, 0, 0, 0, 0, 5, 0\n 0, 0, 0, 0, 0, 0, 0, 0, 0, 0]\n[5, 0, 0, 0, 0, 0, 0, 0, 0, 0, 0, 0, 0, 0\n 0, 0, 0, 0, 0, 0, 0, 0, 0, 0]]"] ;
150 -> 151 ;
152 [label="X[8] <= 4704.162\ngini = 0.107\nsamples = 4\nvalue = [[0, 4, 0, 0, 0, 0, 0, 0, 0, 0, 0, 0, 0, 0\n 0, 0, 0, 0, 0, 0, 0, 0, 0, 0]\n[0, 0, 1, 0, 0, 1, 1, 1, 0, 0, 0, 0, 0, 0\n 0, 0, 0, 0, 0, 0, 0, 0, 0, 0]\n[4, 0, 0, 0, 0, 0, 0, 0, 0, 0, 0, 0, 0, 0\n 0, 0, 0, 0, 0, 0, 0, 0, 0, 0]\n[4, 0, 0, 0, 0, 0, 0, 0, 0, 0, 0, 0, 0, 0\n 0, 0, 0, 0, 0, 0, 0, 0, 0, 0]\n[4, 0, 0, 0, 0, 0, 0, 0, 0, 0, 0, 0, 0, 0\n 0, 0, 0, 0, 0, 0, 0, 0, 0, 0]\n[0, 0, 0, 0, 0, 0, 0, 0, 0, 0, 0, 0, 4, 0\n 0, 0, 0, 0, 0, 0, 0, 0, 0, 0]\n[4, 0, 0, 0, 0, 0, 0, 0, 0, 0, 0, 0, 0, 0\n 0, 0, 0, 0, 0, 0, 0, 0, 0, 0]]"] ;
151 -> 152 ;
153 [label="X[3] <= 211.331\ngini = 0.071\nsamples = 2\nvalue = [[0, 2, 0, 0, 0, 0, 0, 0, 0, 0, 0, 0, 0, 0\n 0, 0, 0, 0, 0, 0, 0, 0, 0, 0]\n[0, 0, 0, 0, 0, 1, 0, 1, 0, 0, 0, 0, 0, 0\n 0, 0, 0, 0, 0, 0, 0, 0, 0, 0]\n[2, 0, 0, 0, 0, 0, 0, 0, 0, 0, 0, 0, 0, 0\n 0, 0, 0, 0, 0, 0, 0, 0, 0, 0]\n[2, 0, 0, 0, 0, 0, 0, 0, 0, 0, 0, 0, 0, 0\n 0, 0, 0, 0, 0, 0, 0, 0, 0, 0]\n[2, 0, 0, 0, 0, 0, 0, 0, 0, 0, 0, 0, 0, 0\n 0, 0, 0, 0, 0, 0, 0, 0, 0, 0]\n[0, 0, 0, 0, 0, 0, 0, 0, 0, 0, 0, 0, 2, 0\n 0, 0, 0, 0, 0, 0, 0, 0, 0, 0]\n[2, 0, 0, 0, 0, 0, 0, 0, 0, 0, 0, 0, 0, 0\n 0, 0, 0, 0, 0, 0, 0, 0, 0, 0]]"] ;
152 -> 153 ;
154 [label="gini = 0.0\nsamples = 1\nvalue = [[0, 1, 0, 0, 0, 0, 0, 0, 0, 0, 0, 0, 0, 0\n 0, 0, 0, 0, 0, 0, 0, 0, 0, 0]\n[0, 0, 0, 0, 0, 1, 0, 0, 0, 0, 0, 0, 0, 0\n 0, 0, 0, 0, 0, 0, 0, 0, 0, 0]\n[1, 0, 0, 0, 0, 0, 0, 0, 0, 0, 0, 0, 0, 0\n 0, 0, 0, 0, 0, 0, 0, 0, 0, 0]\n[1, 0, 0, 0, 0, 0, 0, 0, 0, 0, 0, 0, 0, 0\n 0, 0, 0, 0, 0, 0, 0, 0, 0, 0]\n[1, 0, 0, 0, 0, 0, 0, 0, 0, 0, 0, 0, 0, 0\n 0, 0, 0, 0, 0, 0, 0, 0, 0, 0]\n[0, 0, 0, 0, 0, 0, 0, 0, 0, 0, 0, 0, 1, 0\n 0, 0, 0, 0, 0, 0, 0, 0, 0, 0]\n[1, 0, 0, 0, 0, 0, 0, 0, 0, 0, 0, 0, 0, 0\n 0, 0, 0, 0, 0, 0, 0, 0, 0, 0]]"] ;
153 -> 154 ;
155 [label="gini = 0.0\nsamples = 1\nvalue = [[0, 1, 0, 0, 0, 0, 0, 0, 0, 0, 0, 0, 0, 0\n 0, 0, 0, 0, 0, 0, 0, 0, 0, 0]\n[0, 0, 0, 0, 0, 0, 0, 1, 0, 0, 0, 0, 0, 0\n 0, 0, 0, 0, 0, 0, 0, 0, 0, 0]\n[1, 0, 0, 0, 0, 0, 0, 0, 0, 0, 0, 0, 0, 0\n 0, 0, 0, 0, 0, 0, 0, 0, 0, 0]\n[1, 0, 0, 0, 0, 0, 0, 0, 0, 0, 0, 0, 0, 0\n 0, 0, 0, 0, 0, 0, 0, 0, 0, 0]\n[1, 0, 0, 0, 0, 0, 0, 0, 0, 0, 0, 0, 0, 0\n 0, 0, 0, 0, 0, 0, 0, 0, 0, 0]\n[0, 0, 0, 0, 0, 0, 0, 0, 0, 0, 0, 0, 1, 0\n 0, 0, 0, 0, 0, 0, 0, 0, 0, 0]\n[1, 0, 0, 0, 0, 0, 0, 0, 0, 0, 0, 0, 0, 0\n 0, 0, 0, 0, 0, 0, 0, 0, 0, 0]]"] ;
153 -> 155 ;
156 [label="X[1] <= 3553.5\ngini = 0.071\nsamples = 2\nvalue = [[0, 2, 0, 0, 0, 0, 0, 0, 0, 0, 0, 0, 0, 0\n 0, 0, 0, 0, 0, 0, 0, 0, 0, 0]\n[0, 0, 1, 0, 0, 0, 1, 0, 0, 0, 0, 0, 0, 0\n 0, 0, 0, 0, 0, 0, 0, 0, 0, 0]\n[2, 0, 0, 0, 0, 0, 0, 0, 0, 0, 0, 0, 0, 0\n 0, 0, 0, 0, 0, 0, 0, 0, 0, 0]\n[2, 0, 0, 0, 0, 0, 0, 0, 0, 0, 0, 0, 0, 0\n 0, 0, 0, 0, 0, 0, 0, 0, 0, 0]\n[2, 0, 0, 0, 0, 0, 0, 0, 0, 0, 0, 0, 0, 0\n 0, 0, 0, 0, 0, 0, 0, 0, 0, 0]\n[0, 0, 0, 0, 0, 0, 0, 0, 0, 0, 0, 0, 2, 0\n 0, 0, 0, 0, 0, 0, 0, 0, 0, 0]\n[2, 0, 0, 0, 0, 0, 0, 0, 0, 0, 0, 0, 0, 0\n 0, 0, 0, 0, 0, 0, 0, 0, 0, 0]]"] ;
152 -> 156 ;
157 [label="gini = 0.0\nsamples = 1\nvalue = [[0, 1, 0, 0, 0, 0, 0, 0, 0, 0, 0, 0, 0, 0\n 0, 0, 0, 0, 0, 0, 0, 0, 0, 0]\n[0, 0, 0, 0, 0, 0, 1, 0, 0, 0, 0, 0, 0, 0\n 0, 0, 0, 0, 0, 0, 0, 0, 0, 0]\n[1, 0, 0, 0, 0, 0, 0, 0, 0, 0, 0, 0, 0, 0\n 0, 0, 0, 0, 0, 0, 0, 0, 0, 0]\n[1, 0, 0, 0, 0, 0, 0, 0, 0, 0, 0, 0, 0, 0\n 0, 0, 0, 0, 0, 0, 0, 0, 0, 0]\n[1, 0, 0, 0, 0, 0, 0, 0, 0, 0, 0, 0, 0, 0\n 0, 0, 0, 0, 0, 0, 0, 0, 0, 0]\n[0, 0, 0, 0, 0, 0, 0, 0, 0, 0, 0, 0, 1, 0\n 0, 0, 0, 0, 0, 0, 0, 0, 0, 0]\n[1, 0, 0, 0, 0, 0, 0, 0, 0, 0, 0, 0, 0, 0\n 0, 0, 0, 0, 0, 0, 0, 0, 0, 0]]"] ;
156 -> 157 ;
158 [label="gini = 0.0\nsamples = 1\nvalue = [[0, 1, 0, 0, 0, 0, 0, 0, 0, 0, 0, 0, 0, 0\n 0, 0, 0, 0, 0, 0, 0, 0, 0, 0]\n[0, 0, 1, 0, 0, 0, 0, 0, 0, 0, 0, 0, 0, 0\n 0, 0, 0, 0, 0, 0, 0, 0, 0, 0]\n[1, 0, 0, 0, 0, 0, 0, 0, 0, 0, 0, 0, 0, 0\n 0, 0, 0, 0, 0, 0, 0, 0, 0, 0]\n[1, 0, 0, 0, 0, 0, 0, 0, 0, 0, 0, 0, 0, 0\n 0, 0, 0, 0, 0, 0, 0, 0, 0, 0]\n[1, 0, 0, 0, 0, 0, 0, 0, 0, 0, 0, 0, 0, 0\n 0, 0, 0, 0, 0, 0, 0, 0, 0, 0]\n[0, 0, 0, 0, 0, 0, 0, 0, 0, 0, 0, 0, 1, 0\n 0, 0, 0, 0, 0, 0, 0, 0, 0, 0]\n[1, 0, 0, 0, 0, 0, 0, 0, 0, 0, 0, 0, 0, 0\n 0, 0, 0, 0, 0, 0, 0, 0, 0, 0]]"] ;
156 -> 158 ;
159 [label="gini = 0.0\nsamples = 1\nvalue = [[0, 1, 0, 0, 0, 0, 0, 0, 0, 0, 0, 0, 0, 0\n 0, 0, 0, 0, 0, 0, 0, 0, 0, 0]\n[0, 0, 0, 0, 0, 1, 0, 0, 0, 0, 0, 0, 0, 0\n 0, 0, 0, 0, 0, 0, 0, 0, 0, 0]\n[1, 0, 0, 0, 0, 0, 0, 0, 0, 0, 0, 0, 0, 0\n 0, 0, 0, 0, 0, 0, 0, 0, 0, 0]\n[1, 0, 0, 0, 0, 0, 0, 0, 0, 0, 0, 0, 0, 0\n 0, 0, 0, 0, 0, 0, 0, 0, 0, 0]\n[0, 1, 0, 0, 0, 0, 0, 0, 0, 0, 0, 0, 0, 0\n 0, 0, 0, 0, 0, 0, 0, 0, 0, 0]\n[0, 0, 0, 0, 0, 0, 0, 0, 0, 0, 0, 0, 1, 0\n 0, 0, 0, 0, 0, 0, 0, 0, 0, 0]\n[1, 0, 0, 0, 0, 0, 0, 0, 0, 0, 0, 0, 0, 0\n 0, 0, 0, 0, 0, 0, 0, 0, 0, 0]]"] ;
151 -> 159 ;
160 [label="gini = 0.0\nsamples = 1\nvalue = [[0, 1, 0, 0, 0, 0, 0, 0, 0, 0, 0, 0, 0, 0\n 0, 0, 0, 0, 0, 0, 0, 0, 0, 0]\n[1, 0, 0, 0, 0, 0, 0, 0, 0, 0, 0, 0, 0, 0\n 0, 0, 0, 0, 0, 0, 0, 0, 0, 0]\n[1, 0, 0, 0, 0, 0, 0, 0, 0, 0, 0, 0, 0, 0\n 0, 0, 0, 0, 0, 0, 0, 0, 0, 0]\n[0, 1, 0, 0, 0, 0, 0, 0, 0, 0, 0, 0, 0, 0\n 0, 0, 0, 0, 0, 0, 0, 0, 0, 0]\n[1, 0, 0, 0, 0, 0, 0, 0, 0, 0, 0, 0, 0, 0\n 0, 0, 0, 0, 0, 0, 0, 0, 0, 0]\n[0, 0, 0, 0, 0, 0, 0, 0, 0, 0, 0, 0, 1, 0\n 0, 0, 0, 0, 0, 0, 0, 0, 0, 0]\n[1, 0, 0, 0, 0, 0, 0, 0, 0, 0, 0, 0, 0, 0\n 0, 0, 0, 0, 0, 0, 0, 0, 0, 0]]"] ;
150 -> 160 ;
161 [label="X[17] <= 9380.5\ngini = 0.281\nsamples = 11\nvalue = [[0, 11, 0, 0, 0, 0, 0, 0, 0, 0, 0, 0, 0, 0\n 0, 0, 0, 0, 0, 0, 0, 0, 0, 0]\n[0, 1, 0, 0, 0, 8, 1, 1, 0, 0, 0, 0, 0, 0\n 0, 0, 0, 0, 0, 0, 0, 0, 0, 0]\n[11, 0, 0, 0, 0, 0, 0, 0, 0, 0, 0, 0, 0, 0\n 0, 0, 0, 0, 0, 0, 0, 0, 0, 0]\n[6, 5, 0, 0, 0, 0, 0, 0, 0, 0, 0, 0, 0, 0\n 0, 0, 0, 0, 0, 0, 0, 0, 0, 0]\n[9, 2, 0, 0, 0, 0, 0, 0, 0, 0, 0, 0, 0, 0\n 0, 0, 0, 0, 0, 0, 0, 0, 0, 0]\n[0, 0, 0, 0, 0, 2, 0, 0, 0, 4, 0, 0, 0, 0\n 3, 0, 0, 0, 0, 0, 0, 0, 2, 0]\n[11, 0, 0, 0, 0, 0, 0, 0, 0, 0, 0, 0, 0, 0\n 0, 0, 0, 0, 0, 0, 0, 0, 0, 0]]"] ;
137 -> 161 ;
162 [label="X[11] <= 4311.151\ngini = 0.263\nsamples = 5\nvalue = [[0, 5, 0, 0, 0, 0, 0, 0, 0, 0, 0, 0, 0, 0\n 0, 0, 0, 0, 0, 0, 0, 0, 0, 0]\n[0, 0, 0, 0, 0, 3, 1, 1, 0, 0, 0, 0, 0, 0\n 0, 0, 0, 0, 0, 0, 0, 0, 0, 0]\n[5, 0, 0, 0, 0, 0, 0, 0, 0, 0, 0, 0, 0, 0\n 0, 0, 0, 0, 0, 0, 0, 0, 0, 0]\n[2, 3, 0, 0, 0, 0, 0, 0, 0, 0, 0, 0, 0, 0\n 0, 0, 0, 0, 0, 0, 0, 0, 0, 0]\n[3, 2, 0, 0, 0, 0, 0, 0, 0, 0, 0, 0, 0, 0\n 0, 0, 0, 0, 0, 0, 0, 0, 0, 0]\n[0, 0, 0, 0, 0, 1, 0, 0, 0, 4, 0, 0, 0, 0\n 0, 0, 0, 0, 0, 0, 0, 0, 0, 0]\n[5, 0, 0, 0, 0, 0, 0, 0, 0, 0, 0, 0, 0, 0\n 0, 0, 0, 0, 0, 0, 0, 0, 0, 0]]"] ;
161 -> 162 ;
163 [label="X[2] <= 0.486\ngini = 0.214\nsamples = 2\nvalue = [[0, 2, 0, 0, 0, 0, 0, 0, 0, 0, 0, 0, 0, 0\n 0, 0, 0, 0, 0, 0, 0, 0, 0, 0]\n[0, 0, 0, 0, 0, 1, 0, 1, 0, 0, 0, 0, 0, 0\n 0, 0, 0, 0, 0, 0, 0, 0, 0, 0]\n[2, 0, 0, 0, 0, 0, 0, 0, 0, 0, 0, 0, 0, 0\n 0, 0, 0, 0, 0, 0, 0, 0, 0, 0]\n[1, 1, 0, 0, 0, 0, 0, 0, 0, 0, 0, 0, 0, 0\n 0, 0, 0, 0, 0, 0, 0, 0, 0, 0]\n[0, 2, 0, 0, 0, 0, 0, 0, 0, 0, 0, 0, 0, 0\n 0, 0, 0, 0, 0, 0, 0, 0, 0, 0]\n[0, 0, 0, 0, 0, 1, 0, 0, 0, 1, 0, 0, 0, 0\n 0, 0, 0, 0, 0, 0, 0, 0, 0, 0]\n[2, 0, 0, 0, 0, 0, 0, 0, 0, 0, 0, 0, 0, 0\n 0, 0, 0, 0, 0, 0, 0, 0, 0, 0]]"] ;
162 -> 163 ;
164 [label="gini = 0.0\nsamples = 1\nvalue = [[0, 1, 0, 0, 0, 0, 0, 0, 0, 0, 0, 0, 0, 0\n 0, 0, 0, 0, 0, 0, 0, 0, 0, 0]\n[0, 0, 0, 0, 0, 0, 0, 1, 0, 0, 0, 0, 0, 0\n 0, 0, 0, 0, 0, 0, 0, 0, 0, 0]\n[1, 0, 0, 0, 0, 0, 0, 0, 0, 0, 0, 0, 0, 0\n 0, 0, 0, 0, 0, 0, 0, 0, 0, 0]\n[1, 0, 0, 0, 0, 0, 0, 0, 0, 0, 0, 0, 0, 0\n 0, 0, 0, 0, 0, 0, 0, 0, 0, 0]\n[0, 1, 0, 0, 0, 0, 0, 0, 0, 0, 0, 0, 0, 0\n 0, 0, 0, 0, 0, 0, 0, 0, 0, 0]\n[0, 0, 0, 0, 0, 0, 0, 0, 0, 1, 0, 0, 0, 0\n 0, 0, 0, 0, 0, 0, 0, 0, 0, 0]\n[1, 0, 0, 0, 0, 0, 0, 0, 0, 0, 0, 0, 0, 0\n 0, 0, 0, 0, 0, 0, 0, 0, 0, 0]]"] ;
163 -> 164 ;
165 [label="gini = 0.0\nsamples = 1\nvalue = [[0, 1, 0, 0, 0, 0, 0, 0, 0, 0, 0, 0, 0, 0\n 0, 0, 0, 0, 0, 0, 0, 0, 0, 0]\n[0, 0, 0, 0, 0, 1, 0, 0, 0, 0, 0, 0, 0, 0\n 0, 0, 0, 0, 0, 0, 0, 0, 0, 0]\n[1, 0, 0, 0, 0, 0, 0, 0, 0, 0, 0, 0, 0, 0\n 0, 0, 0, 0, 0, 0, 0, 0, 0, 0]\n[0, 1, 0, 0, 0, 0, 0, 0, 0, 0, 0, 0, 0, 0\n 0, 0, 0, 0, 0, 0, 0, 0, 0, 0]\n[0, 1, 0, 0, 0, 0, 0, 0, 0, 0, 0, 0, 0, 0\n 0, 0, 0, 0, 0, 0, 0, 0, 0, 0]\n[0, 0, 0, 0, 0, 1, 0, 0, 0, 0, 0, 0, 0, 0\n 0, 0, 0, 0, 0, 0, 0, 0, 0, 0]\n[1, 0, 0, 0, 0, 0, 0, 0, 0, 0, 0, 0, 0, 0\n 0, 0, 0, 0, 0, 0, 0, 0, 0, 0]]"] ;
163 -> 165 ;
166 [label="X[2] <= 0.426\ngini = 0.127\nsamples = 3\nvalue = [[0, 3, 0, 0, 0, 0, 0, 0, 0, 0, 0, 0, 0, 0\n 0, 0, 0, 0, 0, 0, 0, 0, 0, 0]\n[0, 0, 0, 0, 0, 2, 1, 0, 0, 0, 0, 0, 0, 0\n 0, 0, 0, 0, 0, 0, 0, 0, 0, 0]\n[3, 0, 0, 0, 0, 0, 0, 0, 0, 0, 0, 0, 0, 0\n 0, 0, 0, 0, 0, 0, 0, 0, 0, 0]\n[1, 2, 0, 0, 0, 0, 0, 0, 0, 0, 0, 0, 0, 0\n 0, 0, 0, 0, 0, 0, 0, 0, 0, 0]\n[3, 0, 0, 0, 0, 0, 0, 0, 0, 0, 0, 0, 0, 0\n 0, 0, 0, 0, 0, 0, 0, 0, 0, 0]\n[0, 0, 0, 0, 0, 0, 0, 0, 0, 3, 0, 0, 0, 0\n 0, 0, 0, 0, 0, 0, 0, 0, 0, 0]\n[3, 0, 0, 0, 0, 0, 0, 0, 0, 0, 0, 0, 0, 0\n 0, 0, 0, 0, 0, 0, 0, 0, 0, 0]]"] ;
162 -> 166 ;
